solver_type L1R_LR
nr_class 2
label 1 -1
nr_feature 62
bias -1
w
-0.7782453955590561 
0.1214327706404 
-3.839951137157084 
2.804311576210878 
-2.559992602922934 
1.266826044136279 
0.615634334064874 
0.4672271320031238 
-0.5004207434883361 
0.4262930391201594 
0.2517386604519019 
0.4261934407175819 
-0.2095593473757539 
-0.4518035597101654 
-0.365655063086 
-0.2396773837319727 
0.7149962214473883 
-1.639104641482417 
-0.3012125767376609 
-0.225359752041946 
0.5854689171325141 
0.6192853157236484 
0.9277981986708979 
0.164172933841842 
0.8648254612192603 
0.3825807906866844 
0.3447087569281543 
-0.1496763088671527 
0.6612955946489876 
-0.1856586835011426 
-0.09834409226679974 
-0.1397467485109327 
-0.2335854576552754 
0.9297472207867988 
1.57348634612153 
1.030876466829422 
0.9806962626812962 
1.135346228542193 
0.9379741704092778 
1.21169509740837 
1.213358044772757 
1.197234076792021 
-0.6583716980839359 
-0.08945513252665867 
-0.7559181757940539 
-0.1309382120221565 
-0.4368990971323205 
0.1116492780473112 
-0.1014950412921967 
-0.6607671395172434 
-0.5608836565554332 
0.5688468212844977 
-0.7242563724578652 
-0.404872090238638 
-0.2787526776831873 
-0.2404541973643814 
-0.5357022335827349 
-0.1515188732635907 
-0.4670806698257701 
-0.3510267637569787 
-0.3366822040120011 
-0.6516324558559218 
