solver_type L2R_L2LOSS_SVC_DUAL
nr_class 2
label 1 -1
nr_feature 576
bias 1
w
-0.4418668686709401 
-0.217353746452321 
-0.2547595839789859 
0.3308252095110135 
0.2124270767395683 
-0.004628070598293391 
-0.1511409959410907 
0.5442691449724854 
-0.06463758233477074 
-0.07241665424082776 
-0.4478405691598481 
-0.279254745215053 
-0.3830208747598716 
0.121383812847942 
-0.1674405187781411 
-0.1223704848271768 
-0.4519162934328423 
-0.6772377685635788 
-0.136794233929753 
0.4312927833250025 
0.1586800655795415 
-0.0002955778409025255 
0.009294970878723675 
0.2740105680637155 
0.7964069213428453 
-0.3973836545012271 
-1.076831267913444 
0.5876714527540156 
0.6962373989995976 
-0.1350349954362746 
-0.2357185740515011 
0.2537667581692502 
-0.4368894111955159 
-0.8204702266002982 
-0.5168354354524309 
-0.1646481582348905 
-0.06193679162930267 
-0.3221762848372093 
0.00827964536761343 
0.2905886767132236 
0.4241754778896085 
0.296299184790563 
-0.5706399581171721 
0.7565301575136323 
0.2482256117893473 
0.2704258235413741 
-0.1299381368044595 
0.2129483816670562 
0.5799131605034692 
1.224393577987146 
-0.4212730628968235 
-0.3089392087809794 
0.4792207023838059 
0.15749236961918 
-0.3127871453184008 
0.5974597333197134 
-0.2204615797950653 
0.2241105823581643 
0.1359105881604786 
0.07911501636900312 
0.1960041338121851 
0.02327687093948645 
-0.2187923934790353 
0.7011891091215358 
-0.3179241363569478 
-0.3427095769622041 
-0.06063600606176946 
-1.052965504111401 
-0.817968794306925 
-0.3743511043301925 
-0.3878428178421392 
-1.011995725388817 
-1.119246405240901 
-0.03138387519525115 
0.7792436600238639 
-0.6303084862351347 
-0.7053757905252928 
-0.07166371279238659 
0.1029020581187302 
-0.9130747951648691 
0.3707034115309741 
0.4846156731033137 
-0.1483416734378085 
-0.6764728959429884 
0.09532837201153212 
0.4589922419651304 
0.3419866408822145 
-0.438876671295005 
-0.522143408436982 
0.3845996139671549 
0.1654226458444365 
-0.4431311326529251 
-0.3598678796685816 
-0.14663211012465 
0.2244067579563536 
0.2064885831613182 
-0.9555181205924421 
-0.9015280110093569 
-0.1992837723507263 
0.02167304405160934 
-0.6140126563325364 
-0.9407424534718085 
0.3006562482829752 
-0.3905252080249567 
-0.1749077124685637 
0.1014108885487442 
-0.2711916994101057 
-0.09305157948004234 
0.2528168505060761 
0.6396673724886701 
-0.5813962206346885 
-0.4871271948107068 
-0.5336937987291019 
0.1651242866148395 
0.1442610320221324 
0.2125768298576202 
0.8290981620223693 
-0.3012995677441288 
0.0842632066812794 
0.3984983197695987 
0.2029304560928634 
-0.763689623102077 
-0.3359835813130637 
-0.9368988411240565 
-0.3501656683679089 
0.2725764946647199 
0.2858355329544164 
1.147957230689786 
-0.176755126967954 
-0.4379815322498201 
0.1007289619417922 
0.7325054824190154 
-0.04009110703395784 
-0.2614894271536214 
-1.278932827965741 
0.06509758425881815 
0.6540231439948224 
-0.4865851746759594 
-0.1660573337447357 
0.1120840153525082 
0.2610706295863367 
-0.08674468183967833 
-0.4839794479546494 
-0.813354992961223 
-0.2468737091882174 
0.1067280615775919 
0.03239550463749501 
0.01688483751413589 
0.2087133646191762 
-0.2438445557292694 
0.08615582438789167 
0.1996287040936728 
-0.26314797219823 
0.3047434654157356 
0.05187967754749975 
0.1539187349260463 
0.009555902287823001 
-0.2097094006935388 
0.2559730800267357 
-0.4645044584705484 
0.8394991451620076 
-0.009399734585840376 
0.06508950705548447 
0.3299319140980839 
-0.3334457836830058 
0.04027312232450542 
-0.4215104884372405 
-0.1834590543928195 
0.84216084456205 
0.7590526798953476 
0.03334886586331396 
0.5135504542150188 
0.07129120472066819 
-0.1741458524664857 
0.3156068523990228 
-0.1621119161521405 
-0.07004161653238618 
-0.0539970377472137 
-0.0614987476437221 
0.3460141447376818 
0.2465038403412565 
1.332342977323956 
0.8268525288158708 
0.5736653232220735 
-0.2137300204024362 
-0.2747190486499124 
-0.187661895096386 
0.07794800213999104 
-0.4909567224218903 
-0.1619226297155934 
-0.2315915915608234 
-0.7934997955365335 
0.1360212971238021 
0.8977724733588441 
0.4607487012744568 
0.2352705498708366 
0.5406394761018561 
1.015452468530114 
0.5396846278505399 
-0.6565105411586535 
-0.3235759857114253 
-0.3773762715538294 
1.005999700331087 
-0.4438781431577648 
0.392798609964478 
-0.01402491632075714 
0.6083937093552746 
-0.4037463821643736 
0.2078943431962488 
-0.4652529928068282 
0.582665854585728 
0.6628835375589441 
-0.6695847041096581 
-0.7192817213825618 
-1.417822913565524 
-0.9667566538951905 
-0.3681286878719685 
-0.7185063966745758 
-0.3160037676002745 
0.2465177405789556 
-0.3084110326143171 
-0.04750948767722011 
-0.2818646165242571 
-0.6625977004250697 
0.1168612826057869 
0.07746109333786755 
0.440873413369343 
0.5442121624293079 
0.1526114942974824 
0.5559006114142843 
1.312311336933349 
0.3254240333832753 
-0.8986883224404366 
0.02082229337844687 
0.4322864920960425 
1.149511350551146 
0.7156060252210394 
-0.0546929431724812 
-0.08814501590111028 
-0.5494539495391994 
0.09695072001383444 
-0.4608478586682424 
-7.239478498997318e-005 
0.5603351522277456 
-0.3828982397711868 
0.0399399726612258 
0.7096567831314818 
0.776476405409007 
0.3703127330186053 
0.3803113316458296 
0.104761677843399 
-0.7672336911322174 
0.06333826598569785 
0.4383671338111886 
-0.6862069710452481 
0.7805799292289011 
-0.232448372043949 
-0.1819583292545969 
0.8466342778049036 
0.6173813769448975 
1.035351506723389 
1.779110690514261 
1.39907385527936 
0.7455948804699458 
1.135234049234368 
-0.08161829021342278 
0.07526391338058484 
0.05889177139447654 
-0.07612893992604167 
-0.4357028578154625 
1.337314734755684 
0.2354977906182534 
-0.8953195088134854 
-0.6747736571084769 
-0.377076734833084 
-0.214715512610718 
-0.333657463912984 
0.4645451711878004 
-0.2709204834576436 
0.3003436407089681 
0.5642992663014343 
1.010478290140983 
1.016941810160943 
0.460643619875764 
-0.6813375531732991 
-1.4000980184587 
-0.2075199897632869 
-1.172877056975845 
0.2210764990920814 
-0.0678956664202378 
-0.3175336744405558 
-0.8118906001632822 
0.6813215724270828 
0.1917390283118259 
0.08260783394981347 
-0.309320538449386 
-0.1294034358101272 
-0.8186948796333567 
-0.4102815871223711 
-0.330044942651057 
-1.010080966100805 
-0.6007491260118413 
0.09689112318859881 
0.08630815803387101 
-0.1285948124373919 
-0.1250921908510122 
0.5247260771027106 
-0.7791234236579354 
0.1357968368967349 
-0.9701371188505307 
-0.8472802810184956 
0.3457635386629914 
0.4200985540112532 
0.1921927292568695 
-0.08303523479478388 
0.4876788011422877 
-0.3503693597825808 
-0.1525304692797456 
-0.2588520488036775 
-0.5053965733597395 
0.3708432004172965 
0.9043227966313762 
0.4336560852901027 
-0.3233952678210916 
0.1598942165594316 
-0.1355914451545353 
0.5177402015649714 
-0.6110084713533662 
-1.816736066177643 
-1.478733696601034 
-0.8934001878556803 
-0.3422475549178057 
1.062234625421731 
1.170059812670639 
-0.5440741429983999 
0.07453784511393316 
-0.02259792664978484 
0.4001087681137513 
0.2773421283967771 
-0.1517761891367419 
0.1817742003667308 
-1.517155375004435 
-1.323628633450037 
-0.9578298501767247 
0.2639620312151666 
0.7557628685276746 
0.7054070213275127 
0.0264356785334875 
0.2115028231653936 
0.1893569575135028 
-0.2395211819768454 
-0.06393672976792922 
0.4899709890670813 
0.7297464642965849 
0.1679638555995547 
-0.3625354507062034 
-1.050329531032375 
0.5797205855063442 
0.9647731238435869 
-0.3534253157897651 
0.3583236563292211 
0.1528179782741635 
0.296979720776795 
0.3036503432976652 
-1.691868791203426 
-1.1639358524006 
-0.9145708688650605 
0.06789141049454447 
-0.08705496810624144 
0.1911001146887383 
0.288509852584068 
-0.3655108968765588 
-0.2112270545451834 
-0.7027011675311682 
-0.6386799503538896 
0.2531316163485849 
-0.05688931547458506 
0.7628406985372067 
1.059012810716525 
0.4952742504880976 
0.3651176459501166 
0.7267932127151278 
-0.2353770314843408 
-0.3931164473585734 
-0.01083076744101451 
0.462046809793924 
0.1667999930067728 
0.2531520804648172 
0.4126519738634054 
-0.3987521413758174 
-0.6785112027950607 
0.5622433448969759 
1.196762425108969 
0.02863023295560526 
-0.05112589002272197 
-0.5046351152563832 
0.04095083622357914 
0.551131714174265 
0.2861870581410594 
0.6720950460367268 
0.9357032359864077 
1.233864793171405 
0.2421927274104234 
0.3253407674487677 
0.1868703896006528 
0.5032390393212946 
-0.7219349014481178 
-0.3978730940810171 
0.4837346249669413 
0.8196310106649203 
0.08188595251643885 
0.5258030240219481 
0.535871349867576 
0.4895987024425562 
0.5736163357230453 
-0.01915605926136362 
0.2573369253499788 
-0.1256717653822422 
0.05385521943029894 
0.02384486156043425 
-0.1231625295257387 
-0.08460271550845035 
-0.001253549413529151 
0.06415326537255085 
-0.1402049048582855 
-0.4660188706479587 
-0.8743161593858057 
-1.218920030065587 
-0.509535420960533 
-0.1476192795942934 
-0.795482374823147 
-0.4445692088930203 
0.4245205088337775 
-0.5854042731567986 
-0.3436675479667955 
-1.187646944365943 
0.2395611524195899 
0.172359885017302 
0.1346412330066778 
-0.5114769780060136 
-1.174257999536291 
-0.380877221874644 
-0.04813721609387268 
0.7260427729675882 
0.4089915288769253 
0.6604118024409755 
0.2265244435782149 
0.4284506807069402 
-0.8292047812553204 
-0.4790291848651256 
-0.7231089146972283 
-0.4116313481703862 
-0.102471725181116 
-0.7918443601449224 
-0.1056005360662458 
-0.1743773274965395 
-0.7021088027977861 
-0.2425629702737034 
0.5071348035771134 
0.4084702503536795 
-0.3534049873788898 
-0.9822247812500664 
0.03320765252301611 
-0.9899877454128511 
0.2643118151657035 
-0.5719095649005004 
-0.2454237151661854 
-0.2120987311514554 
0.5720497740019633 
0.8317855230559276 
-0.308463333451211 
-0.4748238400741244 
0.1379803763268919 
-0.2118280386501737 
0.06309251618551422 
-0.4944738690484817 
-0.1489297630622298 
-0.2834893468155064 
0.1335239502700006 
-1.494050349806749 
-0.3936255340382071 
0.4438677940906409 
0.06103371816162138 
1.33885750460812 
-0.2189837640734041 
-0.5819496844512724 
-0.5725734632646351 
0.04107351408322539 
0.394646086265473 
-0.1096344276434265 
0.2510559353300656 
-1.13231824500614 
-0.4497879255954415 
-0.5277792484902664 
-0.02222439021972246 
-0.00159921410662601 
-1.013153505717249 
-1.100445161155107 
0.06176631454431125 
-0.4259002141461673 
-1.173810825863238 
-0.5142562319678838 
0.009930826019484577 
0.1976636667637537 
0.6203184900137765 
0.5846526128341826 
0.6551697081961577 
-0.6519064064276855 
0.9713604713802978 
-0.1046293854420683 
-0.3287557366099091 
0.3862194506094707 
-1.009692773364043 
-0.5844715734042342 
-0.9140269638640204 
0.9486039536975457 
0.3215508697406282 
-0.1782487412996628 
0.4398676841565465 
0.4126157549128088 
-1.093189545164524 
-0.3950047181722112 
-0.3535749832229304 
-0.2245872091985176 
1.08287108120237 
0.4081285728445859 
0.1314881311156125 
0.964586355931399 
0.2948550158356173 
0.2242131445638834 
-0.0382849782563625 
0.5971598311711163 
0.5602317973790254 
0.7996394795237577 
0.4603511978137241 
0.4450953720991921 
1.426845768334151 
0.005474373423375685 
-0.4245994274174081 
-0.3511980053417697 
-0.05136464235745045 
-0.1029814212352667 
0.5877220033491092 
0.8031764015703795 
0.9330580410520001 
0.8996434972297426 
-0.2450633956370889 
0.3513248718376835 
0.41234620392876 
0.1886284093897423 
-0.1252496702521052 
-0.3837616747792995 
-0.2035288599536783 
-0.6913239082403737 
-0.3531915691646284 
0.643564647810404 
-0.6976477695804472 
0.3761636527067719 
0.3070121744517004 
-0.2884376777636583 
-0.1057112988324088 
-0.7560389782989427 
-0.681026507017563 
-0.1587504923723071 
-1.019776879858153 
-0.1399321277997947 
-0.3119117551977307 
-0.3083363853977471 
0.03657458234723961 
0.2424187341400621 
-0.3706991831942905 
-0.3030989860704875 
-0.1968561558412616 
-0.04876024449999511 
0.003194834374987823 
-0.06544890407572225 
-1.608884357136164 
