solver_type L2R_L2LOSS_SVC_DUAL
nr_class 2
label 1 -1
nr_feature 576
bias 1
w
0 
0 
0 
0 
0 
0 
0 
0 
0 
0 
0 
0 
0 
0 
0 
0 
-0.07076392220582004 
-1.150011426192097 
-0.6583465535849171 
-0.1579659432573227 
-0.8078461770919992 
0.7224484307141776 
-0.1711113283776763 
-1.564008311953396 
-0.268016820313135 
-0.5680751548525573 
0.07703807512825252 
-0.3130566095210837 
0.6556555113881705 
0.6032677628380316 
0.1165810265963997 
1.775752085013232 
0 
0 
0 
0 
0 
0 
0 
0 
0 
0 
0 
0 
0 
0 
0 
0 
-0.0172327001120521 
0 
0 
0 
0 
0 
0 
0 
1.236708789492301 
-0.8551942428459186 
0.07197047679440942 
-1.212628988535225 
-0.1038581605943866 
0.6712405987654407 
-0.7676362875888249 
-0.3112898986825367 
-2.534793072954263 
-2.026167131574052 
-1.162064976811163 
1.432892141038111 
1.865203258050592 
0.774780163539958 
0.7275236485880444 
2.469443720219028 
0.2108178065711377 
0.5080809247956521 
-0.570116031922134 
0.7996737660418347 
-0.4293875369234477 
-1.106087223482497 
-0.1527564882641027 
-1.312507759287188 
2.272206503314012 
1.12772786940795 
-0.8336653812095741 
-2.34267081002704 
-0.389238388590982 
-2.692730803298927 
0.1522064251802571 
0.3371426318983621 
0.3634477217371668 
-0.3966559891207251 
0.04331873630284682 
-0.0556972429444542 
0.4502620246283103 
1.567647219942773 
-0.04778124314324952 
0.8725076097775231 
-0.0003644819852320529 
0 
0 
0 
0 
0 
0 
0 
-0.9733676872860769 
-0.2144520828594319 
0.3038735859406261 
1.524169185576216 
-0.8525321349876873 
-1.503247430332807 
0.06414146507651693 
-0.1523824950529806 
2.865514561938882 
-0.2088444101997355 
-2.802739694246621 
0.2711669952327811 
-2.574552362819123 
-0.6189655608137292 
1.94951610992204 
-1.267418365641047 
-2.151794913537507 
0.800471212773073 
-0.07485880718696519 
-0.3246362905317468 
-0.08409877767950429 
0.4068498233262389 
-1.498643957814687 
0.1104773920556924 
-2.344928173886498 
-1.643705464014495 
-0.4353451267324369 
0.6301594793682203 
-0.03859057022573837 
1.09738504141198 
-0.1832677289779189 
-0.4558125099313411 
-0.3736629206927641 
0.3958689859275958 
0.1592444437553032 
-0.03049930607123186 
-0.3449172399189162 
-1.372021733096294 
-0.1070247475766539 
-1.326058794242284 
0.1731449222729303 
0.1538428940396655 
-0.7878443405791022 
-0.8835928093675247 
-1.340896077851179 
-0.4495333307470351 
-0.253846336117649 
0.0457987555455349 
0.01941667964546362 
0.1754537121224135 
0.2334923742505261 
-0.1324093415645931 
0.2628338031381835 
0.7279625070424418 
0.1281982653340755 
0.7118999254977972 
-1.110438119007338 
0.5465638227676204 
0.5956037376464017 
0.7772236898722577 
0.6109420080359239 
0.3251494804515068 
-0.1133675846139006 
-0.4733155414262627 
-0.3235359499785673 
-0.09020825944172831 
-0.3282414018682902 
-0.07176529456564836 
-0.1486232185436126 
-0.8854632013106107 
-1.498262085712103 
-1.044613408065579 
0.2850834321634019 
0.4270475896376075 
-0.7515143756620903 
0.4809537063553783 
0.9658910114138558 
0.5905330943436248 
0.5160840596241902 
0.5471865251183508 
0.5439460055627169 
0.6083088000125762 
0.2870982448712838 
-0.6233060541249077 
-0.1855079619084985 
0.4440665603665489 
-0.09312524913194328 
-0.237198645892451 
0 
0 
0 
0 
0 
0 
0 
0 
0 
0 
0 
0 
0 
0 
0 
0 
-0.1059496688572925 
0 
0 
0 
0 
0 
0 
0 
0.9661651056531672 
-0.1916780152278443 
-1.19804029930829 
0.1627584966658047 
-0.4670164639837355 
-0.3917100682486066 
0.5751518305063041 
-0.3205753209925892 
0 
0 
0 
0 
0 
0 
0 
0 
0 
0 
0 
0 
0 
0 
0 
0 
0 
0 
0 
0 
0 
0 
0 
0 
0 
0 
-0.5331279449864946 
-1.078265357529734 
-0.065059740972904 
0 
0 
0 
-0.0006542732136885168 
0 
0 
0 
0 
0 
0 
0 
-0.9862215467416297 
-1.912287219411864 
0.9475683666394466 
-1.595310485812193 
0.9805945395023151 
0.1892068670856449 
-0.2183011864096097 
-0.1344286727050584 
-2.061565575330652 
0.4367094188452896 
3.272973849407672 
0.7921755882845715 
2.605296660943352 
0.2800741084612274 
-0.07047670589328287 
1.507317826135843 
0.2370994297517643 
-1.371366633897428 
0.6890309281866257 
0.8770769875758339 
-0.8253279456961067 
1.600360586684642 
1.28830293490831 
-2.284120129706559 
0 
0 
0 
0 
0 
0 
0 
0 
0 
0 
0.7792839399995342 
1.642564277194205 
-0.01332746036823817 
0 
0 
0 
-0.1624917877369203 
0.4258570126899718 
-0.6761952015970087 
-2.506819691947802 
-3.032417271185331 
-1.424730961522892 
-1.796570684261689 
0.09492118257301611 
0.3412362322639966 
-0.09806341672673069 
0.9702614190285227 
0.5086244965378037 
-2.454537114154535 
0.6156600553024942 
1.33639159542519 
1.249506642361473 
-0.7163945757394488 
-1.124298488810753 
-1.115326295470961 
-1.901827432918872 
-0.9580026814618043 
-0.129176637911442 
-1.694515512377068 
-0.2689928344056221 
1.850168701637421 
0.4335617945886202 
-0.08332923967225693 
-0.7345246657889927 
0.6671001599430226 
-2.072998530028549 
1.205497993398322 
3.140519777401437 
-0.04987149766283164 
-0.7271208389209447 
1.14428469146377 
-0.9589673953846902 
-1.225971739872431 
-0.7617037722248106 
-0.6716012790637035 
0.03220302709947288 
-0.5918221674814234 
-0.9015362345997513 
-0.0297462767964078 
0.5813913099002459 
0.2890431059197645 
-0.7240170710146666 
-0.01019578760206486 
0.7638317649217488 
2.071614248473435 
1.199533669955671 
1.477506701906244 
2.180904063538996 
4.468743492310749 
1.303518768720008 
1.611706993915821 
-0.8206429870329226 
0.754448550947613 
1.534653475955141 
-1.602644993116699 
-0.3914127065591357 
1.233406801850738 
-2.432495386888531 
0.7502017876312495 
0.7287607818913632 
1.668374086775296 
1.545668687546765 
1.021463494379627 
-0.2029783081954926 
0.6410482735493996 
1.813818477027593 
1.684541461388112 
-0.1168169600563083 
0.6891191139005972 
1.050050763574976 
0.312772401026634 
0.944603043366419 
-0.9431292030599914 
-0.1882056701014561 
-0.05083075590779106 
1.493623323720367 
0 
0 
0 
0 
0 
0 
0 
0 
0 
0 
0 
0 
0 
0 
0 
0 
0 
0 
0 
0 
0 
0 
0 
0 
0 
0 
0.5257848906674139 
0.4196647010805035 
-1.303728221159082 
0 
0 
0 
0 
0 
0 
0 
0 
0 
0 
0 
0 
0 
0 
0 
0 
0 
0 
0 
0 
0 
0 
0 
0 
0 
0 
0 
0 
0 
0 
0 
0 
0 
0 
0 
0 
0 
0 
0 
0 
0 
0 
0 
0 
0 
-0.1556668593962347 
1.157376828806515 
-0.02162801690627732 
0 
0 
0 
-2.298696678739628 
1.16836403195956 
3.054094792999303 
1.100164926060935 
-0.4211157338568582 
0.1960653574419203 
-0.9673623527677754 
1.097999276185459 
-0.5857125722950882 
0.495533796056555 
-0.889187356863041 
0.0247797401153965 
1.220508196682966 
-0.04300232631276654 
-1.598437129209562 
-0.3929627319442521 
0 
0 
0 
0 
0 
0 
0 
0 
0 
0 
0 
0 
0 
0 
0 
0 
-0.7690244190136505 
-0.4662445238732453 
-2.679786460067763 
-0.05695071188090575 
-1.338560119568517 
-0.05160239509266872 
-1.120737930545791 
1.201664979464724 
-1.656160408187081 
-1.041317328244862 
-0.3299046346178715 
-1.311645944544338 
-0.09904996886230463 
-0.2123926975362441 
1.456888574672417 
1.012585708043671 
-1.624580987800284 
-3.517720502899088 
-3.116303990685566 
-0.4368567041522983 
-0.4114480232941517 
0.1668144731247652 
0.1714163855372661 
-1.236480634186495 
0.2727777956381713 
-2.309711906648472 
0.9752371262170499 
-0.7792759877411279 
-0.8019626485349839 
1.1199872251582 
-2.340127107973876 
-2.919300585453202 
-1.517727787188896 
-1.161664839497887 
-0.8651774941452731 
0.7905002772060288 
-0.1361797771108988 
-1.134530365654176 
-1.279747776622653 
0.3697451126789208 
-0.1193710216301683 
-0.8138167444134898 
-0.4856596945720805 
-1.293910843848229 
0.6925587990043183 
0.1324955599250519 
-1.414171026445085 
-2.0277846063782 
0.7553374423208894 
1.017223082203863 
3.386972539068049 
-0.04183628960099092 
-0.8083566333567146 
-0.8216596390460225 
-0.5025372718190174 
-2.230101998401994 
1.613965272557735 
2.100037138630254 
1.143876322569106 
1.815780624792587 
0.19150305082591 
-0.04226460447623308 
-0.7763769821270183 
-1.727621072249632 
-2.225994312906737 
-0.4450777612632565 
-1.502067192284271 
-0.754451242260476 
-0.7970888860881952 
-0.8671637061540517 
-1.007144917138037 
-0.372158568865107 
-0.04968422038903473 
0.4071828710244436 
0.2995687973803606 
0.09106113414603531 
0.196722853486904 
0.4735327562820927 
-0.6149715507250377 
-0.2781612521354116 
0.6757833531947483 
