solver_type L2R_L2LOSS_SVC_DUAL
nr_class 2
label 1 -1
nr_feature 576
bias 1
w
-0.2215847470769922 
-0.5390447179950985 
0.09889766734380581 
-0.3184104023885576 
0.2276062398506508 
-0.03860173180242139 
-0.1128619849671409 
-0.08454272740434937 
-0.9204966897945909 
-0.9577293814368328 
0.02381842659520238 
-0.6037386921411162 
-0.5265975279207552 
-0.1537719463843532 
-0.1676510962650646 
-0.003475624121804283 
-0.5349429883537675 
0.08560486730651971 
-0.5830262448890168 
-0.9192548600597357 
0.2423139724056636 
0.3233656131234747 
-0.07708450426543953 
0.03122661223624602 
-0.4172391218012772 
0.6020035791749044 
0.1679011787751195 
-0.6997893009087571 
-0.09989595510402236 
0.04076322296520764 
-0.4632882467156163 
-0.2969604084378777 
0.8430268203767524 
0.3368942217922596 
-0.02039035344837896 
-0.3257594719383967 
-0.6213576377952761 
-0.05123206870699804 
0.7950790707573409 
-0.2434649755930753 
-0.1654652047676211 
0.205400324764504 
0.5157475746307484 
0.789200393455252 
-0.2982346768019911 
-0.6929923234276852 
0.5691520665820504 
1.051866640659158 
0.4318859879922397 
-0.4563344179848873 
0.4164262987101153 
0.9958615260850526 
-0.1141942232052372 
-0.3893091756648803 
-0.5461883770927533 
-0.1195090546235905 
0.8499634259901233 
0.9585251071766154 
-0.2259393959194694 
0.1648403131986085 
-0.2013149996804599 
-1.167805983276685 
0.5890753293007132 
-0.1757635377498832 
0.4043595376312752 
0.1701217911437344 
0.678991574203846 
1.433260116666214 
0.3802081884724698 
-0.01215637638876404 
-0.1921685391140445 
0.2335351858983151 
1.518858001922567 
-0.2541356029781385 
-0.1154167225191203 
1.213407067086447 
0.2541876654868882 
-0.1352884758050256 
0.6977104917296496 
0.1688362822740043 
0.2979328973058341 
0.5558083537877995 
1.342524458880278 
0.05826315921505607 
0.4359673859605842 
0.05005611509816521 
-0.0933727661570839 
0.6904943959129459 
0.6436511929477814 
-0.1654182537028087 
0.3544377559296799 
0.2105586342183249 
0.1395696960872209 
0.8731486745417054 
0.7860154786277943 
0.003691585280910251 
-0.4072402315606956 
-0.5619687845076377 
-0.09813116203564737 
-0.703524093996461 
-0.1683625429874359 
-0.009927295890493426 
-0.1465540026574689 
0.06680250337559915 
-0.3900933048066141 
0.260140406536934 
-0.341140458553907 
-0.4700932889750737 
0.06114554407477727 
0.5218904130308194 
-0.6722460099797559 
-0.4249948667081361 
0.07705555586935702 
0.1758057688152853 
-0.7270751285890688 
-0.3296271322698832 
-0.2794516855231282 
-0.4525355699945513 
-0.5752913852249135 
-0.2115559631074243 
0.5308705171316602 
0.006919743571880592 
-0.9743864320710621 
0.02180293380038917 
0.1251535635769334 
-0.2517883486437478 
-0.6983029183233668 
0.3378249530718961 
-0.2603283650833908 
-0.7359977640331107 
-1.17465465176827 
-0.003415194285854349 
-0.4883103520914023 
-0.01075016117015139 
0.290704536464136 
0.1023331647928536 
-0.07690888707461421 
0.3133898660764272 
0.5170635213877211 
0.9433685455143669 
0.9301661852484847 
-0.1786255837759692 
-0.2410945699561191 
-0.1139804319363321 
0.2476597161587258 
0.1481973474203893 
-0.4903513844771323 
-0.1679042990894226 
-0.8049922478226975 
-0.3220796032145601 
-1.249117031921671 
-0.9839813631313604 
0.09342801996088351 
-0.28819269390949 
0.05674247760086622 
0.173977351986975 
0.1386293673387822 
0.1326763040612684 
0.04308452691310518 
-0.553447551592625 
-0.4254484583877868 
-0.6189318110671348 
0.4690546200234649 
0.712347602894205 
1.262627086705286 
0.2393322183293775 
1.590918865393942 
1.199875595950773 
0.857044862552235 
0.05497982570058186 
1.209089536803155 
0.09835288605926947 
0.2476612701316954 
0.3553411472274898 
-0.4503649704260375 
0.1502818804966322 
0.730220071802224 
0.3373590832753495 
0.1054020168804348 
-0.3543598220675209 
0.7864284180858017 
-0.2823965301981594 
-0.2411603055267388 
-0.05548991794359307 
-0.9190315749754402 
-0.396934032300802 
-0.3389891637971484 
-0.7238616910426242 
-0.01907277113483898 
0.4830137263155605 
-0.2181255417946429 
0.5856923562437139 
-0.1916099155203061 
-0.351222649399473 
0.1840946849940697 
0.1604992305361747 
0.1532572411344887 
-0.1596777461772448 
-0.5716960019104144 
0.9927568725159196 
0.4168281705194092 
-0.2182758690577717 
0.1479089864728639 
-0.5603438439355852 
0.9149250081042522 
1.089537102631098 
0.2100156378994799 
-0.4662614715617951 
-0.4111053683199675 
1.213561876961539 
-0.5155082411123019 
1.036631305407348 
0.6499274714581894 
-0.2963716939135314 
0.7291962106375169 
-0.1387945458726231 
-0.0246820614245453 
-0.639414553118806 
0.2774808948383258 
0.2234658835264229 
-0.346927710961496 
0.03057708223603949 
0.5103768375887956 
1.120456438318161 
-0.1733749769790908 
-0.456800641875526 
-0.3685055048734161 
-0.1462247624653063 
-0.3908405434522552 
1.08815121669822 
0.5519030050858012 
-0.6647190018518778 
-0.7914309313221436 
-0.2193690497332251 
0.3327153300238547 
-0.1842400472880927 
0.08336376781582663 
0.498234712781613 
-0.1752803124099585 
-0.1164592440316453 
-0.05118574057839567 
0.5773606756387756 
0.2816462603211636 
0.5492822639679582 
-0.07973008939736319 
0.03532958921729037 
-1.375917930098233 
-0.4849115765865009 
-0.2921078746701029 
0.2450370731609727 
0.5805936566420175 
0.4108571809503397 
-0.4206185379296187 
0.7322599850450098 
-0.4233680078459275 
-0.07756289930225575 
0.490417441978712 
0.2239318780266537 
0.1218733000948701 
-1.538241560866448 
-0.8375752798574158 
0.1649806301416826 
-0.1733183246523742 
0.4294160876716083 
0.1577389805696306 
-0.006320033471368009 
0.7909677202933932 
0.02770315566051771 
0.4433512208045819 
0.07750952427885099 
-0.7676698940738582 
-0.8766830465607496 
-0.7700762794493195 
0.2768839812550722 
-0.5105921670003031 
0.223899571975547 
-0.2264969717453782 
0.4718968756369046 
0.1023000344891502 
-0.1686221586130062 
-0.6712386565490068 
-0.08723290434334001 
-1.061743617036036 
-0.1294007020658278 
-0.3033789288683742 
0.07112732564249562 
0.7005130239705731 
-0.1338222396115559 
0.2543500174284963 
0.2908842676079657 
0.4410899428315021 
0.2290140872030772 
0.6993570715936538 
0.04383814359727974 
2.147283141896294 
0.4249898832509333 
-0.37919394914113 
-0.6577557117999767 
-0.7150364617738225 
-0.2991202673283024 
-0.6450458124467501 
0.6754848963560352 
0.3332495141817491 
0.1992102798966328 
-0.4306510047194581 
-0.3448718884579729 
-0.256910296022822 
-0.8484514893015456 
-1.227791861089135 
-0.3864880831466496 
-0.7537934901565282 
-0.6741237247627836 
0.4051752960370245 
0.43336813815201 
1.021801263517346 
-0.06906890128034895 
0.5029112316509573 
-0.6898829055176272 
0.8313727933658078 
0.8521898306635618 
0.6070738558649095 
-0.3731738551612671 
-0.1113296080744563 
-0.6650924662180324 
-0.8239010031014791 
0.08931779537741284 
-0.4202651916062418 
-0.4294582496457362 
-0.8473791341978518 
-0.1652648029545686 
0.1921981120665714 
-0.5250322162831929 
0.2372923359569561 
-0.2277922041584491 
0.3413248772520912 
-0.5723150637507615 
0.3564306117907883 
0.8134859383377475 
1.025732482299781 
0.650441745241652 
-0.5817694567205168 
0.06531640792334155 
-0.05218899383822932 
-0.1047429114910391 
1.247077386716528 
0.102737405921134 
-0.7140380773625434 
-0.4672682169778946 
-0.6846371912033085 
-0.2894250588026884 
0.5265270561247009 
0.2533240106236169 
0.2794470309848616 
0.5177950637000401 
0.02108365638736072 
0.6377835445279063 
0.1472521611265038 
0.4265531050691701 
0.7384392050949572 
0.5041093801192628 
0.0341090963217501 
-1.163728908615127 
-0.8863898001284716 
-0.943103966975739 
-0.2039715341058312 
0.2772964116081725 
-0.5522608909104015 
-1.00153893643652 
-0.6490115310281729 
0.1445665882695097 
0.5585422798939823 
0.04924185699614551 
0.06865746349962439 
-0.3043615394393191 
-0.7087480570144331 
-1.806463475751594 
0.01862904094819477 
0.03992221193295144 
0.1901372526417984 
0.118654394129015 
0.0886575045465139 
-0.9826097140208175 
-1.36429772412251 
0.03339007236262827 
0.04539680282408914 
-0.02078785838885185 
-0.1986441640156322 
-0.03964721653411771 
0.1920226180195522 
-0.9178813817968288 
-0.7428795819475567 
0.2084065956984319 
0.4818156999749662 
-0.01353942190713195 
-0.05319816714129629 
0.3775540427795784 
-0.2779065977109201 
-0.5121391233216576 
-0.2462919582993729 
0.1608467815856627 
-0.189964933888388 
-1.232239392100181 
-1.010864876979832 
-1.217881641257246 
-1.470697204786002 
-0.5863197260823366 
0.1116092231607571 
0.5859100395552056 
0.8686368882319502 
-0.2670161204312896 
0.5742294295313255 
-0.2395888148176481 
0.8811242192288583 
0.003105362349839666 
-0.4203240900203881 
0.8442795983911466 
-0.2693749774420392 
-0.2769363661797111 
-0.4404357508433748 
-0.2187433074488089 
0.4235529081391676 
0.1810205716793794 
-0.0267648866072539 
-0.2830299949889446 
-0.07562390764929039 
-0.3744682978069303 
-0.8793475164400755 
-0.5031058544555345 
-0.1826346611506092 
-0.5669664290730857 
-0.566900265193779 
-0.7484815380191849 
1.381253725152239 
0.2065227108260805 
0.5711840413435997 
0.3838183905711998 
0.04084114438774204 
0.2753905388291859 
0.5998102958597454 
-0.5135802757095532 
-0.6878672798961215 
-0.8343084194139003 
-0.04484353733355526 
-0.2540949368269739 
-0.2874284773212487 
-0.3651366196951034 
-0.3124156562308829 
0.7028390785341387 
0.2734837931316565 
0.8202712332025297 
0.7195311835559524 
0.625537110673704 
0.6718486694125797 
0.2399357730371289 
-0.5692114136150712 
-0.6216005219087756 
-0.2533290575992577 
0.6382934714310744 
-0.03314425248656876 
0.6564285034222147 
0.2956178984098308 
-0.876141594185298 
0.9541257119190196 
-0.7517365518485379 
-0.1241950997102513 
-0.02890176042230088 
0.4739399425544481 
0.156747137220791 
0.9306245221991326 
0.2821846041968528 
0.01468267917267608 
-0.5015336401126068 
-0.8450123465480907 
0.3005558792529789 
-0.6106890944914711 
1.429532166925067 
1.138006847720377 
0.8407371931072455 
0.9200761383683396 
-0.07170995444205634 
-1.019279757400813 
0.3232985490122474 
-0.1828783020071015 
-0.08991874790814901 
0.134463573019727 
-0.3180588608091562 
-0.6234959411769115 
0.1568804516554295 
0.5974012075066582 
0.2315364046001615 
-0.3762394633735796 
-0.2713457472149338 
-0.08651053988594276 
0.1848838552637108 
0.4939668122757029 
-0.3751172149405665 
0.1972353941131889 
0.471900553220801 
0.5115600484666211 
-0.08818620075393467 
-0.004592479576463061 
0.7077849683998542 
0.8230906829065433 
0.1757914188948642 
-1.085018630743306 
-0.2012181360227369 
0.5979796775785232 
-0.5481855187115462 
-0.3708831022559159 
0.1467801514430391 
-0.02911950746364763 
-0.2756229773394925 
0.2381732624167507 
0.2941738662778789 
-0.0447589240884288 
-0.0354750092243084 
0.1561088435324433 
0.1245593309754767 
-0.1003071809439157 
0.5597701782171508 
0.3814546942211104 
-0.03509172831064682 
-0.1525900223802472 
-1.095496968711733 
-1.313326482344651 
-0.6163136289372972 
-0.8786636280351743 
0.3717810799243211 
0.3486947746125613 
-0.3964833909506978 
-0.4249178016715142 
-0.6673529300135245 
0.0962888623747591 
-0.05317392364801032 
0.2531215610758241 
1.016902086408728 
-0.7096687692366089 
-0.4814141272376156 
-0.5292011163426478 
-0.4750738811151082 
-0.6225073359695227 
0.3172465340633031 
0.7633703355434114 
-0.2475255504850329 
0.1203245006935544 
-0.3437230625219379 
-0.5388732078258502 
-0.158402665483984 
-0.5027561849432953 
-1.212102866707933 
-1.434560989244266 
-0.3143920042305341 
0.7303605825989253 
0.1598038944965931 
-0.6863991726460932 
0.4169557387994373 
0.5333951017645766 
0.3287852462605004 
0.3157077198129958 
0.688923015710877 
-0.3894069450050191 
-0.2895938692139187 
-0.3644929859438073 
-0.2238661911562155 
-0.248142111261649 
-0.6270318732244409 
-0.5885875688987529 
-0.2513437531608286 
-0.03702563181003756 
-0.2100735056712462 
0.3444221724736793 
0.2356502863048836 
0.1551638206134613 
-0.1639682629187602 
0.06681265265385032 
-0.1025280312094049 
-1.555234612476382 
