solver_type L2R_L2LOSS_SVC_DUAL
nr_class 2
label 1 -1
nr_feature 576
bias 1
w
-0.02921019858269463 
-0.5743512617575052 
-0.651956779845548 
-0.1798076516156478 
-0.8714175654068639 
-0.34274294662522 
0.21397521529107 
-0.1666068374559452 
-0.1509321987386006 
0.0744060259780958 
0.3170864713388343 
-0.477804974479181 
-0.7127409623487513 
-0.1895773469855061 
-0.1713821855662111 
0.2176060012898625 
0.2008965911081133 
0.04171809454165465 
0.717216443702055 
-0.1921573244680146 
1.177074090244187 
-0.5482269901998532 
0.438226519029785 
0.1762661776749459 
-0.03725155917764676 
-0.6210036011686433 
-0.1790555797092238 
0.02464918323715822 
-0.07572555149170938 
-0.3629579774679224 
0.2592723771206801 
-0.08041483443063097 
0.06333430875252347 
-0.4812054512028589 
-0.06848859324932242 
0.005313294961069421 
0.3953739577286312 
0.09132119439012541 
-0.1255000865433799 
-0.167244274425651 
-0.7031141631549894 
0.342209756660843 
0.6642294479184343 
-0.4204841040649696 
0.5365983355573138 
-0.7932820001226681 
0.424934174358509 
0.2303593819595132 
0.0729147137871962 
0.4038996655424012 
-0.06467796885784503 
-0.9000576777272132 
0.6017758274024385 
0.07514731054134301 
-0.4623271036212869 
0.2924009900330119 
0.3751031120349102 
-0.8854023988522145 
0.3861752770893485 
-0.7887157388836319 
0.01305268989823044 
-0.2749467819747474 
0.535128100303654 
0.1423195325203782 
-0.01477615332887457 
0.01460804050179327 
-0.6699945200030526 
0.04303721823653823 
-0.9502584006047302 
0.8233946581594156 
-0.4500369684088142 
-0.6560121295672653 
-0.8558676045229386 
0.2742299033871429 
0.2357902676886532 
-0.7523184459611415 
-0.3978666600187709 
0.4895960927599657 
-0.1111313722612982 
0.1154222836536437 
0.8297492910918795 
0.3913360777648232 
0.2082970779459994 
-0.6149409003484851 
0.5186115941772113 
0.7653012465706059 
-0.06055956743082684 
0.6248205110477472 
0.1824157737059879 
0.6406954094400947 
-0.7124366069793995 
0.2456639980276829 
0.2300428945310816 
-0.03082168789193417 
0.002298656810237611 
-0.5199541526036321 
-0.3339256823231123 
-0.3276653962687637 
-0.09784621689763831 
-0.1889954124666021 
-0.1010975248644033 
-0.3428055587475087 
-0.08827744966579589 
-0.1517009288603399 
-0.3717501808500714 
-0.7308945455460257 
-0.3260227417041414 
0.03642054636084767 
-0.2235545922184767 
0.5735973258588861 
-0.4520910650035021 
0.189163095332526 
0.6140272733492916 
0.1759567461138987 
-0.03868908154157481 
-0.04557681786762711 
-0.8211879025123328 
0.5076955193877749 
0.1553462996202202 
0.3120360900262346 
-0.737232327823425 
0.2034135031958047 
-0.00934199704394232 
1.038613184148022 
0.1370341899743192 
0.08157837985125174 
-0.09872544291063969 
0.4634120763682062 
-0.8919591628991521 
-0.006453502880063655 
-0.1224599948652948 
0.7181289109919774 
0.01579319397000024 
-0.69803503725332 
0.0714456979071976 
0.3276162429817848 
-0.3716625402866581 
-0.07488935834337382 
1.064277882037033 
0.07701046472513791 
-0.2816462658668753 
0.1723313540953559 
-0.2253783082806901 
0.1002579776572831 
-0.1411231645074539 
-0.2875603019951556 
-0.2884297647938001 
-0.1839708534487594 
-0.1572146520094608 
-0.1575222038816838 
-0.09507100441527397 
0.01904049912866772 
0.0164033320479534 
-0.614062395137622 
-0.5525179673732875 
-0.01759477201112159 
0.05969871543546231 
-0.7528869685803729 
-0.1918261667507752 
-0.242571434581407 
0.06223469769824765 
0.2426953292921795 
0.3752515446926676 
-0.7556507709478869 
1.299110954958304 
0.09233511722130784 
-0.3682336436437691 
-0.8984254265275019 
-0.2657158454058047 
0.2612538097120383 
-0.1284302646671053 
-0.4057142202060943 
0.3326816065198824 
-0.4173613650853977 
-0.3233778801284868 
-0.2626566259561052 
0.576566579466496 
-0.7802704661856147 
0.3285445763263958 
0.4108457742837453 
0.4691033523646686 
0.2725800555393634 
-0.4050143968239687 
0.1805343307222863 
0.9699161261216126 
0.502899013779664 
-0.02743373320454233 
0.3165512295038583 
-0.03997285886687451 
0.7869659324812774 
0.2496408961722925 
-0.3131819095125822 
-0.2079377330666754 
-0.08667441526810778 
-0.03779854236717079 
-0.6776015830701708 
-0.129463588144221 
0.3234781205046982 
0.1770932907349919 
0.4134893404935809 
1.00891183103478 
-0.5218259532694786 
-0.2769190499270235 
0.3208433245487034 
-0.4591156659330427 
0.5552243983220497 
-0.1796893340631198 
-0.2606442808134642 
-0.2008151981711433 
0.3654252399620236 
-0.4988801139996487 
0.3655511768721548 
-0.537890580764506 
-0.2530633708942893 
-0.2212263451491237 
-0.9826768929736544 
0.06368081612816817 
-0.08009859697648705 
-0.2386694201386199 
0.4536655707501484 
-0.3400879344049857 
0.3795673464824013 
-0.07824806124707326 
-0.1223465221593288 
0.2521742833515767 
0.2461364549278259 
-0.4977661979463441 
0.3382711305657534 
-0.3768751184301952 
0.7520372434570563 
0.02630688256561224 
0.277576449846155 
0.6688943123818147 
-0.7149979158906655 
-0.3426948854858194 
-0.3086318325781342 
0.2186243136162515 
-0.7082566800234748 
-0.3302949954162979 
-0.5827289404097202 
-0.889435628279565 
-0.07034069153961142 
-0.6684756734228147 
0.7123722543967213 
0.4788719108680948 
0.2622696023926731 
-0.8348476085938105 
0.1932962902348952 
-0.07755914851446992 
-0.3828775078700153 
-0.0497512101069908 
-0.1653296160767355 
0.4231455889073195 
-0.4287882056590536 
-0.3386028146927292 
-0.4664018251526389 
0.07689641808158769 
-0.2965929858927517 
0.5786878161667733 
0.2962485562792581 
-0.5461996143419667 
-0.1394813766902326 
0.05318295097270116 
0.4751375113539542 
-0.6201584689474579 
0.8380172402018996 
-0.2305353976976545 
-0.4404405245587054 
-0.02469807658648843 
-0.5896091152926192 
-0.06093487460804122 
-0.3302243463254342 
-1.673074498870033 
-1.159536737253113 
-0.0587703730671554 
0.25135878215887 
-0.2264616703579612 
-0.4615320754156349 
0.2391188446389474 
0.007183978956752823 
0.1922254239545491 
-0.5245378402171373 
-1.219283141993744 
-0.9773564382583571 
0.07115704522578908 
0.1754103172987589 
0.1693037494931362 
-0.474078869834683 
0.2403791090111149 
-0.5066681049503533 
0.229102069052591 
0.3424820561950208 
-0.9742689729518901 
-0.1176710595617569 
0.28395345682026 
-0.2470340292038673 
-0.2148848211284471 
0.1119883438301922 
0.6025726903349964 
0.7850826089378484 
-0.1659719868049675 
0.525920559029733 
0.1761774068995864 
0.7753950225371979 
0.04479114475227531 
0.3152333173301902 
0.8442171326101694 
-0.4245585600304895 
0.2066273147816554 
-0.2829027222726053 
-0.6815660843729557 
0.2913338991517543 
-0.694284234916516 
0.2131964595707672 
0.3277027181124315 
-0.2201148086014035 
0.3747885742986197 
-0.5017177604403214 
0.04539033676113601 
0.193643665452882 
0.6292418945732451 
0.4161495884226543 
-0.5872265183092854 
0.3198050010033354 
-0.711236713915604 
-0.0768365637415368 
0.2078625436545596 
0.05322648570524065 
0.1410693033388961 
-0.295078709651337 
0.8143333656904052 
0.2395794420079989 
-0.8820695460694517 
-0.3069388601859741 
-0.07042023386534162 
-0.5126233359152567 
-0.5664514842944988 
0.6346029948749549 
-0.1311636209854643 
-0.1091840540477269 
0.0419492713129755 
-0.03279719416007631 
0.2879695858020407 
-0.860164953696262 
-0.6468402871275308 
-1.010276275408041 
-0.2829935475291113 
-0.5954645939109381 
-0.2893716639291581 
-1.222510130891847 
-0.5730877817961392 
-0.5035232689357942 
-0.9924532549135113 
-0.09697623247904941 
-0.2274866503352294 
-0.3113615502742709 
-0.3543186838654704 
-0.6299222121230216 
-0.2036257394941859 
-0.3647660581846057 
0.3378009946458365 
-0.0729519239605968 
-0.006535026516415018 
0.5944628342812041 
0.253611753789433 
0.3852745604971313 
0.01487804787699366 
-0.1854846271750552 
0.3711577250265347 
-0.1805303618065937 
0.1904337170509483 
0.3615870507736037 
0.05893461833467588 
-0.2560954933892667 
-0.2128374225955126 
0.397244661445766 
1.091192542863524 
0.6553010291743078 
-0.1497309346579207 
-0.4816425959538714 
-0.05652446831700611 
0.1067112642021493 
-0.4410453331957371 
0.7314596365859173 
-0.2252107540816999 
-0.6048512628148799 
-0.2871041818965099 
-0.7352634493130557 
0.402117489663041 
-0.6108818797981105 
0.4716349307991996 
0.3554183196164758 
-0.708189749973147 
0.2355599216877593 
0.2706519177251039 
-0.2027396719185037 
-1.064197348993327 
0.1020460347299348 
-0.02384703249528762 
0.5391936575853863 
0.4040812895766968 
-0.2371804529403974 
0.08654150885442684 
-0.4785836315636896 
0.04305276393971112 
0.06832788577291514 
0.8318037448090181 
-0.8541686119219235 
0.256177626299081 
0.06351690439215306 
-0.368975187642289 
0.3201927666810816 
-0.2539520076251799 
1.305449602809606 
0.2429744576874527 
0.3320525346836922 
-0.1471401602714338 
-0.05926777600401906 
0.1025559008514522 
0.6365720154912928 
0.2140505661409582 
0.4692403853272752 
0.5439707986246629 
0.02053137447967302 
-0.3757290495728152 
-0.6687855267306896 
-0.711382131435773 
-0.8035026720387773 
0.02215383144090828 
0.5333281756565743 
0.1304082527709065 
-0.1256490377298851 
0.950992367276157 
-0.05405174972714046 
0.1665175448158925 
0.08440034136148257 
-0.3027825006462668 
0.4914762367326948 
0.7562553354356028 
0.4492702432940499 
-0.006140501623464123 
0.2581877154271858 
-0.4772834331907166 
0.06166788161316768 
0.3865192276657914 
-0.09865539907541789 
0.3366650685154126 
0.2346458185587868 
0.8907168186291108 
1.248515058815655 
0.8598890930359762 
-0.2791548607643711 
1.253424181529216 
0.4074737606056315 
-0.2061378879146899 
0.2894416226027954 
-0.468885775493935 
-0.055138988808358 
-0.4777890020914098 
-0.8676159358773682 
0.5344993421204004 
-0.9833919860625103 
0.9000939924933319 
0.02965540069939189 
0.6783838739256233 
-0.8746658785345006 
0.005356504397420941 
0.07371385012697143 
-0.07723067363953441 
0.3913377625047596 
0.3259246835729736 
-0.5919796857623446 
0.6520522329269938 
0.5564786872382802 
0.2044909928262594 
0.2718470346116595 
-0.4983280106108783 
0.261270331255712 
-0.7436839800102062 
-0.3359454850993615 
-0.7791766868643489 
-0.4999130178585937 
0.3404154562986256 
0.7645643064184401 
1.095276467475898 
-0.4718558520329522 
-0.5340906980592701 
0.2368822012095223 
0.3138705687726311 
-0.4624186066199667 
1.17862427167427 
0.7259307754781886 
0.7483146475842856 
0.4815754251938054 
0.1010052629503912 
0.6598208411244217 
-0.6803494194482056 
-0.455684744704429 
0.1893893655999119 
0.1888717493155085 
-0.1257618168120633 
-0.05961544703463444 
-0.2779531094408104 
0.04504281858083417 
1.025803033135139 
0.745195740279516 
0.506891125638968 
0.3254885999590879 
0.2801622241561078 
-0.1930602062818748 
-0.4061292655722343 
-0.4113213380202674 
-0.5723156773231498 
-0.3366806507564655 
-0.6731810291622933 
0.9185470773903982 
0.1713047657895829 
0.7347779378999643 
0.6439298173808772 
0.7151480967803845 
0.03993471870964346 
-0.9267885276347047 
-0.5889219953529276 
-0.2942947680144982 
-0.1466941993613951 
-0.1407916269420786 
0.3015718141786597 
-0.2796198974289021 
-0.569273973454444 
0.009128589884654424 
-0.5698542527091766 
-1.054579693119559 
-0.7101232858592333 
-0.3368071629164163 
-0.1824224995332477 
-0.6181333846340344 
-0.5780711945162623 
-0.3188484708863212 
0.5056872849540958 
0.7301064649577509 
0.5434743631859089 
-0.1755486796754793 
0.6852538423425162 
-1.162044286170824 
0.4526228461336172 
0.5788849720202757 
-0.9574701199352139 
-1.208024461478911 
0.09487600685037606 
0.2049472648605245 
0.4141752076601225 
0.49785846192158 
-0.4661240111171099 
-0.08303983102736845 
0.07662031031041446 
-0.5827808360763812 
-1.280148407844434 
-0.1673299315565084 
0.2125407736704211 
0.0141297038647203 
-0.6253944647397516 
-0.3694792051096153 
0.2319266168908019 
0.1555241957053974 
0.1189302200854311 
0.6635359111202313 
0.3769301685892602 
-0.05782801323070421 
-0.1561910222113794 
-0.119198805422569 
-0.1665926820587444 
-0.05974495874176417 
-0.8633598365665171 
-0.8324682013080328 
-0.1230941023759053 
-1.65541371435473 
-0.8661004630450276 
