solver_type L2R_L2LOSS_SVC_DUAL
nr_class 2
label 1 -1
nr_feature 576
bias 1
w
0.04997096642406095 
0.2545766039529831 
0.3769952987888235 
0.4777244652849585 
0.3874866560334235 
-0.0914238451747928 
-0.1451357611203192 
-0.8104675074744927 
-0.3074328743810232 
-0.9693631050261383 
-0.0524205199718667 
0.01661979266772004 
0.1113828428464823 
-0.03432873344061751 
-0.3461751700834505 
-0.1346801120344078 
0.3903710643372469 
0.3194069882751104 
1.11284083635633 
0.7538835133819469 
0.3623165864711136 
0.3737904097710377 
0.7730750250017552 
0.2848220776975796 
-0.8858154026110678 
-0.1946024924451354 
0.5607825884166447 
-0.2546378830076459 
-0.2881842601315137 
-0.4643073647472039 
0.09428894374767063 
0.481767341671153 
0.3885069214965333 
0.1226711100102906 
0.07641003189403185 
-0.5324426129140383 
-0.009703265035073856 
-0.1309194544654772 
-0.4715069702689795 
-0.2303286120178719 
0.1538313874279972 
0.02929700997438599 
-0.2159057361463179 
-0.1427102018313608 
-0.7717150124811399 
-0.6555725360592289 
0.2640265866389674 
0.1596950894016914 
0.1718028635929973 
-0.4002970167994377 
0.1694004585134895 
-0.5432136774132904 
-1.859277960406279 
-0.288876424268408 
-0.4010358400183498 
-0.01460296017569351 
0.189821391079131 
0.05985221715649042 
-0.8632756529332316 
0.430054946632814 
0.641647882014715 
-0.2317549449674741 
1.065771015820193 
-0.5545794746991892 
-0.3475954660693881 
-0.2378888691179099 
-0.5890017788869356 
-0.02142743841992809 
-0.1686227794802814 
-0.3937663020696837 
-0.3591267310442163 
-0.5560730781722998 
0.4982751036125499 
-0.3213578709348052 
-0.3872437382029833 
0.516555431087989 
0.4485971635345205 
0.3655289407241796 
-0.1066270646044909 
-0.7323804684233291 
-1.674315956249269 
0.2626930504180456 
0.4469941343541798 
0.5537817717629183 
0.3689855270699314 
0.7037128584701826 
0.06517006564704374 
-0.4860891450620363 
0.4323554404122283 
-0.7637854734014608 
-0.5696002773301331 
-0.06491102216894729 
-1.005281112118797 
-1.126169467176674 
0.5050886517817743 
-1.306511306514137 
0.449433179819199 
-0.334083180045001 
0.391313024484452 
-0.3160263787183096 
1.007108314234571 
0.4174323673114496 
0.2663998675682092 
-0.4227171169122777 
-0.2009998604291953 
-1.027386814348799 
-0.06189742454481877 
-0.5123843583306477 
-0.2906427668043191 
-0.2466533459307804 
0.1226125443324099 
1.763091172527854 
-0.1107791911822629 
-0.142002030040759 
-0.09526073112692363 
-0.9065737791919932 
0.1653290129899818 
-0.4540099055406178 
-0.3048817428494456 
0.2808901039166823 
0.6349624733409944 
0.7419579631780938 
-0.1684751525665175 
0.5756612837983292 
0.5188234031469536 
0.7887850146436982 
0.3230806108957073 
-0.8272385563879152 
0.4956897565509925 
-0.3468767726367554 
-0.3741162646238074 
-0.1959765702031619 
-0.8480617409328014 
-1.062169566556361 
-0.147793513483307 
-0.5801402649673232 
-0.7103453278403414 
0.6359283643112802 
-0.01755946522725262 
-0.6509758503716716 
0.1065797932800058 
0.5745464904890248 
-0.8362226527201235 
0.6724892547043335 
-1.019319934392978 
0.2598511337025174 
0.5880653095564632 
0.03309281613962766 
0.1161970861346639 
0.1475599831488717 
0.5140976285442152 
0.1930591794889014 
0.523454005553625 
0.1679181832689825 
0.2511134031439564 
-0.4607146671601656 
-0.08683876778362594 
-1.15650741295554 
-0.4348066221540181 
-0.1192486617632035 
0.07096911333947822 
0.0519523958056249 
0.2932559007777769 
0.036070481911766 
-0.04276682524834302 
-0.2178723203895481 
-0.1879144486334672 
0.5162984043424619 
-0.1963295954035715 
-0.2062883619856789 
-0.8523667427910168 
0.4173013908985382 
-0.8032257795720287 
-0.0420782315122638 
-0.05383900878993017 
1.228963191201311 
-0.6669744074967888 
-1.099814988863938 
-0.6096412044771331 
-0.4104956704946874 
0.5778939901933332 
0.1119722224295392 
-0.691112582066993 
-0.7401746741541962 
0.504787816747567 
0.02772464280061228 
0.1163021769129923 
0.1279675702112996 
0.6571671008978257 
-0.373171414178308 
-0.1013137268447395 
-0.4549479406806112 
-0.2218782820692437 
0.25359630163565 
0.4645967308496464 
0.9505377570849943 
0.0326483811204624 
-0.2668358317578562 
0.05381952769829898 
-0.0904086217619616 
0.3398432318888432 
0.251787005114267 
0.05901309057374176 
-0.4219272616808277 
0.5690160806145759 
-0.7602272540458704 
-0.03257873243818777 
-0.09607205857531971 
-0.5502757295828866 
-0.4924320655969171 
-0.4593770302157989 
0.3735689405339042 
-0.4198419490243953 
-0.7177558296364014 
-1.029458645645824 
0.1402844377252335 
0.9354665345815248 
0.4302879762592121 
-0.08318444920682405 
0.05561048754009133 
0.1758659326683325 
0.2410261420863453 
-0.5279940676433259 
-1.85924319779149 
0.8293009060930719 
0.419241137728955 
-0.01884986788265903 
0.346516230215393 
-0.7729058685998703 
0.2823337195545934 
0.3241018419086296 
0.1876376945320981 
1.104520899697395 
-0.1641131586688657 
0.9749381779837839 
0.6746457402218177 
-0.6375798165147053 
-0.126554985250637 
1.162301432635639 
0.3981952570828006 
-0.2042076222714656 
-0.7928303820996412 
0.3738203341999926 
0.4157767657482053 
0.1612364636458315 
-0.005956965169969472 
-0.01271565657348163 
-0.05047565543596306 
0.6605692266723826 
0.6219663500763648 
-0.1693167544498667 
0.01169935805530042 
-0.290077680089242 
-0.2874040165176465 
0.6674165444477764 
0.4086250990146991 
-0.9133884715589397 
0.7337825194085983 
-0.4572884056986792 
-0.02070814588742884 
0.7349053764985006 
0.4442719092070831 
1.581037920338753 
0.6623429848510799 
-1.371386270382667 
0.06892243966474639 
0.9658717026612698 
-0.3148962221223166 
-0.2132354237858499 
0.4322767966910202 
-0.7226709258223127 
0.2472252387924255 
-0.4310544478685395 
-0.1308826221150471 
0.08169411913585895 
0.06427424263432228 
0.2900736413924314 
0.01639703489836723 
0.02777976613133333 
-1.299085412455677 
-0.3122528622594029 
0.9498365861007264 
0.3523774392933721 
-0.5137948343773643 
0.4856647619272791 
-0.3832287688279815 
0.2547256898748728 
0.2002164785457482 
0.004155512118396446 
0.2363176797621935 
0.4101207264875946 
0.2662604659289276 
0.3662718127947972 
-0.8615166526501855 
-0.2536532769380214 
0.1226457989971809 
-0.2125058103063178 
-0.4403551518591263 
1.041276349521207 
-0.06197519550244958 
0.4318510000512754 
1.379964270933044 
-0.6929720479802342 
0.4417757285431325 
0.0155881085712859 
-0.5184380556815532 
0.2462804957548104 
-0.9384732613198958 
-0.1150932832385175 
0.499047101124099 
-0.369705522486966 
-1.395186820112653 
-0.3471705502557853 
-0.4952516079057641 
-0.5886453073869875 
0.5637153508146581 
-0.08543475039661776 
-1.149210797443597 
-0.6694049354368861 
-0.2517981944639582 
0.5955927832796032 
0.3744148451279086 
-0.3835850161606189 
0.204757453180443 
-0.8113896020194196 
0.6305442231441605 
-0.3052425412621129 
0.1757423304475209 
0.628384481777341 
-0.9827777455144837 
-0.1307834128111704 
-0.7116108207708582 
0.03789926215150925 
-0.5701676851890086 
-0.2133872581069319 
-1.20432329798649 
0.1815423435779059 
1.207162318219409 
0.4954544850944043 
0.004141697848403565 
-0.4440887155625452 
0.02318997278094159 
0.7874979696751238 
1.101844004881493 
-0.2325842223757722 
0.1710667238955802 
0.03216379671927346 
-0.3739724736002912 
-1.141813311259356 
-0.2846485209788474 
-0.7569223634823358 
0.2669420392365277 
-0.5834264590097703 
0.2683809096729398 
-0.00570734462255217 
-0.06405606102670475 
0.3529743910059544 
0.5536755993653482 
0.7318615054874383 
-0.2807329299842103 
0.04983428951597652 
-0.06959918504695824 
0.1917039256848245 
0.89415471706707 
0.155698336091363 
0.7879273782001446 
0.6153467052272227 
-0.05346268273017985 
-0.2470342184190811 
-0.2871615487342435 
-0.2646410236460899 
-0.2129222450835818 
-0.01237957375752862 
0.3892228646984663 
0.6479361714922981 
-0.4300519202510396 
0.2817650814090569 
0.2381890667283519 
0.5916780086319264 
0.65628454430301 
0.8362442039758211 
0.6545376647149028 
0.4572174776980637 
-0.006682579152710914 
0.2049571426392204 
0.3998975544376223 
0.1537531763862886 
0.2637155123525532 
0.2472959191196317 
-0.6174294417287273 
-0.81461554957756 
-0.3493342474144174 
-0.8429532225866739 
0.2384962976344437 
-0.4938714105871856 
0.05681162340196027 
1.052843739536449 
0.3627271105553583 
-0.1628866927328116 
0.48729496952734 
-0.5190550475155519 
0.387663854171475 
0.4359763796864395 
0.4309677712148421 
-0.2409982979417417 
0.9446686742528864 
1.089135995009035 
0.2807331207894446 
0.04696158962462996 
0.8251174294676438 
-0.9327628965365269 
1.083427002539683 
0.3559264567167264 
0.465530406032406 
0.2346186591962655 
0.4134358306971654 
0.2729619180888409 
0.2269869741528663 
0.5172570645166992 
0.08607906629474231 
-0.3063688932700306 
0.02605533224306196 
-0.03650189930650346 
-0.2165790455039878 
-0.001153398799880098 
-0.2476614952275935 
-0.6839627959767543 
-0.3322826301277677 
-0.417112242581596 
0.1235240973988734 
-0.1831684153492212 
0.1224573968105322 
-0.4278804110067613 
0.02828086485473147 
0.4284040446016761 
-1.166372573841626 
-1.013011391246388 
0.06987482569595403 
0.5831959298443764 
0.5013968409354043 
-0.2015890292883485 
-0.4440007787218095 
0.9887101977940248 
0.4244833394715004 
0.2614106168637115 
-0.1028890474228568 
0.1895439219112742 
0.3849652391856853 
0.5608247140821654 
0.08313828405958411 
-1.216117108807407 
-0.7044786699596009 
0.1403789764048847 
0.08485892894914753 
-0.8805054374924752 
-0.0791591650703504 
-0.09359806088039144 
-1.163264947085915 
-0.2393497169168095 
-1.347863089874831 
-0.2124752492777388 
-0.788252700111276 
-0.3101347176316827 
-0.854358758793027 
-0.1821405398556069 
-0.1632687501648416 
0.7387061691027912 
0.6858081558484341 
-0.195300161603505 
-1.042090648651828 
-0.1060283906982978 
1.48058793499203 
0.09885682316309974 
-0.2806937491281505 
0.03568027612136552 
-0.4078754938208003 
-0.2430679335632247 
0.7584373936779758 
0.473066602100658 
-0.1125634329106781 
0.3556162889034347 
0.01427703253060662 
-0.6538973902686979 
0.1041430780264837 
0.7487698446991435 
-0.06417533226616336 
-0.5650995324258431 
0.3526388865067092 
0.9902635052030985 
0.214378151153314 
-0.4680635180056179 
-0.6547439082703971 
0.2298989230770291 
0.06934006594552825 
-0.1451131308759624 
-0.2571299098398788 
0.6179339453809267 
0.08889280906440526 
-0.3945669419490391 
0.5752003313345215 
0.05698668949743068 
-0.05701804682608797 
-0.7158822275685928 
-0.9953095128226589 
0.8521466688121229 
-0.121084047763028 
-1.056707583470127 
1.507482504705808 
0.08548939034975639 
0.1651627488126533 
6.929363462323905e-006 
0.1872840101357151 
0.9098655033608323 
0.4063062848893363 
-0.4054929491890747 
0.07320225108419433 
0.1505571105059899 
-0.07455066748777962 
-0.07205158645449378 
0.0596331136872974 
-0.3315246388697304 
0.6413533701179356 
0.1285739317193324 
-1.237100527691659 
0.09873391207759324 
-0.2668312724643163 
-0.2295525676769857 
0.5587823253931431 
0.438039669928864 
0.6470742784759406 
0.5008197484375937 
0.5129209435579937 
-0.1191994015002753 
-0.8991990326912801 
-1.721573242899216 
-0.07307790251514461 
-0.3105447349905587 
-0.2350355983992444 
-0.2281788389846544 
0.2724057601217207 
-0.2514079676459148 
-0.3022265967985878 
0.11269320003182 
0.5765843984865386 
-0.538146909363424 
0.06999688566600247 
0.3364067985111935 
-0.691990564112335 
0.03974496270999088 
-0.3148694304873443 
-0.3498798476114342 
0.4420358669292739 
-1.032184986382721 
-0.1589352871489944 
1.088378381881547 
-1.223125604528399 
-0.09071535038298573 
-0.1249963756621566 
0.1331287513541296 
-0.0370587698498453 
-0.3347338929472559 
-0.4542665076671631 
-0.04338366845545861 
-0.1096539388413735 
-0.1017410977767814 
-0.362755265686652 
-0.4051168899842211 
-0.09439497321777438 
-0.1060550934796675 
-0.2160522538518815 
-0.4814907966460685 
-0.4711103780977337 
-0.2921935759566088 
-0.6111020823485639 
-0.569361091387092 
-0.4873777196892329 
-1.399003935120269 
