solver_type L2R_L2LOSS_SVC_DUAL
nr_class 2
label 1 -1
nr_feature 576
bias 1
w
-0.06736306390025665 
0.03282043604577711 
-0.03028960613661644 
-0.2681419260296524 
-0.3761517395937523 
0.1859900662033721 
-0.5139768378520013 
0.8713193629583597 
1.27462375151705 
0.8999722611956241 
-0.2028660251148245 
-1.2861674715653 
0.2928361059178284 
1.13016441174064 
0.1230862097634735 
-0.2338021118628248 
-0.1166720268421695 
1.326464313072631 
-0.4398026472252807 
0.62601113136007 
-0.1617499110084059 
0 
0 
0 
0 
0 
0 
0 
0 
0 
0 
0 
0.01050138170592438 
-0.619345325674768 
0.006939299806815989 
0.4619775949572739 
0.06968555790911094 
-0.1266842595021433 
-0.862627416088337 
0.3269451993683541 
0.5331707576742266 
-1.458694242983446 
-1.716859058519036 
1.234907218200973 
-0.09341786282455529 
-0.6146256473373949 
-1.01733790788104 
-0.5385620579393559 
-0.4595378535220739 
-0.008867843486859754 
0.64107553333041 
0.202340778916636 
0.2985493692987912 
-1.665487045545807 
0.8129937696692039 
-0.0878707071259669 
1.028973051557303 
1.08425685791055 
-0.5447200939625178 
-1.111441161820691 
-1.333387351112303 
-0.08282086756397235 
0.4210754157730675 
0.4613050969324617 
0.4429893338177237 
-1.149105479098477 
0.2842910711175675 
-0.3376086273722238 
-0.8613184024260963 
0 
0 
0 
0 
0 
0 
0 
0 
0 
0 
0 
0 
0 
0 
0 
0 
0 
0 
0 
0 
0 
0 
0 
0 
0 
0 
0 
0.6603876759960246 
-0.1845023618162313 
-0.559089237125873 
0.07222938133251103 
0.3065619608976106 
-0.6876524597297045 
-0.443421568172743 
0.4234181371236356 
-1.333521011648657 
0.8004159820403417 
-0.2175299389278985 
-0.2191622666598579 
0.5433880593916517 
0.08846749717907926 
-1.287245349978616 
-0.4617708264637669 
-2.695516891732889 
0.03772468938935387 
0.5165231050170418 
0.3163163617025188 
-0.09449439313500195 
0 
0 
0 
0 
0 
0 
0 
0 
0 
0 
0 
0 
0 
0 
0 
0 
0 
0 
0 
0 
0 
0 
0 
0 
0 
0 
0 
0 
0 
0 
0 
0 
0 
0 
0 
0 
0 
0 
0 
0 
0 
0 
0 
-0.04026360289175446 
-0.1657247295390786 
0.1735227498492888 
-0.8437863778252658 
-0.5917194583313385 
0 
0 
0 
0 
0 
0 
0 
0 
0 
0 
0 
0 
0 
0 
0 
0 
0 
0 
0 
0 
0 
0 
0 
0 
0 
0 
0 
0.1122506130135897 
0.9137614745467718 
0.1385183095435014 
0.02833811190265288 
0.6937825915648884 
0.4121381478978383 
0.5271511578805923 
-0.5045682058739626 
-0.6428093415016005 
0.6131564722305867 
1.132037074057426 
-1.686932110549979 
-1.103481714064665 
-0.1294161938851986 
0.7052587154020416 
0.7620957024193822 
-0.2861350978979781 
0.5044865375389916 
-0.1765901796778086 
-0.8820932605713007 
-0.5288134404806393 
1.704032591764794 
0.478573782992522 
-0.5529398032977305 
0.274562298283084 
1.927181982081047 
2.132707466725334 
0.6925174726729089 
-0.41284942620144 
-0.3119792104140083 
-0.7754982595519552 
0.2442302243015729 
0.1559164725976618 
-0.07733381984958146 
-0.4808371032642709 
-0.1809011194527486 
0.05879027501243601 
-0.1065173682420184 
0.7839668750207316 
-0.5482213426539047 
-0.5198966504146735 
-0.7066994631211038 
0.3366070552404931 
0.6574314988313952 
0.1877804442769877 
-0.07836977696944268 
0.2742489550845741 
-0.1890549799687892 
0.08864708815483399 
-0.2272135436053653 
0.9141254012029166 
-1.5419186005518 
0.06998621125835218 
1.725244534270021 
-0.8015406730344949 
1.776793276615238 
-1.145248949727293 
1.057153178149091 
-0.8875273182809602 
0.03192000892069617 
0.443162520936972 
0.3831352615525501 
-1.947824363459147 
-0.4051255981398964 
-0.2688407553085093 
0.05997265047744767 
0.6357930086128694 
0.1771176383552958 
-0.2502848083343549 
1.770071965367264 
-0.3283130611345774 
0.2348878160326287 
0.1647431919448361 
-2.420251368614224 
-0.8118630657630555 
0.03874804845478249 
-0.4817738503309199 
-0.2801843296057059 
1.315906351220642 
0.2451929350513178 
-0.5244728674682104 
-6.535938290802803 
-5.383546768941296 
0.1603947442230992 
-0.0058327083492939 
0 
0 
0 
0 
0 
0 
0 
0 
0 
0 
0 
0.340632777146278 
0.5820127168183658 
-1.628610560882921 
1.734221992979922 
-0.6407724118151721 
-1.544497354326046 
0.3066158400460458 
0.01335763379433579 
-0.09505788851408796 
0.01470178695839139 
1.393632611030621 
0.7113208078974987 
0.04365548961058816 
-1.990538604511509 
1.79259833619366 
0.3158842505739914 
-0.4811843207283917 
-1.021411846985726 
0.9367172836817094 
0.3464199468369864 
0.07395498333476895 
-0.1417775778381625 
1.582820736798727 
-0.8426581357959424 
3.276224054504209 
1.664903419617952 
3.519126532949551 
-2.20199386919961 
0.679278570685194 
0.1608646608958255 
-0.9857993635883271 
1.648582546330721 
-0.1422991397971231 
1.399125074080442 
-0.7637555672229908 
-1.430002917720427 
-0.2583068246182012 
0 
0 
0 
0 
0 
0 
0 
0 
0 
0 
0 
0 
0 
0 
0 
0 
0 
0 
0 
0 
0 
0 
0 
0 
0 
0 
0 
-1.313476823188795 
0.3374328399994118 
0.08184680116230707 
-0.2318631575459578 
-0.4062798430175945 
0.9577439715303409 
-1.512816397665341 
0.8690004571289867 
-1.103573656644783 
-0.6219281949683528 
0.1353633103357332 
1.718508078314912 
-1.047784262645243 
-0.5264966981817689 
0.3331808540834735 
-0.5373760371911234 
0 
0 
0 
0 
0 
0 
0 
0 
0 
0 
0 
0 
0 
0 
0 
0 
0.1771280590687367 
-0.1861953714554639 
-0.1327069193933788 
-0.4038626324994769 
-0.4559262383197612 
-0.4477161576304909 
-1.120162782702269 
-0.1542156200872159 
0.4034734417253355 
0.3916713608370878 
-0.1177905321081453 
-0.2437037218359484 
-0.1839001961333748 
0.1462637113437683 
0.3124697437953943 
0.7229983187425564 
0.2684401597137602 
-0.06072607372139636 
0.1894867843828973 
0.07077594681506946 
-0.5087915830659182 
-0.239991959462703 
-0.4535687510950049 
-0.2975901835961888 
-0.3886124758982934 
-0.1091157250267151 
0.3859326977475719 
0.6708340971867898 
-0.3020145629628603 
0.03669221378091916 
0.2585656631873736 
0.4113650611817665 
-0.03397944969478019 
0.1500033666466634 
0.09883383274745779 
-0.01785067005883862 
-0.1816744322105091 
0.0004962816620451822 
-0.1655120494882646 
0.1670304424570609 
0.1109842801977208 
0.1845315089950207 
-0.2052809881228257 
-0.007471994354416516 
0.05607629693258057 
0.1559435658817913 
0.2578282296412307 
-0.2208602693014429 
-0.1842260759868187 
0.7577296377431249 
-0.04132435037083487 
0.07541509759749145 
-0.01373419305287387 
0.1793434615553747 
0.1263440025849403 
-0.2200043241089733 
-0.5477702494105089 
1.129701352180483 
-0.4037764324160666 
-0.6754766792461353 
0.3430202503796281 
-0.2470573773147292 
-0.3222571660697401 
0.0710057047046407 
-1.285898644936108 
-0.2034198741679847 
0.6328696896741738 
-0.520180712155657 
1.058295953882348 
0.3382909663119543 
0.7965102525212152 
-0.1920469449601012 
1.243732299293548 
-0.7686991539588483 
-0.5932891039808965 
-1.865152383925101 
0.1486052924476728 
1.77722958960189 
0.3888777190851265 
-0.7377264199810002 
-1.012708529116934 
-1.837784197422766 
-1.683924289632582 
0.1144102193954219 
-0.2619674082937037 
0.2134264280156266 
1.225469589477375 
0.7529168884126379 
0.861706517140395 
0.6152085697701271 
1.316936421962905 
2.904921446037664 
-1.728599740660013 
-2.500130571454132 
-3.091498484257345 
-3.260268139687562 
0.4505572407612181 
-0.1209953271039321 
0.4094730551475385 
-0.1261401364472229 
0.05269321464282535 
0.4632721130413616 
-0.3041240908385324 
0.8312134844624075 
-0.1143063164673819 
-1.10427663850845 
0.2027104818923642 
1.372821322828899 
-0.848492734469909 
0.7765964607673668 
0.6270723483248676 
-0.2727228220231437 
-3.789364847125301 
0.5621304931173001 
0.7736591752960941 
0.614622558311652 
0.6897811161812244 
-0.9852478230008713 
0.56598293973704 
1.645186048967191 
-1.010666175539426 
1.346112543202471 
0.7622590002143814 
3.387761153490807 
-0.8535618900674776 
-0.9732736361263463 
-0.5683178446778473 
-2.20724347321718 
1.082729895890031 
-0.1515056660120852 
-0.1528852454548174 
-0.193920806777872 
0.6845696110003107 
-0.8304765761515682 
0.8122906368052757 
-1.90792610166569 
2.250777555149666 
-0.8283151814247424 
-2.45488020321036 
-0.8141053827547771 
2.581298803135128 
1.426988389327017 
0.3783820535098079 
0.6983975622615939 
0 
0 
0 
0 
0 
0 
0 
0 
0 
0 
0 
0 
0 
0 
0 
0 
0.8876832762840525 
-0.3562185005985537 
-0.08918606658195966 
-0.2237205911404716 
-0.2576891860861292 
-0.6577436836527386 
-1.071057601044225 
-0.1348520262750306 
0.4684433918932424 
-0.3399062492313196 
-0.8534903968369735 
-2.097339515646725 
-0.1163699334067493 
-1.368000028679637 
-1.868897899279116 
0.3752342050391665 
0 
0 
0 
0 
0 
0 
0 
0 
0 
0 
0 
0 
0 
0 
0 
0 
0.06530482446777683 
