solver_type L2R_L2LOSS_SVC_DUAL
nr_class 2
label 1 -1
nr_feature 576
bias 1
w
0.2618683091689669 
0.5721378254565741 
0.5209350152176733 
0.2039941772391433 
-0.4198604033843258 
-0.4908302107122973 
0.2354461356894217 
-0.0319595539895749 
-0.8654864921647053 
-0.07002926651879193 
-0.4183637584282032 
-0.4837250965037894 
-0.9673531642003683 
0.01485003058953433 
0.1983404124534463 
0.05981521906717817 
0.2865495395282656 
0.7555816775651472 
-0.232101739997197 
-0.2051960755027542 
0.3942116311435287 
-0.009626549243357182 
-0.137722918703074 
0.6370590641169813 
0.4802113950384874 
-0.2500833564240331 
-0.05795567177080063 
-0.5436732837641606 
-0.9223408189899836 
-0.7379150153947802 
0.2855602870417252 
0.3492102485235993 
0.08720968749500493 
0.3400317842893343 
0.7791920995297168 
0.3583532532436512 
-0.3310005696319143 
0.1485585757861925 
-0.04754456389856227 
-0.156965475204122 
-0.7528717794988299 
-0.2616867472797663 
-0.3602803407722874 
-0.0480721592585269 
0.6581998389075836 
1.121662895210355 
-0.4397425761997231 
0.2856443007401048 
0.3699012040891064 
0.01192460681584381 
-1.465203047390029 
-2.527888898739446 
-1.42339606155249 
0.265768288277399 
0.03239672517910114 
0.4284398371228146 
0.7990963351486458 
0.7924402990732656 
-0.037193695294844 
0.3286073088576115 
0.3817020642045724 
0.03326814081606215 
0.2985445775289614 
-0.09424726235258871 
-0.09438804816613443 
-0.1362301156482264 
0.595470465038939 
0.2253636225985847 
-0.1740033083833823 
0.261184259802034 
0.3262388394764502 
-0.4201252085242785 
-0.5557569953602524 
0.1853649654911655 
-1.507078724377638 
-0.2428536352568697 
0.06079583722793003 
0.2866045258477268 
-0.3532520357556234 
-0.3304311750142443 
-0.5798314877628138 
-0.6208903749961392 
0.05406591372553634 
-0.2952672266673302 
-0.01269400519865914 
0.3583765955917743 
-1.521270729614353 
0.1261356440824646 
-0.3293202693806797 
-0.04172899923099524 
-0.1232244125402166 
-0.0301890219625879 
-0.9817847996361995 
-0.814369731619955 
-0.6734482216633517 
-0.7388836868484857 
-0.1579956171209923 
0.1732817677460192 
0.9251080507184849 
0.5717648451873187 
0.680425915359703 
-0.1916777098922767 
-0.05899141822239496 
0.0484610658982205 
-0.0761824019288004 
-0.358226239318614 
0.2429858854401303 
-0.1406566304676523 
0.4191209169422464 
0.7468245360617754 
0.1206176086575222 
0.1228612231575644 
0.3642509007772726 
-0.1734673828201125 
-0.04857044552525611 
0.2084041984072299 
0.07958192427438261 
0.3161568097561409 
0.3114527442936885 
0.2903016688962813 
0.4627466690970589 
1.383878279152279 
-0.419290738435986 
0.6346064681168899 
0.2689981191769645 
0.241313667172729 
0.15542612660943 
0.06164901104688159 
0.6513803643311863 
0.5496899301828039 
0.358740134159766 
-0.01467035062460815 
0.5375003201696176 
-0.6818806584523941 
1.312168232121637 
0.2582986319750186 
0.504016911706507 
-0.1436964527348087 
0.05500420425503697 
-0.142259885680466 
0.6920150470049726 
0.4936345708226918 
0.1490230286544712 
0.8378758720919015 
-0.4642634825973291 
-0.08580309419499767 
-0.7594356100662352 
0.03930080647307671 
-0.1462719301239049 
-0.186789402281743 
0.4235638686741428 
0.1227813781495491 
0.2202442521090242 
0.3354802534288815 
0.3016907592006098 
0.2787732753861641 
0.03432230782647817 
0.1745839018979681 
0.1628301097885048 
-0.03338366168461815 
0.2314933364961606 
-0.1123125999868746 
-0.5014986799148248 
-0.3229028159241432 
0.03425093554002896 
-0.07453232437348352 
-0.2627571593933843 
0.3965876514796305 
-0.1520505144616952 
-0.9166958077704371 
0.4409549692306762 
-0.3490881343275249 
-0.5643293190141945 
-0.7194072101652518 
-0.308984644803891 
0.1219865324019584 
-0.1368314709134233 
0.06634953379652855 
0.8984457826214163 
0.1730194462305993 
-0.1926450282913185 
0.8806485032586271 
-1.023664233283611 
-0.5664295046545586 
-0.3052900317453952 
-0.4350140384613088 
-0.2557453282345659 
0.5240016263346731 
-0.526806218725232 
-0.2646645300656465 
-0.3773539288400111 
-0.303500715044117 
0.08720982068368753 
-0.5926990558028591 
-0.8308109803784455 
-0.6802363032766214 
0.1445320298229784 
-0.2796919066626254 
0.2226080931607991 
-0.0290048162131647 
0.2945153881723098 
0.03862449437254018 
0.8354899377838428 
0.4991095475315116 
0.1056489881134532 
-0.7336361667657649 
0.7085664897846178 
-0.06823599467663075 
-0.1658760331548778 
-0.01496028076349534 
-0.07538095451355351 
0.6226264263875824 
-0.05806030726913657 
0.03363994887500645 
-0.1529650554326917 
-0.4054624527252161 
0.5518234337786317 
0.5633470858837706 
-0.08473125821182186 
0.4505458893379464 
0.07700717583787355 
-0.1090932296776365 
-0.4610891552713834 
0.3151253902566968 
-0.07037847872773551 
-0.1284558573234507 
-0.5173996731938347 
-0.2636542036496815 
0.6390360403598103 
0.4481949462463132 
0.5280973054143416 
-1.093478523353004 
-0.7249959909577719 
-0.8869855051634563 
-0.1423122484371068 
-0.1003151983150572 
-0.3790163985750232 
-0.514288459690159 
0.133959742292447 
0.840523161345338 
0.5305866971425075 
0.6058943598189985 
0.8706474815508105 
-0.2347825417306217 
0.1308870513518951 
-0.1130225966519325 
-1.048635323147126 
-0.05926397535677981 
1.19263662219929 
0.5829665438609959 
0.3888252145450897 
0.9846075093422495 
0.05261371105447575 
0.3433034090203915 
-0.3007259160774805 
0.4118756153759025 
0.09353456888759827 
-0.6880295203023313 
0.1159872510139415 
-0.128228003665354 
0.06227620451162019 
0.1009915594472752 
0.07022298525010473 
0.3046523309942027 
-0.8075659957211128 
-0.5800936838580417 
0.260926482881311 
-0.1658983990908401 
-0.864936602641271 
-0.4900445107752715 
0.4621132648457128 
-0.1328429594935464 
-0.4364326121491021 
-0.6089976917319322 
0.4476559190776088 
-0.06545305695735453 
0.2066736335446732 
-0.08148730674279633 
0.5103164192786157 
0.1251242308187197 
1.068427451021422 
-0.06161065419856848 
-0.2382879951774993 
0.08906229147800419 
1.384472986179307 
1.312648535253498 
0.6893812427819234 
-0.2632805538686693 
-0.6451784021232532 
0.1126049205310794 
0.2335489385528649 
0.1135242855867533 
-0.5842578317445673 
0.5861370185935096 
1.258772247280157 
0.08016280268080847 
-0.5846101876599215 
-0.5159394604002636 
0.2051475281175479 
0.1046149416216759 
0.05013880938010738 
0.7148727016364043 
0.7771620450584675 
-0.3480852139105402 
-0.5971546841521479 
0.480745646407544 
0.3895327291418406 
-0.0004510698010570601 
0.4497374479919227 
-0.3179322389161615 
0.2212419878671811 
-1.212444560231666 
0.2119564433722195 
0.3486413879462132 
0.595646276988565 
0.5123812445793686 
-1.144351902231777 
0.8369109060429718 
-0.1885019771379195 
-0.1004842117828182 
0.02075618389148536 
0.8425076639857609 
0.5346168198484195 
0.2959650158019347 
0.02302820644296983 
0.1562310119175316 
-0.4697915048446176 
-0.5645759321785433 
-1.150151904721707 
-0.8437357004274237 
-0.3738314107035817 
-1.321072101066454 
-1.732179461716973 
-1.325132425114993 
-0.7805146161391579 
-0.1008217943780965 
0.02368781473230578 
0.0120164514597047 
-0.4072147042172167 
0.2960303228944349 
0.5593893481542207 
-0.2088677537165453 
1.30301712420169 
0.4158609242969379 
0.2386078953164189 
0.8543498366181445 
0.1509840343643707 
-0.3400407532145907 
-0.5129572984213864 
-0.5396199696971051 
-0.06244647970024179 
-0.2390071194937579 
1.467853120851834 
0.7052015925247795 
-0.3870866469372307 
-0.04043923398897172 
-0.7110343359209747 
0.4303479012927121 
-0.6669966305414609 
1.237009722461778 
-0.3700415672140412 
-1.57323822549803 
-0.2253216258639787 
0.1400630895962119 
0.4558759942171617 
0.1340243034332213 
0.2807122060660722 
0.4461916828402251 
-0.4503314477524198 
-0.01772898459543217 
-1.042887261877396 
-0.7393139843790076 
-0.5824190346153857 
-0.3312832098448191 
-1.177923568274607 
-1.340144761488078 
0.1633135557388596 
1.448639840883366 
-0.3126370117617862 
-0.1868049157421313 
1.73850103058306 
0.336326911297844 
0.4193986744618762 
0.1199245100005626 
0.4187017339835283 
0.03236682825716943 
0.4389004893257958 
-0.09178619686158598 
-0.3588955629793779 
0.2780195173555511 
0.1197631773043917 
1.095163679461253 
0.1594724873895159 
-0.2507149797946444 
0.2268004430061326 
-0.5031874062340013 
-0.3205916723997664 
-0.9766290756062563 
-0.5076464623354747 
-0.6138808618802238 
-0.3558883206924499 
-0.2765039162667498 
-0.1911706621349846 
0.1326227444733576 
-0.3480140143901169 
-0.2695011107387295 
0.3658135152149636 
0.3292919891879745 
0.3982241624133152 
0.160427285897508 
-0.4655577717832459 
-0.5611203657497531 
0.9599324972778158 
0.1370921479436875 
0.7736132719434833 
-0.3592485192010814 
-0.06365033687767864 
0.2020440052788266 
-0.007806045307397725 
-0.09308411915792253 
0.3503523355283051 
-0.3199354802290373 
0.009301326173920628 
-0.1429559036391055 
0.4691990190853406 
-0.2590179769361646 
0.1068707857432864 
-0.6423960225877542 
-0.08170265183492637 
-0.1351454720888384 
0.3583934963392803 
-0.05707061986619376 
-0.05693179877105989 
-1.175966891079662 
-1.230624022205972 
0.03133034853499656 
-0.4328742645979277 
0.7431590885972772 
0.05953201718292283 
-0.3290537443072074 
-0.9436490123321005 
0.2107246295111471 
-0.9320249202678739 
0.2815666019272581 
0.5264510976168603 
-0.5712273440142843 
0.3955135861024051 
-0.03977383216775957 
0.8028258065139946 
0.2469863955097408 
-0.1440516142383139 
0.4080499610750272 
0.4936109203698168 
-0.227828194419898 
0.04751202385905345 
0.1503722132923972 
-1.114813604668352 
-0.1397780783152167 
0.8245810018825404 
-0.2002066399614441 
-0.9048251025918879 
-1.199144720753507 
-0.5060110378871637 
0.3352622017761017 
1.10840008872331 
-0.7298228657956245 
0.1013900393788742 
-0.5723778372073853 
-0.9227840156867766 
-0.3461423355269479 
0.1846305337130794 
-0.3592951102231269 
0.04135785619457767 
0.1910240834273263 
0.2620553610175145 
-0.2086337460856325 
0.1548780011022893 
-0.8010587669555205 
-0.02714703570757076 
0.1480824541636379 
-0.1744398054349589 
1.07531048724805 
0.3573472066639064 
-0.2663940145232408 
0.1092101469817324 
-1.002356019357577 
-0.10337600623794 
0.1950868709385971 
0.5059510883672088 
-0.06407050501119117 
0.7563124685028716 
-1.090560532618959 
-1.241049285581714 
0.3142934850706203 
-1.09760697092255 
-0.3513097787860949 
-0.3678471310056262 
-0.3688207229770648 
0.5231116848641778 
0.1272184072054931 
-0.2556187496893332 
0.8250935939542951 
0.346273718395119 
0.375619755808014 
-0.4286216965514311 
-0.5539281945672103 
0.2571908842213884 
0.002069269641998083 
-0.1862839595560829 
-0.3643818298965279 
0.2287431958151242 
-0.7415626029832567 
-1.450781849519028 
-0.458350870428502 
-0.4683150081799193 
0.2490890988637713 
0.3690140473708373 
-0.4705524776070514 
-0.1508598416160821 
0.007445897804671029 
0.8266724142719772 
1.19825968336413 
-0.2102646362498651 
0.1922727858758155 
1.434581898468963 
0.8368333690395829 
0.6058281492541585 
0.3718930570731688 
0.1105227792027647 
-0.7160453133019298 
0.411448109795432 
0.03882743520726489 
-0.1261997619041046 
-0.09989602715938824 
0.1403373379370817 
0.5541437810184451 
0.1642447712475396 
-0.2341875162731034 
0.8112826537971497 
0.6660708885892467 
-1.36538343263233 
0.2971514950449476 
-0.1671534050734156 
-0.04410797558962583 
0.2589127008407063 
0.09797426051389759 
-0.3483247424571117 
-0.198494983162063 
-0.2366201388413282 
-0.4203018429946724 
0.04755459130526094 
-0.1586105492347748 
0.1426755876316845 
0.4486064557787182 
-0.231489418151624 
-0.8862134652788307 
-0.3685755424856964 
-0.04670786030799464 
-0.3062142756175331 
0.5546357247560861 
0.1240724196081819 
0.4788813344169344 
0.05940759656077725 
0.68285031740584 
0.6229789933640327 
0.3041386758239635 
-0.184050397571329 
-0.2445301418242828 
-0.3430867291647476 
-0.395737418359559 
-0.8984390117022939 
0.09725551236398727 
-0.4109662102455386 
0.2357248617735459 
0.2587988749380421 
0.3602231611444471 
-1.769098038421017 
