solver_type L2R_L2LOSS_SVC_DUAL
nr_class 2
label 1 -1
nr_feature 576
bias 1
w
-0.2084627599959874 
-0.5642448708868859 
-0.02939067644305395 
-0.3730602974893049 
-0.2200338727772626 
0.003315340994614253 
0.4378325066565796 
0.2757257135369997 
0.4564931046282284 
0.3890444553508723 
-0.1228857263624289 
0.04652841836038225 
0.02244152580754111 
0.3917346215444633 
0.3638470312156747 
-0.5660145907446659 
-0.1420809956614647 
-0.426761191299238 
-0.3773130119021128 
-0.8015835443740722 
-0.3988233787852052 
-0.3937810200177044 
0.5312451074321311 
-0.8207541326351671 
-0.8888252133576101 
-0.8042931530202796 
-0.06809847231524886 
-0.4993431233658053 
-0.5256150762153984 
-0.5236190829411453 
-0.05253315503399816 
0.255122534793163 
0.03731748028401608 
0.3448801682987033 
-0.03475933463796687 
0.8032508695156856 
0.3776811951740141 
0.4617692667840004 
-0.2714750321603845 
-0.4394555555259212 
0.1168150742930771 
-0.509946269091525 
0.04770177255428981 
0.1409389387869871 
0.5812112702167034 
-0.2382289757571083 
0.1994748145593991 
0.1479578338362937 
1.212734922459533 
0.5808098658442243 
0.1420137972195764 
-0.1147632192730547 
-1.136088144132044 
0.2962952521263125 
0.3148036357392591 
0.1946773229019758 
0.2133685525574176 
0.1181247166328922 
-0.7429927022077622 
0.336105685313627 
0.430198694855483 
0.4365255439465472 
-0.2111817462549652 
0.4740193778229316 
-0.04203509484360062 
-0.1047885274588401 
-0.5259007169859621 
0.3645580587882895 
-0.3247240103888807 
-0.007522079506736104 
-0.8251308906020402 
0.3074764881655616 
0.3123298089048234 
0.5892229572814326 
0.04803206099045926 
-0.02886321865194508 
0.499116386518622 
0.6920432113723919 
-0.5054627036142957 
-1.135559743881003 
-0.8160136277185833 
0.07626373054392778 
-0.5115123853213015 
-0.5141161990718123 
0.1585461744705033 
0.8304364751625222 
-0.3777603669680847 
0.07666062774916987 
-0.2773608357324017 
-0.5506579748770657 
-0.206343817896278 
-0.6401254572998252 
-0.07777773784808288 
0.3364481219725471 
0.058048918576817 
-0.1689287439328722 
-1.256505267160677 
-0.3532102315934085 
-0.4115758837352705 
0.02588825486096939 
1.079391737547198 
-0.5002695530078077 
0.1357710934047947 
0.118384175158131 
-0.5167496507628765 
0.1760405301553163 
-0.4789311915820261 
-0.4972248062422903 
-0.5783472211525633 
-0.51686140348042 
-0.2881770717423612 
-1.615367175791916 
0.2327470292091401 
0.2693145897857251 
-0.02987898050321066 
-0.6582938898289018 
-0.3815564319941511 
-0.3321191333470056 
-0.6374948152234057 
-0.003905733926810607 
-0.1739027901635078 
0.5349510202539551 
0.4743537671379997 
-0.4845833074055166 
0.3844333352438676 
-0.5861248609160157 
-0.5289900999724374 
0.3156141092686135 
0.7487613909734452 
-0.2056235734878514 
0.4006266170555998 
0.552482688319743 
0.0664126087366958 
-1.06869051134659 
0.1334817423512316 
-0.484395087291855 
-0.07772982325397393 
0.4504612897973023 
0.6483797495650909 
1.022632861591766 
0.6174186976182198 
0.353322902307977 
0.0971707104196641 
0.3999423280639892 
-0.2561400904634356 
-0.2436641455154417 
-0.05117664817215099 
0.4248282148976369 
-0.177787782528332 
-0.5236168462867051 
-0.03491306450532265 
-0.754591562025788 
-0.4537998605952423 
-0.6011855144119253 
0.3556825930325436 
0.7922843987694744 
0.7496141312294065 
0.6473974869633346 
0.5218429594592589 
-0.2106476436237062 
0.3996613840172873 
-0.3998813892336443 
0.74477066411564 
0.2367162999639105 
0.3812848400414434 
0.2746579082421707 
0.8621106862490776 
-0.1756394197490261 
0.01460250594536038 
-0.603133241191621 
-0.7723927954004017 
-0.3253752673082124 
-0.6602895330214231 
0.05188956611273305 
0.2849240445713396 
0.2729281680420801 
0.1074888354418069 
0.174271553865911 
0.3125155965042969 
-0.4254998882455726 
-0.5343985259829222 
0.3755278101463435 
0.2574208156021929 
-0.01613721426757126 
-0.0636007140218193 
-0.8399461732357596 
-0.06208159100856058 
-0.1798084821044895 
-0.184889542937996 
-0.3430459420529207 
0.3855299508692537 
1.132727852905481 
-0.258447908435732 
-1.446113224781167 
-0.6741450326187463 
-1.302960439360669 
-0.929132264227705 
-0.1922052396038685 
0.4529615911377881 
0.711335192909234 
0.4421011346853333 
1.341168935678126 
0.529113300730501 
0.1258757887118034 
-0.3697238381682489 
0.1184296180701677 
-0.6474109022552119 
-0.3766769400960739 
0.3154491554774408 
0.1733966922027475 
0.0628866223018794 
0.4908217121894866 
-0.6548918305075006 
-1.337162423187849 
-0.7122915210444226 
0.1801223946803373 
0.4864657855609389 
-0.144931081546548 
0.7353771747752761 
0.6150381935890789 
0.006712893880014208 
0.3033904809406323 
0.9353465314731854 
0.7587124836540583 
-0.4381100732104934 
0.290293727444959 
1.027229415658769 
1.006128026590725 
0.5172733690437373 
0.3486936238652897 
-0.1253756072787274 
-0.09967792254887806 
-0.7493878883773489 
-0.3290263354375719 
0.2846856573948555 
-0.5966387564916398 
0.1272395330290003 
-0.1054662982622306 
-0.5227093838193685 
-0.5844600817768306 
-0.4283140016086682 
0.7865632460235056 
0.8137943964236887 
1.131250971574943 
1.396466506035955 
-0.02929735991234178 
-0.6202370628823856 
0.5059196439375263 
-0.0806891140656318 
0.9069570875061258 
0.7677849487596469 
-0.1046367855939715 
-0.9491787054150287 
0.0295305234356254 
0.2949357433928279 
-0.4332367454906258 
-1.107781480379746 
-0.9922433292648161 
0.04828144821012308 
-0.974645750368321 
0.5828627517600987 
1.302234145169849 
0.2197730552288235 
0.05987506782366183 
-0.7327949388486608 
-0.7436979431286802 
0.5520281045837155 
-1.080294856431331 
-0.1665792706063456 
-0.1194773837608459 
-0.2931181608837352 
0.5452790380485838 
-0.3171210110441507 
0.4944416773128914 
-0.5544853946844284 
0.2262075472414221 
-0.5492949926736414 
-0.4548600347328811 
-0.5609948667729785 
-1.357736040684192 
0.3482437616191717 
0.3777989857922284 
-0.9057533784525078 
-0.08022672954004571 
-0.1164021900486584 
-0.3313614134855538 
1.4009423150849 
-0.2721547129751358 
0.979896085978065 
0.7733727326405345 
-0.8629099963975344 
-0.373161785037194 
-0.4809567419645441 
0.1397795429008824 
1.250389391898735 
-0.7449150165842051 
-0.6470338280153726 
-0.1970095302668682 
-0.7447447968230472 
0.183933401188627 
0.2755152839692187 
-0.4093792719809929 
0.1917609496666427 
0.4022064357507804 
0.5539783347093655 
0.2436433909833164 
-0.4916446548923604 
0.9866958846263383 
0.7600318609813405 
0.0002098141431003339 
-0.6425730903991904 
-0.4904194814578201 
1.398718122437017 
-0.1254708161827809 
-1.021062108663567 
0.1757349160177768 
-0.7095778584333361 
0.3833693546188797 
0.8797999973216893 
-0.5541155955523038 
-0.5928040947682218 
-0.08854514806494812 
-0.2611225198442855 
0.2437928099975225 
0.5026580355231933 
-0.04088687769475941 
-0.470838284734608 
1.259234502791667 
0.3660872487028436 
0.1152141704039424 
1.172501799082583 
0.6257379708784948 
-0.1374315319336946 
-0.5755171940175026 
-1.100274360245928 
-0.8811418939182644 
0.01826430905495796 
-0.6645573795966925 
-0.3160539028619187 
-0.5013415592429573 
0.1314791092633817 
-0.9057343543129753 
0.03358140399515708 
0.3750173197691308 
-0.1993792370335643 
0.1718002350718602 
-0.2627331221384955 
-0.04397593462106519 
0.5034141177651464 
0.6584623702608539 
0.3208679451591484 
-1.171972594646532 
0.08800286898402115 
0.1987611680401189 
-0.3534137704590121 
-0.005603906285911781 
-1.054855148410836 
0.4796581233103289 
0.5133390098731677 
0.8954296957032645 
-0.02423946668918128 
0.1100182848044718 
0.9759039846929755 
-0.1091500253982996 
-0.9515002911001455 
-0.3262749464465341 
-0.5649455308503635 
0.64808656139687 
0.287626895027979 
-0.8340727303445948 
0.07278287402815516 
1.187858719437718 
0.4009012322254728 
-0.2095949114983912 
-0.5656231255156821 
-0.1829094076540029 
0.07859942891940286 
0.0889461566687855 
0.428858772213468 
-0.326560235961427 
-0.1527369843994371 
0.3662912177246966 
-1.041250889786518 
0.640752480335349 
0.6549208216242476 
0.1039540417841693 
-0.6404676666765267 
-0.4818046338411698 
0.3708313583495441 
0.6026684512190728 
0.6971057771835773 
0.6160630265885843 
0.7590990957725887 
-0.660842346248594 
-0.4992521371099281 
-0.1526616692843527 
-0.07077241215696124 
0.8017892200293414 
0.4566568295732797 
0.6870518408410583 
0.7096124109832135 
-0.5853677362098189 
-0.1219223818158673 
-1.293998350555468 
-1.066281642635036 
0.05425605831341795 
0.3399915500886038 
-0.05669330260898762 
0.1472679256481133 
-0.3631349713042449 
-0.3677291420682616 
0.2464493260580701 
0.6841992708771194 
0.379014977174862 
0.5312261808243957 
1.208977559569494 
-0.1902470927003448 
-0.736365239071435 
-0.5369958884877651 
-0.3099668620984148 
-0.1708113956101048 
-0.01834895584299094 
0.283045895416857 
0.2967802595259287 
-0.02684123843017103 
-0.07752438944723854 
0.08400045683419194 
-0.06877546512562362 
-0.1595856275748448 
-0.3990622712195105 
-0.5008024555778498 
-0.6460522302978171 
0.03188298233084131 
-0.18871656248263 
0.4681827405080677 
0.1630036223472284 
0.4537571129473118 
-0.4277519950880113 
-0.5147558340216514 
-0.3260432036367605 
0.5324484562804149 
-0.6691231556226035 
-0.6607232338667055 
-0.3526460933892091 
-1.127387035566132 
-0.8741476060519104 
-0.4281975578545982 
0.05007706222315406 
-0.6664885948018675 
-0.4004106336192181 
0.2826389115124517 
0.8135191301131475 
-0.06836257018736082 
-0.1680376321185484 
-0.9681094060953726 
0.3835810726793769 
0.9935104067716069 
-0.01667047357822866 
1.077524196399801 
0.4202933650205891 
0.2801486327463251 
0.05066053944818062 
-0.9260405385284114 
-0.7667878866684925 
-0.4193438577243944 
0.2770472949942511 
-0.4303925425845703 
0.4961248886646286 
-0.1841677001621584 
-1.753091792071361 
-0.1284221699658281 
-0.3243395178468119 
-0.9021650255888573 
-0.7316749245485721 
-0.1396934968009015 
-0.3327489531970563 
-0.008627692007915463 
0.5063680403429267 
-0.2140055211019912 
1.506069501689589 
0.3115076125683332 
0.522622501524489 
-0.377659183100874 
-0.229763819316845 
0.2910411335577228 
0.9774284819514019 
0.5501342921927919 
-0.2134294218445521 
-1.29528347520761 
-0.3060082801779778 
-0.06290357267321393 
-0.1560466136064853 
0.6168820870408812 
0.4375834894074412 
0.2346223669107606 
-0.408866016607615 
0.1869771522241938 
0.7823926561926324 
0.6610498451818434 
-0.3559608332364829 
-1.166361588008765 
1.105926043032429 
0.09881630946457719 
-0.6766505208608092 
-0.1884953286705638 
-0.3115983004262393 
0.4885777285098269 
-0.08795844951169105 
0.3009881289441896 
-0.6619176923368446 
-0.3150526604793159 
0.2904986850482454 
0.4517484419280559 
-0.108264990666024 
1.05591215099898 
-0.8752753209481992 
0.1166942711220357 
1.047298296269044 
-0.3677363097314163 
-0.2890260604319639 
-0.366946984039604 
0.4758115150631034 
0.5517621629270054 
0.2210932862605603 
1.447258864303079 
-0.3312244151685653 
0.5406760812990842 
-1.121196348403831 
0.1466786196280457 
1.157664084823082 
0.1928686023933304 
-0.1789292974527493 
0.3049348312281052 
0.5281534907181906 
0.4800678549389413 
-0.01021459863992607 
-0.4476159276919109 
-0.1709882212754223 
-1.188791150752572 
0.110468682618868 
0.2950200856093277 
0.1272431498718529 
1.20988722260422 
0.1797579427960045 
0.002122027832498024 
-0.3142088370854809 
0.1132331754346625 
0.630334946249094 
1.076921118519601 
-0.4972582325615964 
0.225505134346914 
0.8073815623997283 
0.1971895666256534 
0.3942034667513117 
-0.7085942943281989 
-0.2218200673083441 
-0.7187220735086906 
0.6192270751558053 
0.3446285390408098 
-0.05435958247617729 
-0.02845262235721978 
-0.1943598862592516 
0.0771487991608307 
-1.554260452262879 
-0.6702178656056803 
-0.7374321117992274 
-0.2393360314598919 
0.2088311553534792 
0.1513347088254869 
-0.1875572540338857 
-0.007781728332198745 
-0.5248023238050001 
-0.02347271326405406 
-0.1833843683544683 
-0.03486489580699191 
0.207447529532457 
-1.628313084696562 
