solver_type L2R_L2LOSS_SVC_DUAL
nr_class 2
label 1 -1
nr_feature 576
bias 1
w
-0.3637523186022013 
0.06877648284015725 
-0.6790990935549383 
0.2727861085764503 
-0.0375699794411582 
0.1414639038167868 
-0.1800336926838821 
-0.05833026491101696 
0.2833204235738439 
-0.3891770757130231 
0.1639796405456686 
0.5570692677248804 
0.326244529239162 
0.2591854026182324 
-0.002959248201289832 
-0.2406624293950406 
-0.19211434593301 
-0.1278011808216427 
0.2745081932780342 
0.5687885879350654 
0.3572969917718242 
0.2430482058325484 
-0.3538491538133788 
-0.6210086181632833 
0.257448147767001 
-0.9542470142517624 
0.00390596148145427 
-0.6070666797314629 
0.8427655028463694 
0.1740976998059543 
-0.6953576766483041 
-0.2997558197394082 
-0.1524022524468422 
-0.2451102376648642 
-0.4101845642448055 
0.0637198031005486 
-0.1285453450535953 
-0.3397548168012254 
0.6284417555250459 
0.2925703515351901 
-0.3400003714822865 
-0.8889580785970889 
-0.02627621413735443 
-0.1295986513390255 
-0.07437988140461531 
0.2263207632697382 
-0.5633439924490777 
-0.2683193594042922 
-0.3158838231612102 
0.576399172119572 
-0.3522567624355483 
0.4309445942760486 
-0.1054269423074056 
0.08539105748332497 
0.1081905722191587 
-0.5165459413847167 
-0.1036756443297068 
-0.3957025935082583 
0.1495534123734421 
0.8888579767422191 
-0.1134313262050458 
0.2811542707342937 
0.2870101679063651 
-0.1469672209008825 
-0.08383300714846012 
-0.1505682089553255 
-0.7814886585290611 
-1.048642422375277 
-0.5232832281157881 
-0.4876829761233438 
0.5835577309756153 
0.4662844705170751 
-0.115342035275868 
0.08170694731697849 
0.3007430707867033 
-0.06295792640181461 
-0.5865392601795378 
-0.3514253830909018 
0.4206888644175538 
-0.6822959367962526 
0.4368899141636824 
-0.1496928781834549 
-0.6600188538038121 
-0.6621714397353657 
0.4698843490456912 
-0.3996103577707261 
-0.1872085595741245 
-1.653881104679589 
-0.060023880918926 
-0.005908273061453208 
0.5520715835355118 
0.3959371712293634 
0.8759678555496968 
0.8437894347110772 
0.06984082103544906 
0.3649698852177157 
-0.06811063114982394 
-0.560315233283182 
0.2528491108503261 
0.6355129744826772 
0.4020427228565678 
-0.2218169763265875 
-0.2285486791803334 
0.3815079627657842 
-0.7754670209869691 
-0.1937856703493598 
0.05425597005503833 
-0.8957438212285931 
-0.6180703220992058 
-0.5540542278126516 
-0.1652456008291862 
0.2124892666555797 
0.4549102425747985 
0.3010839265111139 
0.9352344599180273 
-0.1754694994402028 
0.1622214055609927 
-1.053668945064893 
-0.8143699830664566 
0.6981974799209441 
1.388912417674656 
0.4986108193133584 
-0.5145944603907919 
-0.1398371377077757 
-0.3301444509469766 
0.1556928736357898 
-0.2576377363868931 
-0.730923065107594 
0.199913913335962 
0.06860737374677303 
0.9220047483299649 
0.02909335251453856 
-0.8168026671944568 
-0.678500569197852 
-0.104585752361256 
1.116228855650653 
-0.3238278186635317 
-0.587591017608626 
-0.2330405819052113 
-0.315534314384543 
-0.7587596625268046 
-0.5939558737274455 
-0.005414686456451165 
0.2169346303824296 
-0.07054139275497172 
-0.4883577059884611 
-0.3436446793941699 
-0.3512096712361956 
-0.6279849223228442 
0.3236955075970868 
-0.4477530045427827 
0.1057955778589771 
0.2181392075085008 
0.01673772222635832 
-0.4300074608282839 
-0.2278222098643269 
-0.1366167786948438 
-0.2895459099373521 
-0.03793597465002235 
0.09028471067533937 
-0.3497366226012092 
-0.1324748300756194 
-0.4192083048248391 
0.2444334499795203 
0.3601612911982852 
1.048971451669173 
0.4976629796992582 
-0.4109381670766136 
-1.548977414141882 
-0.4468624726089322 
0.6714385978920912 
-0.9660543380580078 
-0.3197147717917422 
-0.1289016255844342 
1.077581098695358 
-0.2204966246167296 
-0.1844266345007677 
0.0636215227940329 
1.018762845400905 
0.5570195369432631 
0.5082327933246208 
0.2092753728578508 
-0.817232688866957 
0.5720942848032029 
0.8859944562404989 
0.9411135514474559 
0.6199196099135056 
0.8099193505859483 
-0.534528419099817 
0.5290297134487285 
0.7198897399188426 
0.4967326912417188 
0.7491076414413607 
0.5865452121966586 
1.051149185981191 
0.3702631698071492 
0.2935650381246008 
0.3573950238797458 
-0.7617808390173378 
-0.1689542197967949 
0.1560125242785957 
-0.08262268256465509 
-0.5920276253291572 
-0.06274270638584231 
-0.2103202935573582 
-0.4030616448669933 
0.6880669160338646 
0.6043437795968634 
0.5750033160569144 
-0.2675641652479659 
-0.5865648284208241 
-0.4213056761339453 
-0.3643754004651444 
-0.7408440629255354 
-0.2839458572164587 
-0.1657725462410384 
-0.4316259986955293 
0.1567685205025574 
-0.1778352692261768 
-0.8842079041681685 
0.7182978130732856 
-0.859577094310119 
-0.8632458384656062 
-0.8413375549556961 
0.4500289048788396 
0.2016468081267533 
0.4119360069406657 
-0.3196785254978158 
-0.6034277762154645 
0.5789680742986554 
0.6786657975946231 
0.1138346243315172 
-0.6685969830692078 
0.3969326511491514 
-1.395907899990706 
0.127805723979942 
0.1570741480828118 
-0.146583739211531 
0.3865417510101522 
1.209740887771095 
-0.2796557492256853 
0.03684599702612268 
0.6703377403893795 
-0.1093517237366279 
-0.007594753835751851 
-0.08627885824880735 
0.2399872978293535 
0.2433921160027029 
0.3434410001599916 
0.09211253350216143 
-0.3772448855972831 
-0.4477455338455909 
-0.7053532528728579 
-0.8056019370320315 
-0.3408745929304847 
0.2025600158260023 
-0.7341675754341026 
-0.2761775517488233 
1.238887091457787 
-0.3746962408351085 
0.6520241816385619 
1.341346205180573 
0.3382574765379116 
-0.04975334843984416 
0.7863891054456379 
0.69419756345926 
-0.2693247255212872 
0.05220301880849041 
-0.3950465959590354 
0.2842554530655838 
0.2129968852763836 
0.1038335585885552 
-0.4411251063041357 
-0.7600959847721395 
-0.552972358690761 
0.1961730570911242 
-0.6198370135599975 
0.2043661804711379 
0.5027159881807307 
0.01638911115581926 
-0.6238884062804577 
-0.3897562427679008 
-1.065577428353594 
0.1305915054166068 
0.5018461282745409 
0.8504453292280042 
0.8160102041086708 
1.03822322868468 
0.3677574773355389 
0.05949103507443271 
-0.7949075934858821 
0.1064457925847269 
0.07120406673217868 
-0.2783998916854806 
-1.484025091912117 
-0.3122023586517724 
0.04636943362380414 
-0.9764891719676315 
0.3989236741119275 
-0.1659786126995677 
1.034589160235175 
-0.1025355346276623 
0.3027196776908868 
0.2787840260245058 
0.5604797746681581 
0.3411480778661905 
-0.1566891000386426 
-0.368662781753745 
-1.399802832212324 
-1.266967779602453 
-0.1906243117086299 
-0.6670204008169598 
-0.7527286315063811 
0.01188476736037413 
0.1324850044068206 
-0.9176246446311341 
-0.6750959335199739 
-1.1266438705897 
-0.2183782387024699 
-0.8554987710844193 
0.3283285711603748 
1.850058334643447 
0.4656463340038042 
-0.7307997448379805 
0.3463156523931328 
0.2768471902817122 
0.8302240840032588 
-0.0002310729341111485 
0.6219325069132516 
-0.5675449995418561 
0.1852990340741833 
0.4305955448711355 
0.2513707011373046 
-0.6104528549964213 
-0.2981559906618353 
0.4435483200102588 
-0.7469016352636779 
-0.835792942009042 
-1.252973138363924 
-0.02574115229001113 
-0.1289405945952842 
0.8374360835052769 
1.354233789296804 
0.3789331576809217 
0.2535505970119504 
-0.3950175634218671 
-0.2562590220213428 
-0.2532505732949736 
0.6481431053552615 
-0.3084631564640941 
-0.7809969164622002 
-0.9936064124082381 
0.08269569730813318 
0.3507642670479376 
-0.649365435245178 
-0.03600058415305923 
0.1511466573752134 
-0.9200132518579497 
-0.4866975167581768 
0.2945314749155706 
0.01032874958083512 
-0.2577033054873047 
-0.01276735131554051 
-0.1927999200627547 
0.3145437841820229 
1.106524853386325 
1.401023919956351 
0.684280426229405 
-0.3907966399515844 
-1.118389509290934 
-0.3915801713633867 
-0.01399175510542919 
-0.7696890086620772 
-0.8827402440600616 
-0.8378827575973989 
-0.8854283932004294 
0.1326551795726065 
-0.2228027032728022 
-0.2381140933779485 
0.9689361368616204 
0.1226772991488886 
0.3164018056297172 
0.6174263894175465 
0.1475631775030678 
0.07297968236778181 
-0.1451058737279013 
-0.3735967973506569 
0.3224155366359843 
0.518143989050782 
-0.7828055678245982 
-0.8695635045024838 
-0.5324490434142942 
0.3842377658107427 
0.1864640813251764 
1.287720935388303 
0.213191254175935 
-0.07021879661321789 
0.08900149992045019 
-0.3876624652690593 
-1.060918768109393 
0.05045696242932449 
-0.0517758609858602 
-0.3418189680889718 
0.1081033963414797 
-0.2043040818384725 
-0.1488143907071854 
0.8409787484468038 
-0.05533852549548354 
-0.2632528484221706 
0.8188791958830717 
0.2502521463936775 
1.208228997035359 
-0.3071572945120709 
-0.4267840473893445 
-0.6042896761273022 
0.08657720913073191 
-1.037607624719016 
-0.227199407366528 
-0.1535993580480424 
0.1780546634838187 
-0.06494271769436613 
-0.5213127887021166 
-0.6126430652111086 
-0.5564099180379694 
-0.6906905390654468 
-1.088027228745257 
-0.3389368488556966 
0.1221407758470182 
0.3333689293216217 
-0.4804868161412584 
0.4591062503486783 
-0.2376429692383534 
0.7192908860512123 
-0.322133770910018 
-0.329453723071451 
0.7355543839452097 
0.38356895572578 
-0.2063440061014248 
0.7515140545473527 
0.2940028354430764 
0.4240255351604372 
0.2621126712013222 
0.1247943479578658 
0.002592415939776018 
0.7946989094874232 
-0.0008708222659069785 
0.1494332659916202 
-0.2228134681516915 
-0.4565280498634822 
-0.6811460786212636 
0.01143224357855253 
-0.590939191650148 
-0.296033519317874 
0.6470932244814709 
-0.4644347123855909 
-0.002507249576863686 
0.02930498801874535 
0.2326594863621723 
0.5736017487735969 
-0.04761747366801043 
0.8328540862514605 
1.667498048843002 
0.6548635202612886 
-1.255817009564789 
0.3640041844273476 
-0.3508451098174076 
-0.02999906738938657 
-0.5197528146613418 
-0.1640697096035162 
-0.575950044742106 
-0.4891194685092037 
-0.4165150997701178 
0.3387168934778138 
1.132726173544067 
0.08339971299176884 
0.5137394832759326 
0.4238379703192284 
0.1244983375031924 
0.4169602525235765 
0.7007148969519078 
-0.8349998824147721 
-0.08175224507152155 
0.4522859137023769 
-0.3857290574139664 
-0.2157891483761516 
-0.1300171532804678 
-0.4646652935285732 
-0.4473013419729 
-0.5251166224144998 
-0.4391948497859656 
0.1816362192284434 
-0.5015376387889543 
-1.041142832020294 
-0.7013298114301109 
0.2106134292611478 
0.4105720773654147 
0.1983022191408171 
0.4372552800154381 
0.462898264157877 
-1.178219593361774 
0.5551580969532695 
0.1480513515604843 
-0.8260643040389951 
-0.2539617290703976 
-0.3300717094268593 
-0.3596139388964915 
0.3450966008409394 
0.1654964771583216 
0.512468394754554 
-0.8041167813768213 
0.3306201098100706 
-0.3331266719409378 
-0.6851808285985648 
-0.2500766583181374 
0.1984298848346969 
-0.1303967519353383 
-0.264812870011678 
0.982995354055445 
0.7990235786629711 
-0.1339667074867262 
-0.04537296373498323 
-0.8181998585114386 
0.4261018825188839 
1.015841243153683 
-0.3190771021770443 
0.1641353039262732 
-1.515593284775712 
-0.2641131013142949 
0.6638534558455829 
0.8211068665374006 
-0.1555943800795717 
-0.1046950152953626 
0.4322974634931398 
0.9801717713681887 
0.4046377723868305 
0.9017901146207756 
-0.5377509350710141 
0.2804682097388085 
0.286292922102472 
0.2887994240961048 
0.2199024420529584 
0.06173977123617265 
0.1077748752702096 
0.7664406242627468 
0.02863768800731377 
0.1595012346188253 
-0.07508411864259561 
0.7369961794433564 
0.5542777578827645 
-0.4361720612825808 
0.01219222561422194 
-0.3217636244706205 
0.3940550775688914 
0.2737988206345707 
-0.5498868081779106 
-0.6145163585415354 
-0.8843249873956028 
-0.3309531551853763 
-0.6786930898690909 
-0.1842071503749578 
-0.06119306407974941 
-0.5284852309919452 
-0.7117587974791746 
-1.538292875232718 
-0.2801884723511594 
-1.246948606353381 
-0.3835490363213129 
-0.818988076427621 
-0.3690272797321451 
-0.3677112716841867 
-0.6814004054112964 
-0.5204879779924856 
-0.7702811001115221 
-0.5851354982442221 
-0.293467002924059 
0.2272367311484064 
-0.8017679057210458 
