solver_type L2R_L2LOSS_SVC_DUAL
nr_class 2
label 1 -1
nr_feature 576
bias 1
w
0 
0 
0 
0 
0 
0 
0 
0 
0 
0 
0 
0 
0 
0 
0 
0 
0 
0 
0 
0 
0 
0 
0 
0 
0 
0 
0 
0 
0 
0 
0 
0 
-0.2830788805002567 
-0.3095852603282373 
-0.08243399971353514 
-0.1934786105437565 
-0.06525404731083814 
-0.3301298712279936 
-0.01583491599512642 
-0.70815623349313 
-1.188047042354178 
-0.2102200337661697 
0.1865284860205677 
0.1272100024104199 
0.2415129591678282 
0.1642016049350861 
0.5937747370248143 
0.838671442569383 
-0.5830544050612141 
1.179098700124989 
1.925508194514943 
-0.5512511486969036 
-0.04112798777256923 
0.1663943106326268 
0.7866349628931776 
-0.5245513747790481 
-1.623317118669661 
-0.5708698812300059 
-0.8831651025990017 
-1.105307622759314 
-0.4013514499971461 
-0.00352674551413559 
-0.1420978218496333 
-0.2772814051692318 
0 
0 
0 
0 
0 
0 
0 
0 
0 
0 
0 
0 
0 
0 
0 
0 
0 
0 
0 
0 
0 
0 
0 
0 
0 
0 
0 
0 
0 
0 
0 
0 
-0.3933223225724304 
-0.9485014760840789 
-0.820334337502483 
-0.616801018858151 
0.9557690105522856 
0.3136277793559893 
0.2082919234388916 
0.9904444950233567 
-1.091531768877006 
-0.2151519246574536 
0.6080582138414912 
1.425587179792152 
0.227018244433248 
0.5954245454587286 
-0.3558129165062697 
-0.7243225302211176 
0.3436290748215398 
-0.122037219599553 
-0.7548415463932829 
0.4331631501276458 
-0.6689529062934384 
-0.6810853187261458 
-0.5648938384495567 
-0.5100420665291501 
-0.475498244682687 
-0.4400900282960197 
-0.5622633385877121 
-1.046705279591272 
-0.2652317616382428 
-0.006849998834152491 
1.099839775778382 
0.5850625490194199 
0 
0 
0 
0 
0 
0 
0 
0 
0 
0 
0 
0 
0 
0 
0 
0 
0 
0 
0 
0 
0 
0 
0 
0 
0 
0 
0 
0 
0 
0 
0 
0 
0.6270323639842874 
1.084053801539392 
0.2217139972355888 
0.2476925713847724 
0.4974373797949729 
0.3596526572094057 
-0.3038794472886824 
-0.5719074104165384 
-0.8163407594369666 
-0.618033535370221 
-0.06262513665804374 
1.017701931810373 
0.3279318068997115 
-0.3750000197105742 
-0.991547284148353 
0.05781553598668581 
0.02874733188234709 
0.6044982863086726 
0.6215350742263389 
0.4098478876227267 
0.08754407223606052 
-0.3916038125080373 
0.4204055777044263 
-1.043037365677235 
-0.3751347860832187 
-0.2946661396852661 
-0.03236066595077729 
0.01394809132144318 
-0.1058521811944529 
0.2157441516491235 
0.02362027856006091 
-0.009430268481978137 
0.3737138820028776 
-0.2226307537080104 
-1.293729127769677 
-1.54519546765241 
-1.060847600312312 
-0.969112935190553 
-0.07343440772384731 
1.195131477130145 
1.717166921674182 
-0.8341248562757941 
-1.125004368943191 
-0.4873819000259343 
-1.157693350053437 
-1.57132352279502 
-0.7840061642472364 
-0.8091487411482046 
0.6756503502290819 
-0.495690368741175 
-0.5158532344029569 
-0.4875596427145366 
-0.5306404665303209 
-0.1025926263358724 
0.2163281924236143 
0.134967892477078 
2.398449284684203 
1.129272287224133 
0.6857786028965972 
0.6042573194108957 
0.5271276800338313 
-0.3570637920528297 
-0.2079252180046474 
0.7137024982424093 
-0.7729871752161969 
-0.7140266640365753 
-0.2383805498566999 
0.3667432328727291 
-0.2280799052945667 
-0.1104152151780972 
-0.2720120095190816 
0.4763574066704999 
0.7827616103395428 
0.4955525769474244 
-0.1748211853596478 
0.4003261018913322 
0.7892644606881255 
-0.07033910453925454 
0.7407187872965295 
-0.1626067296459081 
0.312503357985503 
1.122317251919379 
0.6199822138020861 
0.3222648818132706 
0.3022852080825804 
0.5334982289682341 
0.1464664970969357 
0.7941404803251578 
-0.4973062071840034 
-0.2566825782457108 
0.1958266046587225 
-0.4624542642514596 
-0.2506409076888011 
-0.0894494941161128 
-0.8620206506354901 
-0.2880470237857227 
-0.9879513881307424 
-0.8898521277448984 
-0.6390841939920184 
-0.4404594095728849 
-0.1988067595821563 
-0.2110598198646633 
-0.1802316413547834 
1.554590151221977 
2.962235043645184 
2.817786256325302 
2.416687448759399 
1.271060901647649 
-0.2292641338407978 
-0.604869886898822 
-0.437187175415997 
-0.8076702946460331 
0.8040284019855826 
-0.4466939403782619 
-0.4873300007259156 
0.002316300225189196 
-0.265174803771616 
-0.1730367967622463 
-0.3174238859261642 
-0.5568776030783068 
-0.1839931151538942 
-0.195720390188675 
0.6660704557534233 
0.6862971638217581 
0.3082378806277619 
0.9985718531232358 
0.06496882230082503 
-0.347766058077943 
-1.114200626102534 
-0.3554172803161337 
0.2852099822642423 
1.163729739147453 
0.1581873466488922 
0.6584962452102736 
0.600527917258421 
-0.6122053728807498 
1.066093635773647 
0.8832978897901612 
0.372687879675015 
0.109083627368842 
-0.9893573285909415 
-0.4093465762422352 
0.2064395259608031 
0.2670042524769969 
0.3968675904368594 
0.09331354704426696 
0.9978631169986825 
-0.1802655249554195 
0.3633025398638041 
-0.08047353954378082 
-0.2155109416339961 
-0.3552218248851387 
-0.3384263673960162 
-0.9300674709320291 
-0.3713503433035504 
-0.6641736036490868 
-0.1951132508610949 
-0.3381260241112193 
0.649767578357388 
0.6607770712460711 
-1.274686984161996 
-0.9465290208459416 
-0.3085179770633412 
-0.8397437739272895 
-0.8031214428157577 
-0.2047419076566912 
0.08469770569127536 
-0.1468685535499503 
0.2961548286933555 
0.6496350855560711 
1.490448565324173 
1.020780390510305 
0.5054067631136471 
0.5019084977502569 
-0.3191790804744255 
0.1174741980986347 
0.7398853956562815 
-0.6070544685835454 
-1.705210663270077 
0.2569594488593843 
0.5735027744738839 
0.6437895902528704 
-0.07691486063569752 
-0.6115532143044218 
0.02754274836013924 
0.09644940005303243 
0.6533891220041854 
-0.09445264036039472 
0.1155569921794279 
-0.6291427946883008 
1.203253991889961 
0.9159058179168379 
0.4028085120805302 
0.3086705325706388 
0.6868616630633456 
-0.9933379443732545 
-0.4093946354447123 
-0.4454092683844861 
0.3516524860479431 
-0.06563156938827214 
-0.5535764906567277 
-1.446792279217613 
-0.3366838332303655 
-1.000101929953212 
-0.2702953361619025 
-0.1871906031074686 
-0.504960961846032 
0.7090806433640758 
0.1861084882917231 
-0.4797038786508714 
0.680475406266786 
-0.4686284922824919 
-0.7962860144928344 
0.2511005568056307 
0.8399562293486967 
-0.02380059417494605 
-0.2240031090586153 
-0.6839235716876378 
-2.619378614220185 
0.0696962080252143 
0.2371671230742455 
-0.666498503496933 
0.7351213055406697 
-0.7664530674990141 
0.6601119986312019 
0.3248954413300449 
0.7646726712436759 
-0.185346595791054 
0.1657702921142045 
-0.06015901320118643 
0.1842874713003014 
0.1731698899683956 
-0.2652426206094734 
-0.7768700494410694 
0.3392719697674673 
-1.104761884785405 
-0.9390391562881015 
-0.535507034280177 
-1.282146672258333 
-0.03729743959729093 
-0.7900473864353018 
-1.423216971506121 
-0.2153637998432125 
-1.013706590789538 
-0.8579787760778243 
0.01834117032116341 
-0.2313860486829127 
1.025740122877488 
0.5747741893002614 
0.2019267458920244 
-0.4049314889725186 
-0.6360175509644771 
-0.361909586408318 
0.03846678510292229 
0.3094649895768925 
-0.3326448024174298 
-0.7188199483570567 
-0.57078822119325 
-0.3756570920108878 
-0.1987692268288099 
-0.2793879435908778 
0.2781577151341722 
0.2026900154846845 
0.3756948213537842 
0.3834473850130421 
-0.09362492615678547 
0.3399371493562047 
-0.09778834238455282 
0.1683963903918824 
0.4020035226470393 
-0.1561447786271338 
-0.5817016069285325 
0.5944170212218949 
1.026565493626281 
-0.2133253239908738 
-0.3353446914559045 
-1.238618304533623 
-0.5716181201698685 
0.4346083876579786 
-0.5603544548065254 
-0.6604002890505805 
0.8079068664194815 
0.8876033316219907 
0.5148622931368281 
-0.2055519342750225 
-0.1064736726726583 
-0.2575907342352685 
-0.6394176981392201 
1.400889489568872 
1.154669064725743 
0.1148659723031887 
0.5293300258537257 
0.7135888545062981 
-0.2290146956683911 
0.1262980272195264 
-1.006052096494834 
-1.112375999939785 
-0.8037146464647725 
-0.405598816481117 
0.2194794746347137 
0.09253989023232805 
0.1543993259349158 
0.3198962024055844 
0.3796069161202986 
0.7977129730130885 
0.4953123262875634 
-0.5185118880469606 
1.375313880224042 
0.706069111033255 
0.6253996631996845 
-0.772315313313747 
-1.038640825691599 
-0.3930005294248989 
1.093898502988984 
-0.559873975991347 
-0.1722190446363187 
0.02036955045284645 
0.04463129037021252 
-0.2147604047479771 
0.1560709535302728 
-0.4178620160133901 
-0.5149782408913392 
-0.0799335135218513 
0.04421806512144635 
0.3720478076426963 
0.3908139952566113 
-0.9272579564845633 
0.1386145827633419 
0.802554168828705 
-0.6175364177178802 
-0.4878177302412143 
-0.1968577242798997 
0.02529098661942801 
0.06578766612405666 
0.2438727867260108 
0.4694826966571057 
0.1513254218587015 
-0.2528459291155807 
0.6981279332266016 
-1.131166393877726 
-1.16657460027806 
-0.3423516180515365 
0.1070555198760567 
0.4990815057241421 
0.3688341179968793 
0.04306571040898893 
0.2465268411016135 
0.7856307054005445 
0.4205151585107685 
0.2045108412060402 
0.6142205476565779 
0.8645519064063909 
-1.593581381294357 
-0.715146203126206 
0.01057246150186992 
0.04803358544656881 
-0.6256442334837846 
-0.2675351324493447 
0.0873217116530135 
0.7058624382123151 
0.1798912483707424 
-0.6392887079994853 
-0.05941226722938461 
0.1578481256693275 
-0.4537416681495317 
-0.1377032102855427 
-0.4068352825059397 
-1.370402227088172 
-0.05005542435531759 
0.5153371061352018 
-0.1889087307855188 
0.3792953298032191 
0.1235516936723903 
0.08252501548682782 
-0.65687589312308 
-0.02577663216342069 
-0.008780732894951345 
-0.2064575495266129 
-0.169386934566434 
-0.035515866816243 
-0.4959329323938854 
-0.05101363825873243 
-0.5662888507004326 
0.7228992709550799 
-0.08720199832197648 
0.07438330725310603 
-0.3905970839467862 
0.9250790820568617 
0.8974111347309185 
0.6155178335783209 
-0.1621059228731455 
-0.8441414911958337 
-0.4840697909178545 
-0.2191877298401113 
0.2536653251689292 
-0.2628636742899668 
0.1082369738402637 
0.1159576901259755 
-0.3987008394377086 
-0.6254070335940869 
-0.1111828160484185 
-0.2865486092162999 
-0.327275384641892 
0.01166127865748724 
-0.2634188801229628 
-0.3735751986415263 
0.006063657668641955 
0.01183879374146038 
-0.02493837375925439 
-0.3326608178670075 
-0.004895849930768689 
0.08568341476298197 
-0.1057316823532189 
-0.3087091036672804 
0.1057211128014637 
-0.1562522699466553 
-0.76262471452975 
