solver_type L2R_L2LOSS_SVC_DUAL
nr_class 2
label 1 -1
nr_feature 576
bias 1
w
-0.2946834422316997 
-0.5860937273310741 
-0.310154673757127 
-0.3950557326833703 
-0.4419760605557511 
-0.02353233899355232 
0.1437344157498251 
0.24638648342573 
-0.04866665966170435 
-0.04825951001092889 
0.1571135443142691 
0.2074711261687894 
0.3026589239978424 
0.08913924934864906 
-0.003683568990457424 
-0.2241046449080773 
0.1539555909378112 
0.1221770452318658 
0.9230387977609222 
0.3929502628733489 
0.1132472114468521 
-0.3135399953270848 
0.4610357323037523 
-0.01274454877071487 
0.7875849164074129 
-0.2072009272197976 
-0.1791037986903208 
0.06101615298452733 
-0.2756282208429784 
0.09440560208231316 
0.0854399159779952 
0.4630120893849414 
0.1441332808012829 
-0.1203827230357297 
-0.003300385974479518 
-0.318773071988726 
0.01805816038249803 
1.011483672251276 
0.6072928553477901 
-0.3770704731787593 
-0.3546270959816979 
-0.6912157799838491 
-0.252838075497852 
-0.1065264317080384 
-0.4671308553756295 
-0.6493102902047538 
-0.08742784085906752 
0.295197740142592 
0.1505066920152914 
1.100383291238128 
0.9750172043699358 
-0.2037586603383882 
0.06873480555088896 
-0.8017337197720488 
-1.357256668362108 
0.1846768404455055 
1.88231339935783 
0.9691615284804402 
0.3313729697188081 
1.533129521973907 
0.3668393555343936 
-0.06093864336931439 
-0.6934367202914806 
0.6785158870014714 
-0.2186773070639897 
-0.3732980040417794 
-0.6647173508092169 
-0.5187699139347543 
-0.06556388903535805 
0.5412082818964198 
-0.7871427091857619 
0.4575267950575945 
-0.5318060823566255 
0.5153869229645139 
0.4002676921524759 
-0.1215349772191256 
0.2512940423959364 
-0.1003303649368196 
0.4363865335575937 
-0.3166089247246874 
-0.7299882155709491 
0.5979372034153631 
0.07599124668554913 
-0.5260558805855886 
-0.05574308994245101 
0.5987277342767274 
1.061388444461002 
-0.02119218093644873 
0.6709808041917452 
0.560547658840716 
-0.9563672217025256 
-0.6216696553665809 
0.3107858473549321 
1.258331148800763 
0.9689211080490239 
-0.2002179319037058 
-0.2408063124549663 
-0.2378470809663697 
-0.01775966605747902 
-0.1331616945695675 
0.1834336388482828 
1.845639296734965 
1.968381794611564 
0.1778983280311834 
-1.48847053683266 
-1.03352882424447 
-0.2374452577147396 
-0.227245059523607 
-1.215454583319743 
-0.1174451875611709 
-0.08446008633138914 
-0.5381504209671233 
-0.1176187991144228 
-0.09633902318489905 
-0.1421492122292214 
-0.4684037275835679 
0.1421477030386102 
-0.888897373931226 
0.5708781616016203 
-0.7429617408838908 
-0.01052831198799977 
0.8421415256221199 
0.5627613601446075 
0.5755363828360629 
-0.1493365854951292 
0.09208334361037068 
-0.790801365670826 
-0.2204716672043518 
0.8603912670988011 
-0.1236020680636417 
-0.004492607996183044 
0.610874320641485 
-0.07006498833704079 
-0.1419927046318238 
-1.278898624453869 
-0.1205177739472198 
-1.093979603188259 
-0.9298087910697773 
-0.2771989455987939 
-0.7576647773018302 
-1.008413441114519 
-1.67688259868867 
-0.8575111256947038 
0.3343249379134602 
-0.04746073292052069 
0.3184915653427756 
0.6260518763382552 
0.8420394325489666 
-0.3488530446145391 
0.3123467103971471 
-0.05517174466729726 
-0.3955790947668275 
-0.05271599567249803 
0.2249956396376603 
0.2037261647009208 
-0.03904733854541518 
-0.3803722606473834 
-0.6429996827254435 
-0.6017816696063107 
-0.6629303009860668 
1.274069335092126 
0.4708415290600233 
0.2744301412642761 
0.9593470018275494 
-0.232552108686221 
0.4688241818480927 
-0.3689617904619668 
1.553534478185735 
0.3747685289328364 
-1.384043910660357 
-0.9345583485843184 
0.1244066670656114 
0.6981077354335658 
0.4142308438071841 
0.7171166637507866 
1.111953941534868 
-0.4354275104709313 
-1.254830997461053 
-1.354951112464368 
-0.5283841528658468 
-0.4924193534219263 
-0.07450210272700507 
-0.3839370557033459 
-0.2964244581036931 
-0.8937206348929881 
0.4792943206603375 
-0.1831457604789062 
0.4811429200457433 
0.8420475529994584 
0.5533455877188095 
0.5451569243976426 
0.01107559857089066 
0.3627494259724464 
0.04839599950507723 
0.002429783132492458 
0.05500569432022107 
0.5852597043961412 
0.1327993535307407 
0.2317326937273743 
0.747320578889178 
-0.08888596501131207 
-0.07503538019575377 
0.4439463293105019 
-0.3196928513301743 
-0.4897361997386153 
-0.5440885483313516 
-0.1347306300563399 
-0.1657676970841714 
-0.5034040670633299 
-0.5620407719478741 
-0.4727538529888054 
0.900008063424764 
0.08470893830527886 
0.1211200336568869 
0.03506888197116078 
0.4827822347098396 
0.5248048010607003 
0.2475258223767609 
-0.1556522947049882 
-0.4626119628946652 
1.704088982945949 
0.5793474967035821 
0.8068602427313377 
0.01671330200259754 
0.01850310817198307 
0.2035766618087503 
-0.4490802277535521 
-0.4004245792267612 
-0.6271183463290074 
-0.7444638848013073 
-1.192323939556284 
0.1087740682883905 
0.2157169735326209 
-0.2988272570678467 
-0.1711464520746688 
-0.7125895468469654 
0.5183351915782297 
0.140900430111624 
0.4591582429842332 
0.3485711904408833 
-0.4424871541966695 
-1.446878002389138 
-0.4816234983907555 
-0.5280434797826417 
-0.3318495208107644 
-0.0214638134815075 
-0.1414883117913401 
-0.944858915600591 
-0.1653073457299716 
0.7217832549197428 
-0.4808822663124514 
0.8332185108330431 
0.8735943567082407 
0.5555156192142258 
0.6516682671290842 
0.418565394750149 
1.277914692221652 
0.6390349694996858 
0.7841631225066637 
0.1075431704527252 
0.2218372505473887 
-0.9596388468930409 
0.3404735459320579 
0.2793678608231657 
-0.3698397137624688 
0.552949335974707 
0.8314731785673845 
-0.7980821916828471 
-1.164297947861886 
-0.797320883545908 
0.04380435833956676 
-0.2632053857923268 
0.9425749037623382 
0.1708086102138501 
-0.2983543033447758 
-0.4895938203904344 
-0.5444488227203288 
0.02702631176725711 
-0.5434394351447092 
-0.9919230668129361 
-0.3589828230635149 
1.189768404052561 
0.7290151210838513 
-0.6057353723708778 
-0.2845605517321604 
-0.8706969029770778 
0.06957964241000496 
0.2410585994680515 
0.4389445280768636 
1.393247174727609 
0.824953945371889 
0.7375855149482206 
0.7811233023423246 
-0.1142238039199149 
1.05925478949473 
0.5973805118121627 
-0.2046372815514845 
0.7111097176095161 
0.2753235971552682 
-1.123910999047462 
-0.4657874700229014 
0.3010109354506288 
-0.5933017913726441 
-0.876504830529853 
0.1007377143529626 
-0.2168359985397591 
0.6823334140214284 
-0.2868198991627065 
-0.3213679242497515 
-0.1328755029466732 
-0.5193343021337502 
0.8156490207951521 
0.1295249632671522 
-1.024789902925365 
-0.2291772630920401 
-0.8017020483093652 
0.4410419224977744 
0.04885158128417507 
0.3506803586995086 
-0.7377604844571823 
-1.547921266044302 
-0.3970122167335592 
0.1824228517476976 
-0.006561552914396956 
0.263831874235828 
0.0485548249726413 
-0.06152929698787778 
-0.07529713136850484 
0.6272438789536586 
0.02523321345763863 
-0.1307092981393655 
0.4800875007222383 
0.3593957864514595 
1.214347219512534 
0.7757304576140278 
-0.2821307255083062 
0.2130558973822864 
0.4747854857354227 
0.4938887990018379 
0.2732657963955912 
-0.3811928087493763 
-0.5584659678920412 
-0.08478105012942627 
-0.2360326569156795 
0.4098182860327917 
-0.1074791108995061 
0.771208298506574 
0.4320127833409638 
-0.557733924928963 
-0.01296642106358415 
-0.4040065549215591 
0.03250242771177572 
0.3400689199579279 
0.04979214249329507 
-0.8025981407774802 
-0.3316889302105013 
-0.7729990146479168 
-0.4417196012713843 
-0.3614666077591678 
-0.4253811473407099 
-1.038426982123241 
0.673633215766775 
-0.2228168230762921 
-0.9398774676453326 
-1.122238479057786 
-1.237746701299265 
-0.3503143936546351 
0.3847694859948026 
0.2972747902771953 
0.7505100338912897 
0.1854886288492547 
0.1434124369609661 
0.7351379921143093 
0.2184121206119553 
0.1089292512386798 
-0.002542514149811021 
-0.3779528899003997 
-0.5557981234301496 
0.4111148873449716 
1.026023319069065 
-0.2157559889655232 
-0.06574071962013751 
0.4318800705682569 
-0.04103580877691176 
0.1949023328407981 
0.05921489310062125 
0.4456608508018985 
0.2420361838092235 
0.6289674067898434 
0.2617187397982319 
0.6865522126311546 
-0.4535979993683077 
-0.3118606556651897 
-0.3347434790564643 
0.2219794510999344 
0.04616109107638475 
-0.7491481841948168 
-0.01671421685046228 
-0.1458055852755331 
0.1019269572972987 
0.04075330610910385 
0.06282576913637375 
0.5197478463551358 
0.1772535264136652 
-0.8761841156350206 
0.367994847833676 
0.7028386899801077 
0.05178043872653421 
0.595327682696811 
-0.145651318766756 
-0.4356450630810243 
0.5061926769378479 
-0.5916788834300611 
-0.7390234315979469 
-0.6847313793683016 
-0.6115343590711299 
0.1402993913021233 
0.2346220816503629 
0.4589054058583433 
0.2402903894417534 
0.2212315027158921 
0.1937013474203901 
0.4995759723024024 
0.1302361186032862 
-0.06010937602202435 
0.5261892213381247 
0.08641914156826765 
0.226676169930505 
0.3152575364671855 
0.008090808852128546 
0.8310308281424527 
0.06419119065877403 
0.1157833947603293 
-0.2373881879101235 
-0.6757360964801746 
-0.5455334498142073 
0.8736562608553641 
0.02516119500095455 
-0.1502366553076279 
-0.4904309935703817 
1.274087536590076 
-0.1796263399703734 
0.04116045674025476 
0.05422647862204758 
-0.2797322247306761 
-0.2022924520014692 
-0.5204696129315127 
0.06750307557130303 
0.06536622170709586 
0.02625389590603612 
-1.261187264705162 
-0.3352782362664388 
0.1987666787021261 
-0.3346404715203029 
-1.046357826773509 
0.2643576945716811 
-0.2904450628459269 
-0.5824122952373956 
0.3992868086645587 
-0.308630500026837 
0.05130802343369122 
-0.1666343258554689 
0.1748870936492115 
0.8146650029898453 
0.2844591606244962 
-0.3192920223584183 
0.4022814794219974 
0.1254157673612239 
0.2013359496232093 
1.627360615974526 
0.9382223279472861 
-0.783673067938193 
-0.3917543433293212 
-0.1844690484493919 
0.6662498241458845 
0.2309926304980355 
0.2240839576144496 
0.5182718387558316 
-0.02733925027352311 
-0.2821395297465756 
0.03311221277634582 
-0.08220617190547 
-0.0811625710113074 
0.1339105974705629 
-0.4364272418950511 
-0.316377273922155 
-0.1395867631746348 
0.3498291356741313 
-1.189600797454122 
-0.3026587875284268 
-0.1633776606807429 
-0.4027674678786751 
-0.2107098480083205 
-0.1380954224876738 
0.2953210361653525 
-0.05085234441802814 
0.0980218404822862 
-0.6174367695330051 
-0.2947010123225121 
0.4056602951091378 
-0.09644276902587844 
0.3122482767727797 
-0.01574463854129733 
-0.06256442522957172 
-0.1351489946602152 
0.1803771598773569 
0.1194554545648664 
-0.2062141845263894 
1.048493991863818 
-0.5307451987637691 
0.04677799174618459 
0.05253859251262635 
-0.5357777419176647 
-0.01048619101275848 
0.007583895742188531 
-0.03355878061132585 
0.4537352024799219 
-0.6885818118002817 
-0.3622630092870274 
0.2715774891299948 
0.4873318825837268 
-0.2372350894153292 
-0.3536738439379257 
-0.1138000016790165 
-1.020796943082539 
-0.2273535989731609 
0.03463937740686449 
0.4902700851584342 
-0.3764658536059682 
-0.5277334652027589 
0.292318178747414 
0.4979172471699486 
-0.05224678338548221 
0.3850712323562324 
-0.08605308060070037 
0.2372240527852225 
-0.08722267809820762 
0.1590892078191393 
-0.8872069149608509 
-1.453828853505048 
-0.511919130721048 
-0.05036787379868366 
-0.5290660320501354 
-0.1411974906123367 
0.0150351864109848 
0.3400174021511683 
0.1877738488054302 
-0.4183514983122357 
0.2519907558301078 
-0.5583918098142296 
0.1215480313690364 
-0.09876041133890448 
-0.05864393451018569 
-0.7347763677129376 
-0.3630467855737002 
0.7795436435573179 
-1.004168185176871 
0.8112140912137111 
0.4011435632284707 
0.2023204055423399 
-0.8354098314441851 
-0.1557595456638157 
-0.07920015708606108 
-0.09099991194678189 
-0.2854212440484534 
-0.1065198494638346 
-0.2155881146785955 
0.1916141643951045 
-0.06316860545227114 
0.2613643363542414 
0.438454712059531 
-0.03569657515266706 
0.1059972732409695 
-0.225614289365417 
-0.4449833843479044 
0.01989199818944306 
-1.706893092847619 
