solver_type L2R_L2LOSS_SVC_DUAL
nr_class 2
label 1 -1
nr_feature 576
bias 1
w
0.03337070651262434 
0.1211171979315504 
-0.1450461151227133 
-0.3594082373292952 
-0.1632713988214342 
0.1043342773929052 
-0.2656939040899318 
0.3901144833286443 
-0.320936055935125 
0.2791649978978512 
-1.125734203333606 
-0.8925480568839657 
-0.7083635014660362 
-0.3043702652108749 
-0.41584144050814 
-0.08942045586682168 
-0.9224758662188652 
-0.4533424931552061 
-0.6682698558540599 
-0.5532392826320817 
-0.5248693862953392 
-0.6028424776071478 
0.215614614834181 
-0.298909936171174 
0.5783386603231902 
-0.09599047973139588 
-0.273261922272952 
-0.6000208072821305 
-0.4157155795942056 
0.4686302990731575 
-0.3887801587510262 
-0.1839370234047451 
0.2782700709769295 
0.6972108622866311 
0.04272696644883305 
-0.0674270907009655 
0.4162284340746845 
1.038425373429375 
1.23225001363906 
0.9133479954208367 
0.8829022626074929 
-0.8640671066631527 
0.160577234475092 
0.6571346279919947 
-0.1765130614315856 
0.2049786852649541 
-0.1778419066429833 
0.3647227355312765 
-0.4219405075118525 
0.5857740525364079 
-0.09850984088546383 
0.226310030292087 
-0.36536111970186 
0.5787108641633909 
-1.000602782866865 
-0.578192432116619 
-0.9021102484643457 
1.389491205402294 
0.8152901607868879 
0.5403508426920862 
0.2807783379476233 
-0.5376259807936928 
0.6909472065586158 
0.08767888255198375 
1.015656384344124 
0.4928241757364473 
0.7415828656918786 
0.3065642871452229 
-0.2188056346152355 
0.1081275311202923 
-0.9163120170151932 
-0.3488985371954859 
-0.775475219197449 
-0.2534254733957717 
-0.02061683953395104 
0.1643499429847437 
0.1719111341785256 
-0.5983732021576559 
0.5729405474809401 
0.539005631555236 
0.0273345036034621 
-1.072158276186886 
-0.9940180384505098 
0.07656217263775614 
0.0931095028683938 
0.1761014913273386 
-0.5880179715347615 
-0.7969027752993391 
-0.4746536765800885 
0.3654902646277704 
-0.05765050042701395 
-0.7122538849902388 
-0.326981701622615 
-0.6224294983904488 
-0.2902378101862735 
0.7829571372098025 
0.5087225044070407 
0.9038870584820838 
-0.5971184853976072 
-0.2153886095831018 
1.018453199357307 
0.2339593375692638 
-0.2162300544883163 
1.024158755777374 
0.5893140085819545 
-1.713307806574693 
-1.056775721701389 
0.4558495980673888 
-0.03783666732345565 
-0.07675391451557516 
-0.6490071973779791 
-0.3404818087592781 
0.003314163187481399 
-0.1048459789226149 
-0.8647699283396084 
-0.1767951591412444 
-0.5035682582927005 
-0.6265555351372145 
0.1528278761043047 
-0.8213225891534671 
-0.6002969892969354 
-0.7369358804725158 
0.4346359215451036 
0.1736624385397912 
0.1659392326768979 
0.5004817162620612 
-0.6846722146119014 
0.209920506965712 
-0.6031270616895377 
0.516990373939211 
0.6750374515047861 
-0.00182822376469343 
-0.08928651232353629 
-0.8626232774519592 
0.2338165033355851 
0.7385227407945978 
0.4562070076596291 
-0.3384738933000789 
0.07539159895945863 
0.7257832198146238 
0.3033276475108395 
0.7662709023686244 
0.1746426322133032 
-0.9945310731190706 
-0.2879009852366938 
-0.5256096908522314 
-0.2740144662214227 
0.3644779320601638 
-0.500945686510989 
0.4796781178667396 
-0.09344137335891571 
-0.5282041934960988 
0.02976458377615917 
0.01645304624647103 
-0.6583810518958105 
0.2602036672178964 
-0.1661368278765159 
-0.1224180244732179 
-0.4474469146502189 
0.01866563664737945 
-0.3983157161612743 
0.1822304085216593 
-0.06263374787951809 
0.05812738056407411 
0.4604281670832941 
0.5002383937925778 
-0.06861698524519568 
-0.1340632034684846 
0.04061498791661255 
-0.1486397632859929 
-0.6360141418603664 
0.2303791492327028 
-0.1108311878774369 
-0.1830106072607858 
0.2466434106115129 
-0.3249837564874131 
0.2919040443053564 
-0.02763155987569433 
0.2118611325493365 
0.7482546696262811 
-0.8024736879059004 
-0.382554826641159 
-0.4327032180067221 
-0.03091624051037752 
-0.4996997028001298 
-0.701670197612044 
-0.1290624315569987 
-0.5616876114561491 
-0.4201226987889022 
0.2712764930444577 
-0.1169520444923948 
-0.3205109503489854 
-0.8077562338092791 
-0.6702384228254611 
-0.1791779073409898 
-0.4177496817604044 
-0.2349369779693006 
-0.5627582964862815 
-0.5478484897313891 
0.2611033688975379 
0.1485537984928811 
1.630400597689876 
0.8841481661596866 
-0.1797901503394875 
0.4234365441991306 
-0.4705509024317736 
-0.2845723132157593 
-1.013737381975524 
-0.01442501574443022 
-0.7865400717787711 
0.3851719269654922 
0.4062316482002023 
0.1677087841012424 
0.8453330006323115 
1.678535116733633 
-0.8435467557985622 
-0.06961158248437808 
1.129194026922465 
0.3205546070288054 
-0.4882736341363558 
-0.7363156124873908 
0.3038656393108397 
0.1206674394094309 
0.4728114353486677 
0.2995944162146684 
0.6107368335841956 
0.4214722042623273 
-0.2012515916991046 
0.5687625150497035 
-0.1724987863730086 
-0.5352757387385867 
0.1176099832057127 
0.3633312314252595 
-0.4795668756988585 
0.3389009291001104 
1.520233922025984 
0.2092051880146797 
0.9972923949057962 
-0.2257730576281183 
-0.08073016499483852 
0.7032680017646709 
-0.2822898375522134 
-0.1346901648105448 
0.09360160865433366 
-0.5113004207438688 
0.54149297770587 
0.2912353834800427 
-0.4210853525408685 
-0.05604037146216745 
-0.6990454387849787 
-0.1265863318482964 
-0.1048673847277552 
-0.7047326782601306 
0.3312159024305356 
0.1861311314687834 
-0.2394214033594566 
0.5523722832152114 
0.2137445289491197 
0.3757158588611047 
-0.7422760791279907 
-1.398004713331359 
-1.60164465460373 
-1.115664077621246 
-0.08353795079557995 
0.4132303166485231 
-0.3206615448926234 
-0.8411220997266187 
-1.588945689237362 
-0.957502206418882 
0.7132941275250989 
0.2722253792994311 
0.1877706956384694 
0.8166952487687281 
-0.4953190030905946 
0.1535617383884316 
-0.1890793546188119 
-0.006818969888258396 
-0.1081820827892892 
-0.1288256415040708 
-0.08235292638161064 
0.7628348185155273 
0.8671724976611802 
-0.2303449201788711 
0.2466481544654832 
-0.1036506512409211 
-1.285456893683205 
-0.4651557477046507 
-0.1871680142785192 
-0.7236244518042412 
0.4175667441804454 
-0.3579719996623693 
-0.601114728748343 
-0.1170233228315006 
0.05675962121145278 
-0.2469772397786764 
-0.2256540657247313 
-0.5951133798637284 
-0.5414986864310015 
-1.010161832979414 
-0.01515902146946986 
-0.03803037972941815 
-0.3011553696923823 
-0.1590521200034928 
0.8428111238503165 
-0.06382561112996577 
1.219587424943531 
0.8634616879309919 
-0.4335846863704648 
-0.3552367006051153 
0.9188556704911652 
0.3357565161503645 
0.8820686014076373 
-0.5933861524205738 
0.3844466806372642 
0.4081471096056253 
1.014196641523647 
0.1151614439237999 
0.2298949421004622 
0.9094379423275393 
0.6426466730210511 
-1.111050031216862 
-0.300820400129891 
0.9548841674255723 
0.1156978467465578 
0.0732728293454909 
0.3345317911845167 
0.04845990684181217 
0.7115240101211826 
-0.7488903882361494 
-0.1177273104163943 
0.6401373787039616 
-0.5121848815803572 
0.03108940933741157 
-0.04345781758469285 
-0.1532737067933344 
-0.2469038742090108 
-0.06633521559738052 
0.1251985058714796 
0.4487900449065846 
-0.4020924853710819 
1.122848639767522 
0.2953147591605734 
0.3693055187522604 
-0.3439811480481093 
0.800198404487167 
0.3311215115395955 
0.2044035566882907 
0.7697077585016184 
0.6415929306007839 
-0.179460366490526 
0.979449362117076 
0.8415556612972346 
-0.4937689198468129 
-1.263241669768481 
-0.8437588712539829 
-0.6953465355429397 
0.6686894296020542 
0.05185571760344403 
-0.694162533290911 
-0.4618599871031313 
-0.3077083295403785 
-1.440506074724312 
0.4132768140855275 
-0.1431495211679069 
-0.7737139046430054 
-0.1682916639669934 
0.7266188600626797 
-0.3705455169588566 
0.5912430860525488 
0.2775080160470465 
0.6053954792488576 
-0.4076165719170172 
-0.1947858750323481 
-0.2769345294856463 
0.2909445756262781 
0.2262642062727043 
-0.9837021708899083 
-0.6035831518609116 
-0.7204755576856839 
0.2310946366846756 
-0.07571131686138115 
0.402775517627492 
0.08797865322940025 
0.843113412465071 
0.4600712312796237 
0.0001962680789592788 
0.3943766064303729 
0.5484297107936619 
-0.3742164274843592 
0.1937872836144 
0.4713844612887872 
-0.4779351754847908 
-0.4716753185501417 
0.127588751211092 
0.4352128282980292 
-0.6565748312058405 
-0.3995519973272597 
-1.413273377720681 
0.02897384087954219 
0.5833529190129312 
0.1363360110376968 
-0.1552786853765393 
0.6245482208870743 
0.1599521941425414 
0.146804710229262 
-0.3443854916352263 
0.6195738074669008 
0.1816263986007866 
0.2955871368584205 
0.8015188234850905 
1.308253092689763 
0.3110140518479365 
0.2635671727148443 
-0.2070265584767127 
-0.4487814800183838 
-0.2801920140899161 
0.3927351784224586 
-0.1788222883152256 
-0.5256362365578032 
-0.6042898521556133 
-0.5300970319933344 
-0.7035639900551788 
-0.3741297853732413 
-0.2949674882819228 
-0.1539161002232451 
-0.5900331189194263 
-1.099159245099346 
-0.9385315035231551 
-0.5588196556680968 
0.1272310070201397 
-0.3021977360058237 
0.1527885699668433 
0.3009901342484663 
-0.7782460690093146 
0.3249156051872445 
0.02434934246665023 
-0.3284040828068855 
-0.2112597739269544 
-0.2348463254761873 
0.3866026378503752 
0.9614758127517828 
0.2967580935260266 
0.8308882044037689 
0.5199405403485162 
0.2145342523686734 
0.09802885639195023 
0.3629648650206577 
0.2517553838864897 
0.6093654481033789 
0.393930820462423 
0.5853827206190777 
0.5194410506905689 
0.5752491723817381 
0.2321197034815367 
-0.1535910438217981 
0.02170837463023337 
-0.4907025299829559 
-0.4548299973868453 
-1.292627042561315 
-0.2916794454153971 
0.3698718029452866 
0.2143593858887555 
0.8627690366475747 
0.6692681196713428 
-0.186210727812787 
-0.1884710138916368 
0.4560555695653369 
-0.03863344674000109 
0.3851514411545703 
-0.4556348755046677 
0.4761869164008846 
-0.3280661054755347 
-0.05103596269506144 
1.042545911221903 
-0.8295925116697979 
-0.7253029366717583 
0.3382015815481814 
-0.1784581263674804 
-1.247337992210709 
-1.221253405679603 
-0.6231691429557902 
0.4070320372693362 
-0.817259754689545 
-0.8093144979977763 
0.4468182412008414 
0.3354310084487819 
0.03774089846085851 
-0.06497122254774831 
-1.428134350743141 
-0.06586874508168977 
0.2654948946963436 
-0.2454926685039396 
-0.7987636534554615 
0.1983804954421204 
0.415657195396748 
-0.07611542819836092 
-0.001695232949976701 
-0.3865596177369156 
0.06566741616232794 
-0.2459203240795378 
-0.2621418980827233 
0.1410088991601981 
0.3291005863868999 
0.4168579743424761 
0.3010581239414417 
-0.1365293916440438 
-0.8653866584362003 
-0.4992159747062944 
0.6745834385561371 
0.3198938985408048 
0.4437596547264014 
-0.1101074201113031 
0.1316170674403414 
-0.7337910423246524 
-0.8417525649275371 
1.227430947108418 
-0.3701657579209714 
0.07045323894841241 
-0.2755358883803189 
-0.002053472017972675 
1.014083089686933 
0.2046383002241392 
0.5503252591075427 
0.2286901505403035 
0.3773894765977139 
0.1491560374995464 
-0.3169709065291701 
0.291092856179094 
-0.1014742935565268 
-1.088114354427021 
-0.9106235455970247 
0.4392118195572063 
0.01074146808000728 
-0.211336330388215 
-0.9207900239568085 
0.5231005395839468 
0.5521588027990887 
0.8137457392559669 
0.6121366190373474 
0.2193242946694258 
0.3829195354697137 
-0.0362861866007714 
-0.03536578230516582 
-0.4717955632384824 
-0.6010104406849341 
0.7649922438313249 
-0.2665703815023226 
0.09387486503523772 
0.1932369312844262 
0.1223193833705888 
-0.4491448808792667 
0.1165803116025364 
0.3588959302889858 
0.1438131326492524 
0.07712275239473726 
0.1263082885523148 
-0.7488388283578893 
-0.4195171468007917 
-0.7372047426299894 
-0.5905118519180189 
-0.3874739894111252 
-0.05347368148669042 
0.2751903499869156 
0.2354412366423111 
0.3943738900235444 
-0.3008857490027303 
-0.4373846687459894 
-1.55675094624162 
-0.7970920212716319 
-0.5375275555352073 
-0.5376940966805611 
-0.1733057030390611 
-0.1653170216913369 
-0.1861888255286542 
0.02160446928478961 
-0.4260369242131313 
-1.188105171539176 
