solver_type L2R_L2LOSS_SVC_DUAL
nr_class 2
label 1 -1
nr_feature 576
bias 1
w
-0.001841587721674953 
0 
0 
0 
0 
0 
0 
0 
0 
0 
0 
0 
-0.1303731060451749 
-0.1372116006638681 
-0.1260312024567849 
-0.3113193763752449 
0.3013665842379865 
0.4747049014502383 
0.03791455851314379 
0.0944972238773609 
0.2837620184862316 
0.4411703375262037 
1.131377446595758 
0.2993842643516155 
-0.361753331857931 
0.5976065640336097 
-0.1871878078466741 
-1.058816018393509 
-0.371899341719116 
0.2339445413403763 
-0.2371663231589991 
-1.104972741051941 
-0.491878453284199 
-0.2660370459235182 
0.03931167952369623 
-0.3673073041496114 
-0.5004801887646738 
0.1620027725315618 
-0.5105155754070616 
-0.07721235889891268 
-0.3405407759855252 
0.5776587118040538 
-0.5352027848216538 
-0.4282879079441959 
-0.09342022833701551 
-0.1187812724630367 
-0.4725179930328342 
-0.2582761042958213 
0.3708953913545395 
0.2902297925063566 
0.5564013588615471 
-0.6255039665552961 
-0.9140073912901353 
-0.4616392576484052 
-0.3271822978463599 
-1.282437423012873 
-0.1961804267014345 
0.2778775193065555 
-0.3471020114889481 
-0.3613508548080991 
0.4307066905621727 
-0.7894260434588524 
-1.400701333236879 
0.3693705771148448 
-0.1198634769874762 
0.1910283851511738 
0.1466994570472952 
0.07794496248144074 
-0.1369748154633896 
-0.4714053919082435 
0.02444621347712508 
-0.3477723430310064 
-0.6750929911533841 
-0.4779648035626413 
0.2671449652577251 
0.5525170918527064 
0.1457017170732898 
-0.3453879277908222 
0.3624381651067073 
1.056578046442205 
0.376502242374107 
0.7399629872855393 
-0.3829973183548568 
-0.07534745621865327 
-0.6049446323276141 
0.2986443472452702 
0.253431199153645 
0.3787466503441001 
0.5716242681521384 
0.5874310590189746 
0.7374677821221833 
0.1744238237330306 
0.994171657575766 
0.8388056420013506 
0.3988438052623425 
0.2617390018250073 
-0.6902183228627697 
0.308625538896729 
-0.4497315656887507 
0.5699316469376611 
0.1067819692073325 
0.5334319784533689 
-0.2793079278881877 
0.3019450860236963 
-0.4983747304073721 
0.1384532824721799 
0.1684281180463423 
0.2193044438277028 
-0.1689544463138845 
0.1862157914205601 
-0.1081474364346969 
-0.1231400247693322 
-0.005322841949423302 
-0.7343414995928197 
-0.9412825582257252 
-0.5782082524375662 
-0.5649298717966903 
-1.025210114593935 
0.4329183514683023 
1.609717216968446 
1.097911660706751 
-0.315282328686438 
0.3285518005728838 
0.04362928008091917 
-1.042960652470359 
-0.5662271784214101 
-0.1683318536967113 
-0.6408465167124759 
-0.2401705235551469 
-0.09643263923312305 
0.6063221996476487 
-0.3086426180214297 
0.01512851081188948 
-0.3930069031485786 
-0.3590095999965699 
-0.06544195002457794 
-0.3366855906155238 
-0.5904229244100898 
-0.4884240511219245 
-0.1679071631053368 
-1.427482758901755 
-0.6583452006280465 
-0.2891957291530444 
-0.139526179948362 
0.09370746849509415 
-0.0816090313450546 
0.4135107005755493 
0.193783130506484 
0.004315385456249378 
0.1047297892127447 
-0.7941098400897432 
0.04430158227626691 
-0.4230210594908369 
-0.7309958653130317 
-0.3106408157519576 
-0.6804113706018288 
-0.1848695484700427 
-0.4142977810285858 
-0.643426369405503 
-0.1270918660751547 
0.2411951466993043 
0.5225793696947118 
0.3349648882521631 
0.3536836961774426 
-0.1457927050326024 
1.228655292744313 
0.06952080895051685 
-0.1493599426699659 
-0.995654242649359 
-0.1694534339616956 
-0.4964482240288378 
-0.3538019487650271 
0.05911700439139244 
1.094871490038517 
0.5360319832921947 
0.4545769753004508 
-0.815681489333993 
0.418851901260355 
0.422396929309602 
0.04747136833299337 
0.6276809835670025 
0.3280710923873375 
-0.6146510412499114 
0.1164073323126727 
0.5650795253290024 
0.2169720261124344 
-0.3788674903021494 
-0.2243101601049957 
-0.1747791182916026 
0.3103117922761705 
-0.2335837020517868 
-0.2995275378329745 
0.5963414250314009 
0.1442252148242371 
0.1552734442976858 
0.4139025334890449 
1.092480479517561 
0.9000630304045674 
0.8763031818653945 
0.006839333115982868 
1.489744542552042 
0.5235538904473276 
0.5740811692530701 
-1.074683816271756 
-0.2665083784458247 
0.01614728297495776 
0.2294443183132186 
0.3591268743200772 
-0.008098405354260624 
-0.5894255239662783 
-0.1616760815273151 
0.5781665084683906 
0.3530150888124966 
0.1378338484561129 
0.1381777691564754 
-0.2622922699286743 
-0.4174354582353888 
-0.770020720535435 
0.1055553484672261 
0.64824714703513 
0.3455416943872203 
1.023095532016049 
1.078736460069359 
-0.9812045240069997 
0.264196610223908 
0.1493929304915951 
-0.1378711854301631 
-0.4109226493827495 
-0.5831360908143604 
-0.9516136929057991 
0.3948519690041033 
0.3110600358371877 
0.9303329319052892 
0.5904595959713616 
-0.1681945753175039 
-0.1783428893426657 
-0.1983237536981202 
0.4161943147836335 
-0.09387040045004824 
0.690625448750941 
-0.2661299884629381 
-0.5675799395563365 
-0.2317045088196648 
0.7998596040091329 
-0.1103638239741104 
-0.6093436715948293 
-1.166619576494946 
-0.8618994610909105 
0.1784474753942585 
0.1825773555101232 
0.5949311913107235 
0.08714499947408588 
0.06518308212635392 
0.2854459759436482 
0.5299657173237723 
0.3141276217373447 
-0.04115780408054155 
-0.4397324449477137 
-0.2785560805427303 
-0.6466853326231465 
0.234041893437631 
0.1642394195626961 
0.1974466845844652 
0.04181576596403493 
-0.1202302043772834 
-0.5020885498789053 
0.1754464920426591 
-0.3915881218516352 
-0.397157187108635 
-0.6503836097472701 
-0.01950368715895754 
0.2423080578608203 
-1.142601560459741 
0.09532374035533157 
0.01221746514221144 
-0.9082968804222414 
0.3935375935401629 
0.3839798339071076 
0.2834020289246073 
0.01285381539878539 
1.069905607284863 
0.259631242431552 
0.4005138451745623 
0.2421262528160455 
0.1887524925748182 
0.2648392471817619 
0.3561459466021761 
0.08058440469786637 
0.1020754346885444 
-0.5880423887920999 
0.2282471463629146 
-0.1511826565918675 
-0.01787012744496408 
0.326117008396312 
0.2555434152794622 
-0.7882925284975429 
0.8549030422676551 
0.7573624190430802 
0.276517957377469 
-0.7098682564828422 
0.2182408368956552 
-0.8609637486275961 
-0.4522752578158996 
-0.3334080826617171 
0.9465636272293474 
0.565036452357274 
0.1038034206078711 
-1.233726663751459 
-1.434227759955388 
-1.451540205166404 
-0.5297746179661464 
-0.550603337042522 
-0.3177377600946208 
-0.2908503901750243 
0.4427767677806167 
-0.2423975214326447 
0.8466291592465937 
0.2444747976764831 
0.2910838481668117 
0.1429993544267195 
0.6212708209920135 
-0.1346340411381003 
-0.2416054066371945 
0.3238857230780963 
0.1640596500129196 
-0.7551787106220753 
0.2227409163580421 
0.08171159463691015 
-0.2658823500253935 
0.09042931686802488 
-0.3122078922426656 
-0.1813904119334889 
0.6115120153361866 
-0.5037022881546188 
0.3815610952658764 
0.3945303719211181 
0.3811208159065748 
-0.2957426388373208 
-0.07891949575461177 
0.05614617015666134 
-0.6166771047773535 
-0.4144816512424424 
0.7546605163180122 
0.2742515813067494 
-0.2092224837006369 
-0.03431254168233847 
1.262400985042163 
0.2197677828544462 
0.7541603019593159 
-0.02446201913423143 
-0.5692990197065809 
-0.2736699868153757 
0.2342234274244388 
0.6090007639992568 
0.6110078133734239 
0.1574837889265344 
0.7476516437871301 
0.9261491592255615 
1.064111593818077 
-0.3499076255748526 
-0.3707795683373652 
0.5491469014141305 
-0.1462329599152927 
0.2070633286918897 
-0.0789307832183636 
-0.3298659901934224 
1.007288148017255 
0.4007428241560184 
0.8809121676678425 
0.2228174032194895 
-0.6639012722583721 
-0.9613971362348779 
0.203729139538433 
-0.5423262008719039 
-0.6639221967600222 
0.03751678383245877 
0.1703905617044954 
-0.4443426544683741 
-0.9205952824873862 
0.323215122765508 
-0.3023633382772414 
0.7545933179063459 
-0.3709690656427073 
-0.05077603986869469 
-0.3354895626917418 
-0.141166030720855 
-0.1130930855206357 
0.03249843354274876 
0.2593536772437222 
0.352983732279969 
-0.3113699167891398 
-0.2461871851002183 
0.1693155155043956 
-0.2148110257863048 
0.6329759847766415 
0.4347996813001738 
0.4917569106573851 
0.1609222552206413 
0.4201563721393245 
-0.8214036665074902 
0.3788473637092562 
-0.1802014371437136 
-0.2417692196313675 
-0.2389378469164478 
-0.08732482762350477 
-0.4325817141927149 
0.1899667503228566 
0.1082254532606788 
-0.8353151860944953 
-1.832082317757363 
-0.7070050274205941 
0.3725947391227351 
-0.1444937179392975 
-0.4352908316736574 
0.4882007979196655 
0.3693126451318412 
-0.4720781571437316 
-0.7417352385956687 
0.1315471141497651 
0.02887461381066369 
0.2009730344984417 
0.1786032976914692 
0.9075402965960213 
0.4655009619917482 
-0.3968302947409031 
0.2544494852137867 
-0.6091303790324215 
-0.1288468454512401 
-0.2906984832329863 
-0.2500089675345361 
0.04290099256651605 
-0.2478057228777826 
0.1056153258654065 
0.1760655895221684 
0.7320605753156456 
0.8434415508145453 
1.203181735017392 
0.02077385441940164 
-0.04616155459642213 
0.756494390982362 
-0.2520368202554186 
0.1197445317856629 
-0.5311245705478662 
-0.2102936396511547 
0.1393753306687785 
-0.6557442976908603 
0.2897121979469814 
0.2465851247645744 
-0.0387738711720289 
0.7831882830026807 
-0.2734696989641827 
-0.4940436121275118 
-0.2969807730377555 
0.2644676200710157 
-0.1105663099164918 
0.9147377798435423 
0.2441863638533495 
0.9152381218948363 
1.070368835003107 
0.2916825048683259 
-0.2118703416308645 
0.886775444349386 
-0.6813742660251254 
-0.3651284278749798 
-0.290359325622412 
-0.03840998271277882 
-0.3490464429781484 
0.17228286217171 
-0.8842921061697051 
-0.5989826128315546 
-1.380194872210191 
-0.3374372410687739 
-0.4509431604598719 
-0.4219418906199581 
-0.3902892561949886 
0.4933666349999339 
-0.08254742960681201 
0.8572873271383522 
0.6628513109880166 
0.08357625427252977 
-0.5222630340345403 
-0.02930657556602205 
-0.1921980882499173 
-0.424741800370977 
-0.9259844193437732 
0.7270769322465776 
0.9507501668891278 
-0.4159310117955169 
0.1239718103361782 
-0.485395186467791 
0.6562285524836036 
-0.3385734813083899 
-0.8363490311198067 
0.1739160427120143 
-0.4691559635638083 
-0.266773007931277 
0.3477953202552509 
0.03911235359276114 
-0.7064813648888171 
1.324659130179989 
1.019329599912362 
1.135028792126973 
-0.9561698388155171 
-0.3489058408842161 
-0.4537190366733833 
-1.140213882717451 
-0.7914370528935545 
-0.5177121887332902 
-0.8706781802085033 
-0.3735548234677473 
-0.5520314556111747 
0.4970421234952991 
-0.2683758949506184 
-0.8924074625750676 
-0.1921929168112202 
0.3444184599970156 
0.7621605358794732 
0.1554619456467774 
0.3790853589844538 
0.2555889779695011 
1.015797423049476 
0.607608609432688 
1.190869276141906 
0.4923914753817197 
-0.2598364421350573 
-0.2458289292676541 
-1.151514509011339 
-0.1273321623091095 
0.001274246840877578 
0.04275992857390434 
0.8175333522825539 
0.4482763863444633 
-0.5438554027353644 
0.2711678812120262 
0.140679151167532 
-0.6121810623870768 
-0.7361654943365245 
0.2243234312700318 
1.185309808088829 
0.03338566878813053 
0.4292238407484926 
-0.6007299898726793 
0.8348694621223911 
0.7443908035781732 
-0.3072113604794565 
0.3088015501205199 
0.6203287718458432 
-0.9468698609888038 
-0.06393327267626488 
-0.26501093321957 
0.7291361274215898 
0.05584686568132977 
0.5112076986046996 
0.1504010659774683 
-0.3328765327358132 
-0.7618976796576016 
-0.1688668441445041 
-0.4628003812978211 
0.01964151390590326 
-0.5499260763267339 
0.4791791979690228 
-0.4066450886487953 
-0.2845102377866975 
-0.2417020440277093 
-0.02290764573457545 
-0.1250286757846956 
0.07786578092799862 
-0.2513028680452528 
-0.4228247766264498 
-0.709268476821207 
-0.2676393462402262 
-1.041583542427172 
-0.4382190077551584 
0.08593743601145869 
-0.2087732846946675 
0.1928583045957313 
-1.078265366695865 
