solver_type L2R_L2LOSS_SVC_DUAL
nr_class 2
label 1 -1
nr_feature 576
bias 1
w
0.1075556387624572 
-0.6756239478549381 
-0.2323815633317513 
-0.13045985713694 
-0.4581499416454721 
-0.6363881870528755 
-0.4042545639480095 
-0.04304020499068878 
-0.1549890906608981 
0.2204141072905677 
-0.2667208711738402 
0.2341755458888914 
-0.02137478277444433 
0.03540867568744258 
0.3450526012228118 
0.3871042914135213 
-0.03265944715952172 
-0.1669053720158917 
-0.0749237345261779 
-0.294899870713807 
0.2239514975251981 
-0.3081230292521844 
-0.3445458894425381 
0.05415131746315522 
-0.1103594793660487 
-0.2430997995620531 
0.1027498502379472 
-0.4784388760248292 
0.114550927183726 
0.7925445235076495 
0.4133821265124307 
0.007969410162110458 
-0.7490051570868477 
-0.7716108616113349 
0.5866688267873518 
0.3777785565835457 
-0.03804343521421023 
-0.1595586609207512 
0.2640793615297218 
-0.01058491491449027 
0.225624020473239 
-0.8260985614860618 
-0.04403639973030789 
-0.06573693138427318 
-0.3683561381732924 
0.2347931186458351 
0.1660947474903969 
-0.6488880344718078 
0.1610477393526416 
0.7457969564305166 
-0.004222882285610357 
-0.7979514520999356 
-0.7352830074051202 
-0.2265798284158583 
-0.2579983490402726 
-0.7581879899325211 
-0.2103350741390991 
0.1892989746419577 
0.519045370855499 
0.7573105104476836 
-0.1687332811248592 
-0.3552102756375069 
0.5134749927658343 
0.1429954199462414 
0.04337103046084479 
0.5384001128107693 
0.1646621292836603 
0.08094468574066802 
-0.3851572946889657 
0.1092426665707191 
0.4125157839057008 
0.291911242542645 
0.00738948107165964 
-0.03676319049949682 
-0.5708971848160072 
-0.1572049372870332 
0.07585934921842534 
-0.7519148550947881 
-0.6340815456705858 
-0.09889654492816283 
-0.4229908918733321 
0.1262675401457535 
-0.011383474452302 
-0.2655228443387686 
-0.07950600507597642 
0.8976727495110144 
0.6019296739346095 
-0.01311762077934127 
0.1668075329060454 
0.2163863145040183 
-0.2484868513066316 
0.1560747036319555 
-0.323720170483657 
0.01357223496724706 
-0.5559137173976173 
-0.2834101147501378 
0.3248234385358239 
0.3049403716416561 
-0.1949261674965529 
-0.1635151236502221 
0.2371540282312014 
1.147358636541598 
0.4339604508553672 
0.9539337112762256 
1.094532641547413 
0.7586517134819896 
-0.2920921627331974 
0.5825843696115912 
-0.3105434840815368 
0.1398162187827226 
0.1145275992280171 
0.3728472489886558 
0.9344151808082741 
-0.3959475140441657 
0.04418651688919903 
-0.3583062519853661 
-1.097706958399922 
-0.1355416071556956 
-0.8182990489928028 
-0.896293198113595 
0.587111103614363 
-1.007602465283549 
0.1289260227331459 
0.3643933631415866 
0.6041823658828623 
0.4097096234274757 
0.9201927169640144 
-0.529120180290849 
0.3220308627566458 
0.2703723660979112 
0.2109537370905733 
0.6126644574410411 
-0.05021245900698007 
-0.008260551701697408 
-0.9124537550046774 
-0.5252095180507652 
0.3128308482249884 
-0.3920450645790357 
-0.06658899449977508 
-0.2692945874875807 
0.2819822090092808 
0.2160932771522432 
0.8715301702111402 
0.3989320300735349 
0.2076223258492384 
-0.4783265210116031 
-0.4763116071117977 
0.07925551634039295 
-0.684423069685805 
-0.2954277813062237 
-0.000306807926991979 
0 
0 
0 
0 
0 
0 
0 
-0.1193499547096605 
-0.468540207981497 
-0.687361443226772 
-0.05742772213078545 
-1.020521095737228 
0.2115882327897218 
0.8365362111682073 
-0.2231479301079168 
0.2042597836844628 
0.2481593980437174 
-0.3740096774431159 
-0.6582854121054008 
0.3523527321442855 
0.5572433746602281 
0.05237029783632619 
-0.1810368187569211 
0.02076317257293644 
0.06441351313307636 
-0.2439072642140957 
-0.8069362783343115 
-0.6079956030848364 
-0.1765968287598291 
0.6357926405396909 
-1.192511824449754 
-0.546884248069745 
0.04733686723210697 
-0.9394177603323988 
0.3920652534470316 
0.04161105310984501 
-0.4610823214430436 
0.2277192824833176 
-0.582185848777571 
-0.9584214105643708 
0.0432418675523953 
-0.06992467571928028 
0.6103510211842883 
-0.2634808591274454 
-0.06785240329709363 
-0.02034537028437724 
0.7350873291093488 
0.05580769800891672 
0.2056151900496557 
0.04137333984588699 
1.015754987921225 
0.3095946350767857 
0.4272271816633458 
0.8463061431953467 
-0.04879999089850367 
-0.6848628638751927 
-0.01378196925493791 
0.2487835082180094 
0.4060162594568204 
0.2700916908841387 
-0.4221253845724968 
0.3034604253501016 
-0.916891684672832 
-0.6313201220367442 
0.00617055331470123 
0.2429149748006519 
0.469112209270559 
-0.0226414291663614 
-0.01115102103970246 
-0.3490096328467692 
-0.09974034009857836 
-0.0968894958670519 
-0.04549473250356714 
0.3498494648875059 
0.08169205472699413 
0.5237990542411485 
0.9455197189997548 
-0.05723417297377194 
0.3519953033937876 
0.3001826236019135 
-0.2026679199851285 
0.02469167280138758 
-0.6810868308016423 
0.1557298088023812 
1.299237189932324 
0.1255398775503683 
-0.2568387334042405 
0.9946518392041365 
0.2042532168781964 
0.004278173153706689 
0.3882976030785208 
-0.2068835456630468 
-0.4159619416658854 
-0.5087301529581428 
-0.4457943209739798 
-0.03098711531884321 
0.7959570067052008 
0.3926991645711484 
0.4036502040091837 
0.7117771144462325 
0.6330664439591844 
-0.003374403081438223 
0.4903028963731986 
-0.1730528005765729 
-0.09789076252419732 
-0.2703045313694039 
-0.4139524705966173 
0.4488328188767644 
0.9523709158318532 
-0.2442471582240735 
-0.002081574641178383 
0.5411504457579653 
0.5441956296414395 
0.3051046835075369 
-0.3797874120735216 
0.4269308577727846 
-1.087391108384824 
0.2017842070453119 
0.7033297509693348 
-0.2471304690661977 
-0.2490790332121065 
-1.327693228173572 
-0.1186803549483252 
-0.3906592913612508 
-0.5094832641084174 
-0.5209912175289546 
-0.6814810136886695 
0.09098668974897881 
-0.5684820183314123 
0.02585709803766492 
0.289206215505475 
0.6115136113395211 
-0.5510196506946865 
-1.003684735831878 
-0.3905779762818646 
-0.7846328988577394 
0.5283784483960521 
0.2736011570735991 
-0.1710514343865048 
0.1560545542314361 
0.4489466971499401 
1.38529476968868 
-0.02834014982353217 
-0.6452303186126288 
-0.6855564851227638 
-0.7156837280429771 
-1.547900909278766 
-0.4492005476173753 
-1.044526800794012 
-1.381066264783725 
0.4234514617535244 
1.073189561760595 
0.2736298199081809 
0.3756645133702483 
-0.2915104080393333 
-0.4040241011880685 
-0.2490659646864083 
-0.1693325714689238 
0.8359070268720291 
-0.3403714240449615 
-0.02524709881162694 
-0.602673140333028 
-0.67817150319665 
-0.1008031580227444 
-1.05300660375286 
0.4722850801265978 
-0.148119167785927 
0.1914047991784205 
0.1822286221984727 
0.2413080347238249 
-0.4096499720725776 
0.7133616035041185 
0.08726191232310658 
-0.1922777063425304 
0.3704042835493226 
-0.5027688059975266 
0.09611919658262902 
-1.088553314720742 
0.7524642121951776 
-0.6201250428486208 
0.2898497018280432 
0.3906492449186704 
-0.30268471818527 
-0.2219431109282257 
-0.209976819989379 
0.3480290762844724 
0.5869518419094136 
0.5440399495237465 
-0.3069879735278064 
-1.35169282528016 
0.8802262185307314 
0.7319625723862209 
0.1761343562184152 
0.4084832101981358 
0.6516371559860987 
0.3662461150071261 
0.4152774541278548 
-0.958649649765457 
0.7438190081027155 
0.3029731829907049 
0.4800529724127645 
0.01390592001003736 
0.5240961095104352 
-0.09092401366384828 
0.4374587650933056 
0.8143947462982356 
-0.3152783928168484 
-0.5675617081384472 
-0.7128926354687081 
0.09738880810261925 
-0.8014051711147801 
-0.6001342363474413 
-0.350798449902835 
-0.392873963579739 
-0.8565612370291191 
-0.04618995108980725 
-0.5056847786515781 
0.3018889458052298 
0.2820317530652264 
0.3309939458893819 
0.1402317812097763 
0.3267089909501669 
0.6271596859703672 
0.4290009637671544 
1.138339451383007 
-0.224063032716098 
-0.7662022599562174 
-0.8675931820940553 
-0.4866552567273338 
0.6098015337192956 
0.0009513740539278849 
0.2583017675778797 
-0.2199102013688994 
0.276554916143775 
0.08739023003252082 
-0.4126224282068947 
-0.5272448022144445 
0.3919759176451311 
0.04108725874573417 
-0.6268476896875876 
-0.1158733523210142 
-0.4534498354143253 
-0.1461598636618214 
-0.6453475187730604 
-1.035274466530829 
-0.6914346166877065 
0.09839020615210917 
-0.7867682725575078 
0.586802530020739 
-0.7114533886034749 
-0.02635104423570912 
-0.2047892604270259 
-0.7245878106892784 
0.1525725173101828 
1.131839830714589 
0.6272089408680929 
0.4964188886461637 
-0.05942961823103569 
0.4637590926408376 
0.3173915946508855 
-0.03315702624748195 
-0.1982139455821846 
-0.1082393001589348 
0.09965916276545432 
0.2829512136084095 
0.3494147842951733 
-0.2590244245699122 
-1.29165950826331 
-1.017473038978828 
-0.2666198019039688 
-1.172953398563258 
-0.7231093069101817 
-0.8431484592826838 
-0.5940968062357386 
0.1656720758219446 
-0.5210427529729421 
-0.1521293011791267 
-0.7334878924042038 
-0.5170348425618018 
-0.01176678579807479 
0.3490149881739072 
-0.3339643098561209 
-0.466993193071251 
0.1027175132151443 
-0.2868908780050575 
0.4474089579423086 
1.062723787780422 
-0.1283493553884782 
-0.09537502943780857 
0.639618637732141 
0.2011996318310313 
-0.4099485771978625 
0.01461768463929205 
-0.3194360742627934 
0.3961503946603055 
0.03761775406162948 
-0.3941840833605294 
0.5294386979819672 
0.04617119108719906 
0.4646182197873348 
0.5347750383308482 
0.07337345978143141 
0.785339446374729 
0.223695719163829 
-0.9372937284737087 
-0.1495881071461792 
-0.3707050705826461 
-1.318061496789557 
-0.02882257342366525 
0.7632305659603024 
-0.8018959526818669 
-0.8737390376277289 
-0.1747057425095308 
-0.3655999960162832 
0.1017247390383275 
-0.2740993411222044 
0.3618257171337588 
0.4448934651798689 
0.4375848291243989 
2.2446256054041 
1.697646539394098 
0.7400769329574627 
0.8443730380019275 
0.3087922957785141 
1.052124616469733 
-0.1236910303937503 
0.5657749952672564 
0.01636748083156669 
0.2531027197128249 
0.02216465553079496 
0.2819560969478581 
-0.5295580440803756 
-0.2949141838004546 
-1.192969049086102 
-1.589262368129616 
-0.2176133855228576 
-0.06818840618645164 
-0.4193347478420411 
-0.1879496745027478 
1.07522276328543 
0.799540698538878 
0.421351124036829 
-0.1814742712724745 
-0.005394320395216008 
0.4921489356151951 
-0.09885060825506184 
-0.2356206655346701 
-0.08195312490263693 
-0.4115914823911203 
-0.2033808394169172 
-1.078553156863391 
-0.06569041295325373 
0.7345294177651258 
-0.8769297983558813 
0.4866181501027947 
0.3275321187491551 
-0.5009243661257606 
-0.3043351278755577 
-0.3100070505807707 
-0.1118771196231642 
0.09307942264851006 
0.2489716230892048 
0.09624204939525168 
0.7988235667910062 
-0.503405356059225 
-0.5372892971749381 
-0.4865786696257125 
-1.034962804437441 
-1.542388577758878 
-0.1696594321592951 
-0.2621435093260265 
-0.2728054653629877 
-0.4471630038562529 
-0.3198541138539315 
-0.1866375255896731 
0.02351408995367564 
0.269104226298944 
-0.322545652817319 
0.2738452419476184 
0.1983191677244567 
0.4054794595826605 
-0.03848162264022003 
-0.05958284182012274 
-0.2300889151038162 
-0.4590468828692829 
0.06147923994252578 
0.3668148442821714 
0.08332206808579513 
0.1628856222142361 
-0.6217108343751129 
-0.4988918898584145 
-0.4517825405304368 
-0.1218822774391169 
0.4194218073996553 
0.1636039142661594 
0.02699670858217312 
0.01316129713998123 
-0.3025780987288285 
0.6628205419974985 
0.2528272444350893 
-0.3193495393313618 
0.6950614510825666 
0.1945008929690457 
0.4629571532324168 
0.6620530546214368 
0.839200465252232 
0.9913122659456055 
0.6434451992684046 
-0.2334051171974104 
-0.4427065303924129 
0.1329962523341597 
-0.4309549551165683 
-0.4661502764750819 
-0.2785489703019813 
-0.2932018626771118 
-0.1197859507689658 
-0.1892751015183044 
-0.09747851059144115 
0.4163292240738094 
-0.03980918611610068 
0.2793860228167436 
0.1252989402846314 
-0.05514390265782742 
-0.3961305354445822 
-0.257741190250941 
-1.113659913047339 
