solver_type L2R_L2LOSS_SVC_DUAL
nr_class 2
label 1 -1
nr_feature 576
bias 1
w
-1.264869504540671 
-0.1102416241357919 
5.325684954086585 
3.593697037618356 
-3.073341534668249 
-2.554505870172903 
-0.9599733021667702 
-1.939138264142664 
0.1922648558394952 
0.8963181283853524 
1.071493959882507 
0.5484574427463507 
1.572667413495203 
-0.3834191674645213 
0.2735821800078662 
-2.564958691778692 
1.150961357506765 
-1.022625288911626 
-1.383786730817954 
-0.5862082411777602 
-0.4924464453784317 
0.04650948368436848 
-2.577428137352378 
-1.072079209952883 
-0.02971193412118005 
-0.1292092959147609 
0.1634540574500898 
0.3767712132870922 
0.7490538575063374 
1.459308202303939 
-1.438298126705457 
-0.6423627872606315 
0 
0 
0 
0 
0 
0 
0 
0 
0 
0 
-2.283067411523302 
0.2710093720920406 
0.004243838144304965 
0 
0 
0 
1.608863553606212 
2.754880401244068 
-0.8159502719228999 
0.5875852051572172 
-2.905670763528783 
-1.972244617012445 
-0.2027486792574794 
3.033908762164923 
0.5326379374433938 
0.4013985558458834 
-0.1515901660866233 
-1.027771118490724 
0.2091416214392493 
-1.796014881806995 
0.1090953800307385 
-0.4316689259223209 
-1.874513304730123 
0.4871859676839417 
0.6576962786407752 
-0.5115833940865755 
-0.379649779561103 
-0.6836967350642476 
0.9560528387992334 
0.6094073578393781 
0.4509990957044947 
0.4179163624881923 
0.3629264933131981 
-0.1694832408021421 
-0.2835278635348367 
-0.7686477442703981 
1.889038902323968 
0.1952284574901495 
0.889649749200441 
0.02174563896478104 
-1.948550962140063 
-0.2640972335982481 
-0.8169895826872163 
-1.005951607406005 
-0.6892753473464877 
0.3835586546973937 
-0.5362939953207403 
0.4192192646721371 
0.5811279974058679 
0.3832504800932605 
1.245703325241487 
0.9907095853480924 
-0.2863406542840391 
0.0007234234905146979 
1.652443444215514 
0.7549388903789223 
2.265910070717911 
1.122628847918525 
0.2324540251474739 
0.5297874120536853 
2.37056075897523 
-3.457415745864953 
-0.7297768981979448 
0.4734744756884926 
0.1112186259104736 
-1.528680582495376 
-1.055952101344468 
1.886842942289788 
-3.857622258825916 
-2.106189466314216 
0.6838187294221743 
-0.7588042819118804 
0.2537900847789716 
-0.6692922218996983 
1.20912674430915 
0.4701054192003054 
-2.104830114540188 
-1.134482002490342 
0.1025186018894781 
-0.9616802765533475 
0.8870880685635221 
-1.71025816272544 
-0.942437911151553 
-0.4387546759587265 
-1.188573605394052 
2.156950327551034 
-0.2717035067207683 
-0.07141440973473824 
0.6315734448188258 
0.369054541170615 
0.5168782286658286 
0.6660005169764123 
0.4359691617042112 
0.1313991323166287 
0.1681736993971212 
0.2216036005938581 
0.2250634693881415 
0.1271907009981274 
0.03006768062689705 
0.2336857566308004 
0.2496976036772975 
0.4856780890728917 
0.02304481201609014 
-0.1740854103567935 
-0.02834881991896101 
-0.154945532528849 
-0.01064066252673889 
-0.1755117645265006 
-0.1220496191978279 
-0.2508487935221747 
-0.1741115266815203 
-0.4511056597346563 
-0.1740000944551526 
-0.03159301592169752 
0.1292953840104938 
0.207690405725341 
0.2632562647235909 
-0.008158878839981055 
0.4284485740356973 
0.668046314252333 
0.4557115582918542 
0.2078908843950504 
-0.308939424876982 
-0.3803443276585029 
0.3632959216270427 
0.3546875496605707 
0.2217314763945435 
0.3362900040923635 
0.1730884543928697 
0.4503794948109484 
0.5226839875506327 
0.1978635229983424 
-0.01530913784893399 
0.07830084390833744 
-0.369116829302454 
0.09724850611513308 
-0.9865221864819571 
-0.08618456688151958 
0.1562556279978066 
-0.2579073205651342 
-0.4374982446780794 
-0.1391100905027667 
-0.3583046267920526 
-0.3777115568608725 
-0.1040788777668931 
-0.4088551414299089 
-0.06991938046123616 
-0.08604749771959371 
-0.4327835599725051 
0.4800927753499935 
0 
0 
0 
0 
0 
0 
0 
0 
0 
0 
0.7100024234018965 
1.756691208029269 
0.03731570817091703 
0 
0 
0 
-3.191369035610241 
0.2962664293451625 
-0.3440607045384069 
-0.4909446845142715 
3.464108912436454 
-1.299017521745657 
0.4199398470583766 
-0.05442341115066916 
-0.789376869164145 
-0.9526979414931224 
-0.4176259978633357 
0.4726293726032034 
-0.502206820800552 
-0.3115680738032364 
1.263041486961632 
0.1169117944289927 
0 
0 
0 
0 
0 
0 
0 
0 
0 
0 
0 
0 
0 
0 
0 
0 
0 
0 
0 
0 
0 
0 
0 
0 
-0.0991276868267031 
1.22297647699813 
0.6452593183547536 
-0.8123994506810385 
-0.08355760581993701 
0 
0 
0 
-0.6372193025319503 
-2.428126304492706 
-1.281309362972174 
-0.959868555285056 
-2.049009561202355 
2.334122591430671 
-2.789090467504046 
0.1914027802748326 
1.328171693751475 
-0.03566479376584816 
0.25949955360412 
1.282838629663285 
1.140464670541741 
0.1383886785514053 
-0.02033842746696639 
-1.712051458223383 
-0.2292604220989971 
1.739596257777176 
-2.162812190846926 
-1.210626972479937 
0.1816917888782144 
0.8190445151356842 
2.465172305393289 
0.08905283989261197 
0.1123397375628506 
0.06385492705111126 
-0.8020307818167757 
1.406325860251093 
-0.1130331477562677 
2.504962922589251 
0.8246202844737341 
-0.8501215802962427 
0 
0 
0 
0 
0 
0 
0 
0 
-0.04562521105397235 
0.2890799298978603 
-1.452420952900539 
-0.1714058289157872 
-0.0282898409597732 
0 
0 
0 
1.153003083573792 
-1.025101584250939 
0.4455857277727587 
-0.686844781770464 
-2.55261246571444 
-1.106810307979808 
0.9234369105060312 
-1.549487567880938 
-0.7952187917750013 
-0.302741394756634 
0.3821881081749519 
1.151982721488555 
1.318016956830598 
-0.6343818279852366 
1.648473416511348 
0.7170250550473365 
-1.056636014271155 
-2.139949961476124 
1.260466085236304 
1.248780376245036 
0.1653837599196789 
-0.1034587615258912 
-0.551047458274571 
0.7342091038466551 
-0.1009419486008877 
0.6882859078848299 
-0.2133879534153831 
-0.4302988878973653 
-0.2185691157241541 
-1.985399889568301 
1.0502925896594 
-0.4986714528353139 
0.8969410748023027 
-0.3488873014275949 
1.928234996540699 
-0.2547930351832677 
-0.6110164220032149 
0.7173971170112654 
0.6778050996029618 
-0.06448092409425155 
-0.1246231703654327 
0.08548900278206731 
-0.04542465557304135 
0.06219098971610963 
0.0883780420006945 
-0.1206505084434492 
0.6086095251317507 
-1.089413998358252 
0.8251153223986012 
2.664271613418092 
1.034978297936653 
-1.13691147593178 
-0.5250757273217203 
0.1778840067494625 
1.171256125341208 
-0.5296056321931169 
-0.4720512482841922 
0.4969409749804327 
-0.248300093956606 
2.001049103047755 
-1.004065328258446 
1.594003852619886 
-0.9636287226929664 
0.6206840733169683 
2.183508078969488 
-0.4879710282310635 
-1.026329405910986 
0.007334276276982826 
0.7935406277417938 
-1.022538529140527 
-2.110190737191497 
-0.748841748789241 
0.05872647742157848 
0.483768782707403 
0.7678982430280495 
-0.4232798957998222 
1.74291583815542 
-1.002647642766264 
0.1713875191341432 
-1.020017897209139 
0 
0 
0 
0 
0 
0 
0 
0 
0 
0 
0 
0 
0 
0 
0 
0 
0 
0 
0 
0 
0 
0 
0 
0 
-2.180515428336398 
0.05202681945727168 
0.1794719857363194 
-0.5474258736126773 
-0.9187938733298831 
0 
0 
0 
0 
0 
0 
0 
0 
0 
0 
0 
0 
0 
0 
0 
0 
0 
0 
0 
0 
0 
0 
0 
0 
0 
0 
0 
0 
0 
0 
0 
0 
0 
0 
0 
0 
0 
0 
0 
0 
0 
0 
0 
-0.1150550251583868 
-1.62255338932053 
-0.2878577113095043 
-0.2185517264611286 
-0.05699978833336705 
0 
0 
0 
-0.8544065721620175 
-1.706260498344925 
-1.219967972502409 
2.142629070581619 
-0.3066980407360355 
-1.688540249974136 
0.3111445126557161 
1.319546306796296 
0.1109779532080393 
-0.9003687292201754 
-0.4971968664465197 
-1.41730395233786 
0.6236396999117558 
-0.3834146796289064 
0.5516834710839218 
0.3354218064597038 
0 
0 
0 
0 
0 
0 
0 
0 
0 
0 
0 
0 
0 
0 
0 
0 
0 
0 
0 
0 
0 
0 
0 
0 
0 
0 
1.242590425707942 
0 
0 
0 
0 
0 
-1.590043427423387 
1.482489840841646 
1.178695676382397 
-2.647610095620562 
0.05510450520919873 
0.7578599817202322 
-2.269885876636421 
-0.243892980108484 
0.7244318132348844 
1.003137332003401 
0.4863310202421427 
-0.7734438226508373 
-1.209198095636939 
-0.5918674778922134 
-1.59773590494434 
-0.5104329363916975 
-2.427777274790456 
-0.9776718445589135 
0.7217991364001799 
0.09490730455557266 
-0.8674988839868623 
0.591494839532252 
2.099608853075448 
0.05671988024260641 
-0.1709897442477041 
0.2426159486204489 
-0.087097167555323 
1.069913690618318 
-1.21781231792745 
1.698963057416762 
-0.2721818391205397 
0.7850437891200212 
0 
0 
0 
0 
0 
0 
0 
0 
0 
0 
-0.7921648897402146 
0 
0 
0 
0 
0 
-0.2254650295382759 
0.1027686730260233 
0.115744191171929 
-0.2205554442248857 
-0.5060897414737831 
1.789178802141539 
-0.2364744162009668 
-1.19473132279206 
-0.1802855970525534 
-0.3572473100667037 
-2.121250471463453 
-0.7979030156159562 
0.8965057952294172 
-0.03522364507105753 
2.765678316960952 
-0.383875231525826 
-0.5136214590710116 
