solver_type L2R_L2LOSS_SVC_DUAL
nr_class 2
label 1 -1
nr_feature 576
bias 1
w
-0.03498751210134121 
-0.3692619353956348 
-0.221697676237322 
-0.2568483640318932 
-0.423586104342841 
-0.5556480396015229 
0.2282610049116782 
-0.1758631988403551 
0.1259560337525191 
-0.2527638710905073 
0.308695813526093 
-0.04923833693025764 
0.05031682074930814 
-0.4467540759203896 
-0.5720651530888075 
-0.5140436527269985 
-0.566051208802114 
-1.601710435488352 
-0.09169409627005509 
-0.4404576964919031 
-0.0677065095851947 
0.0907319052941645 
-0.04785564423046033 
0.07910121833893667 
0.8455638442268952 
-1.08680049104114 
0.6451337460709649 
-0.5736324366648323 
0.852599809583405 
0.0318736688256539 
0.521255379570239 
1.492004367705251 
-0.1743262471001552 
-0.08166047046560218 
0.747342810115288 
0.2376968291763622 
0.5206166804666497 
0.6039507912923563 
-0.1719621435436415 
0.227884343883185 
-0.1715669498568393 
0.3935826576949372 
0.4375473216397874 
0.7407997466123992 
-0.05239777680062382 
-0.2146600525466504 
-1.403317522675457 
-0.5358601723881934 
1.791070108949413 
0.4797830439232356 
1.014762571300649 
-1.132101012047608 
-2.132878827030261 
-0.1470363158375338 
0.1909977165634157 
-1.468937722584257 
0.5257369822669893 
0.2335518258439723 
0.7256299291387323 
-1.143820018755239 
0.5045194408020369 
-1.268861071484066 
0.7516658018688115 
-0.8802125349289978 
0.7515864882584824 
1.290469161216949 
0.1520020777208293 
0.4667667473247683 
0.1805025804913503 
0.1131834983177336 
-0.05032522378586184 
-0.3005420544536455 
-0.9092154972239933 
0.6657296264325064 
-0.9523852705780447 
0.7376389014019149 
-0.6126945255306147 
0.04579963468274025 
-0.3911830763446459 
-1.253357948575123 
-0.7643334643929095 
-1.248971630868266 
-0.1305138051218951 
0.4586908456775014 
-0.4628439727257656 
-0.844769249977669 
-0.5403210004524064 
-1.278587704339355 
-0.06721217580650434 
0.2011209982926798 
-0.8050455019828904 
-0.3490914464614531 
-0.06516731529146751 
0.0218133733832242 
0.4159425855552245 
0.1712929749565612 
0.2508412587639027 
0.362038536887581 
-0.7349832171835216 
-0.2649199143099366 
0.9456355535552581 
0.4610269213921283 
0.130996706706215 
0.6742191130505327 
0.0008378352082141791 
0.05354813188790734 
-0.3812080052818844 
0.06022828633376491 
-0.5342734236691785 
-0.3025439247656382 
-0.05648500774659919 
0.7701777874016231 
-0.248416772507249 
-0.5641020220897983 
-0.7790043399559489 
0.05411546177008622 
-0.342643131455933 
-0.8884228172617381 
0.3048507267877297 
0.1532470296431474 
0.6268928043217728 
0.6373911943529901 
0.6309177216140224 
-0.251318976867069 
0.3500319393848057 
-0.7137781018469915 
0.7627111778222382 
0.4575459376319203 
0.8383473255364221 
1.67558240926152 
0.4698300186895002 
-0.2683582957530709 
0.808804248133058 
0.9532405821491994 
0.444698216460139 
1.229765359800308 
0.3938093480835514 
-0.1472237987921948 
1.308979254689704 
0.3037395135142235 
0.2156786162223982 
-0.495768995792449 
-0.5723787588010115 
-0.1945980869783005 
-0.2734277097183635 
-1.11864760415908 
-0.03601166349003433 
-0.05496283642553582 
0.2217223664435618 
0.3685614352920404 
0.08673250709947752 
-0.3474931889649426 
-0.3621667820762923 
-0.1256647167039589 
-0.218614435966147 
-0.2098436681648392 
-0.4054487736860252 
-0.4349517498773962 
-0.4571352908125556 
-0.2877701147991598 
-0.6272051817523292 
-0.2741429219002999 
-0.09039808471678533 
0.08301509531320085 
0.09455461608331443 
1.299748454487582 
-1.605971421292241 
0.8031770569718737 
-0.7920066486276366 
-0.5234093419185298 
-1.508140245277893 
1.121233372718295 
-2.391310182234895 
1.812198102394509 
-0.9496011426960858 
1.386691891614965 
0.6030349403315103 
-0.1419986216076158 
0.4335545186665825 
-0.06724188961350511 
0.7282867613165571 
0.366137710568169 
-0.002071136725143356 
-0.4458290369233681 
-0.1187026645290054 
1.260233854662718 
1.027870067817517 
0.7061617108379423 
-0.1699005226293121 
1.676128291952921 
-3.111945580665511 
0.6011490107692391 
-0.02231843169299882 
0.3500620264881279 
-1.3218802249113 
-0.8207306128279875 
-0.4007667083563687 
-0.508220123257025 
0.7717953665632633 
0.1110691278067048 
0.5614827779334292 
-0.1888936182432287 
-0.2847990935692117 
-1.102918261822919 
-0.2428826876811382 
0.5400841965671027 
0.9393920291610994 
-0.7468685916529687 
-3.245243691517037 
1.113116413407164 
0.9531853550514732 
2.520344399322027 
1.608709966376326 
1.257413799766995 
0.1566949721584608 
1.415498700239531 
-0.6352730774849632 
0.4353892007304893 
0.2800088193100234 
2.462938753681167 
-0.4406626939804103 
2.246985708252225 
-1.986802935933631 
-1.506604259688592 
0 
0 
0 
0 
0 
0 
2.137096425425757 
-0.8874325077491134 
0.3645145051786258 
1.315821380602323 
-0.2206730087355935 
0 
0 
0 
0 
0 
0 
0 
0 
0 
-0.2363847689851534 
-0.7550778112277766 
-1.326515378164193 
-1.200305805019272 
-0.2378544799737714 
0.9512056641062729 
0.5214008665936666 
0.7426140484717251 
-0.02128913028967177 
0 
0 
0 
0.6177150344982568 
-3.723095565483451 
-1.479980422151173 
-1.200900982171197 
-0.6307573573183908 
-1.612364693483004 
-0.4769649552049897 
-0.8301033294536301 
0.2959776753946162 
-0.7725801452458115 
-1.353148072021102 
-1.906933248644444 
-0.1031309659758742 
-0.4103951244370791 
1.113755439985896 
0.7889948770247584 
-0.4790905647095357 
0.615456717523037 
-0.06761748484639164 
-1.113260481592745 
0.9212823039300109 
0.8626830172684268 
0.1577480856155895 
0.1920264878529283 
0.7158763667912164 
-1.017733532490149 
-0.271181375535186 
-0.38355055024532 
-1.286037299357134 
1.45922148101502 
-2.234387359147815 
-1.719743668116296 
0 
0 
0 
0 
-0.3702407268739825 
-0.439398181408263 
1.219417148860015 
0.7937739948066916 
-0.2298892201900709 
0.3817089797964255 
-2.189002041536591 
-0.536838393400929 
-0.02025506163102183 
0 
0 
0 
0 
0 
0 
0 
0.7667470553630996 
1.807422229705391 
-1.750012025566226 
0.7036054670459904 
1.020256332878631 
1.591876198052137 
1.234189037614743 
-0.0520895686635448 
-0.01222156299916942 
0 
0 
0 
0.967070697864869 
0.6342927498274285 
0.5090818063478944 
0.5830044948275561 
-0.586037645067424 
-0.8792346191384292 
1.303945953494741 
-0.9739696579045718 
-0.7200863159468562 
0.7794794816740539 
0.4894351632539973 
-1.455376091860633 
2.369904083715995 
-3.298520009131676 
1.139139753394154 
-0.9746792238577048 
-1.581353575301566 
-1.144420079682468 
-1.002681605192386 
0.6523776909928177 
-0.7406726720449997 
-0.4520301568302625 
0.809965470671467 
1.416659118679103 
0.6624735268149583 
-0.6572174211478831 
-0.8269912628938154 
-0.8078031377931686 
-0.3730781201041513 
-3.008056669636232 
3.156835733969373 
-1.617495855768637 
0 
0 
0 
0 
0.09145118574995508 
0.4675672965352457 
1.590914124705985 
-1.106530634756511 
-1.19538660879258 
-2.234356292209419 
-0.4312014212228343 
-0.05863597502221683 
-0.01607004120749602 
0 
0 
0 
0 
0 
0 
0 
0 
0 
-0.3218483653502382 
1.932203484508075 
2.09834703789698 
0.5058208401553767 
-0.01376841488965823 
0 
0 
0 
0 
0 
0 
0 
0 
0 
0 
0 
-0.4592197784671019 
0.09866068140818628 
-0.408531810457206 
-0.6162983068882145 
-0.139983881477939 
0 
0 
0 
0 
0 
0 
0 
0 
0 
-0.2650790409682632 
-0.4813587180215772 
0.1428524339055429 
0.4907429975521128 
-0.0943671018322577 
-1.332124081083064 
-0.63565462687931 
0.7458843562144484 
-1.488642407047477 
0 
0 
0 
0 
0 
0 
0 
0 
0 
0 
0 
0 
0 
0 
0 
0 
0 
0 
0 
0 
0 
0 
0 
0 
0 
0 
0 
0 
0 
0 
0 
0 
0 
0 
0 
0 
0 
0 
0 
0.5755700316473917 
0.5599901642568043 
-0.488279942151762 
-0.7119127444030161 
-0.0986083644727286 
-0.02996236335452293 
1.726243104972904 
2.335388150955964 
-1.349260751314665 
0 
0 
0 
0 
0 
0 
0 
-0.4991102115308988 
-0.9277967708205128 
0.5463339157189078 
0.3569046266645633 
-0.451185785916833 
-0.9767904490804527 
0.1746282145042725 
-0.4070574761734349 
-0.8751423883697826 
0 
0 
0 
0 
0 
0 
0 
0 
0 
0 
0 
0 
0 
0 
0 
0 
0 
0 
0 
0 
0 
0 
0 
0 
0 
0 
0 
0 
0 
0 
0 
0 
0 
0 
0 
0 
0 
0 
0 
-0.1102982590696809 
0.4885041182941912 
-1.019570954336785 
0.00582221559218048 
0.4257927328146538 
1.316152399691364 
0.3506434056011643 
-0.5485138055174335 
-1.523728265231292 
0 
0 
0 
0 
0 
0 
0 
0 
0 
-0.171487694577055 
-1.15659654387869 
-1.137208160853328 
0.3806576211039586 
0.5955716582035344 
0 
0 
0 
0 
0 
0 
0 
0 
0 
0 
0 
0 
0 
0 
0 
0 
0 
0 
0 
0 
0 
0 
0 
0 
0 
0 
0 
0 
0 
0 
0 
0 
0 
0 
0 
0 
0 
0.176473077217454 
