solver_type L2R_L2LOSS_SVC_DUAL
nr_class 2
label 1 -1
nr_feature 576
bias 1
w
0.1825368977850245 
0.4166616027530919 
0.4496781099721097 
0.04046017879032598 
0.1080717292928166 
0.07397854287899315 
0.00932411583882835 
0.1458570265647574 
-0.1969170101971746 
-0.3578379012169508 
-0.2263758996213365 
-0.1914849040382097 
-0.4284422627686566 
0.01053754103598802 
-0.0293880574917594 
0.2533760259059101 
-0.7548728786840534 
-0.1873781425421115 
-0.2987416887857595 
-0.2054326139824664 
-0.1020322386407894 
0.4218535158627139 
-0.04755551786386258 
0.4421036624461373 
-0.3957889462411441 
0.107305956494378 
0.05527268686628133 
0.06614259267843077 
-0.4688253839217713 
-0.04714370972859555 
-1.275689629444166 
-0.108281631609679 
0.2668665028176372 
0.009161171873679439 
0.02693320837918394 
-0.4272429527897558 
-0.4083822742429537 
0.2292213368214025 
0.1265413142045474 
-0.003719392717823223 
0.4430375406908211 
0.1031022820995309 
0.03948920002418373 
0.2299689653599511 
-0.1719487321424724 
-0.2174201765093954 
0.7320516500444506 
-0.08295153538980085 
-0.768887002814192 
-0.01694723994914509 
-0.3676697134721069 
0.2538987133843205 
0.06781633704996011 
0.04885937157499461 
0.152066034106791 
0.05428495945945955 
-0.224835214182319 
0.2791852831265721 
-0.09759914254690069 
-0.2443920525960613 
0.3307824451408944 
0.7090450910521204 
0.07530529334202731 
-0.4307027822758269 
0.911858636191311 
0.2733055850815275 
0.5632956288123238 
-0.04450906703492913 
0.2093269845911417 
-0.9570842187720137 
0.4762723094937532 
-1.000620976428734 
0.9003294955547447 
0.445215622317695 
0.03645867793858204 
-1.021755201881145 
-0.04785241132087247 
-1.642584728956962 
1.620011807288191 
-0.124419414353595 
-0.2761613954485689 
0.9749855630134752 
1.501524075579273 
1.087776909471663 
0.7619299299141006 
0.9578552133795188 
-1.593753737628152 
-3.390694369665677 
-3.143246515233786 
-1.292929356606487 
-3.068514050248863 
0.04719838948973672 
3.26315824309747 
-0.1083572224865029 
1.218665153703955 
-0.4633586067114546 
2.391161073771917 
-0.156566757376386 
1.199424395579565 
-0.3609994675576878 
-0.4206631534594793 
0.895034650242644 
0.2329747612234958 
-1.51568390826123 
0.2553583933906078 
0.224253018381706 
-1.510467382589609 
0.3688235144441439 
-1.156422076396404 
1.146884005839213 
-2.539314230453063 
2.643244517797897 
-0.324158678356852 
0.02574218993471009 
-1.498168236605798 
-1.246042655903103 
-0.09106832351055491 
-3.139486694371976 
-0.4287497532823874 
-0.5677353836765955 
0.7602466720607749 
1.163201815712383 
0.8335102317265379 
0.8045626883786635 
1.36841162573505 
-0.137273827666406 
-0.1550974303507449 
-0.2118506460785119 
0.1871593399624228 
-0.8725686760288895 
-0.6194327148330447 
-0.3201256007366418 
-0.05697613172953449 
-0.4194456170388892 
0.1256671947456591 
1.495058800150416 
-0.7471348518231782 
-1.529991539628752 
1.613169042956169 
-0.5978215093664151 
-2.182761265820822 
0.5000836335052831 
-1.397080081493825 
-1.093387995819992 
0 
0 
0 
0 
0 
0 
0 
0 
0 
0 
0 
0 
0 
0 
0 
0 
-0.5533712273470545 
-1.020504299235049 
-0.3331535977624348 
-0.05118359760730823 
0.1320124176569509 
1.075025750763031 
1.097952236771331 
-0.2182978576749177 
1.34035937770837 
1.104637975607779 
-0.3894293488845127 
1.54896204301236 
1.550927784642733 
-0.1833116315239936 
-0.1991495778798198 
-0.249555243923674 
0 
0 
0 
0 
0 
0 
0 
0 
0 
0 
0 
0 
0 
0 
0 
0 
-0.6227273348645029 
0.8249585568285998 
-0.1501895579817034 
0.7541113733179107 
0.2681911421842629 
-0.06335821786174557 
0.08066644359989481 
0.3795376704461108 
-0.06360097375294067 
0.327758342352511 
0.1881655903953583 
-0.3014376462781126 
-0.1986603142218915 
0.274944622092664 
-1.039920276234505 
0.2660242618387458 
-0.05581549242929837 
0.1570455544751347 
0.351170820693243 
-1.561680112548562 
-0.2094438667045226 
-0.5288821771822186 
0.2040904699578789 
-1.20644099547055 
0.3705202947683431 
0.2041835686560524 
0.6945776693746122 
1.106234709682485 
-0.5613973798987286 
-0.1435237171442348 
-0.7337171445874328 
-0.8024174293385652 
-1.306228881185096 
0.8342963306848162 
-0.9541642065270106 
-0.6774341431251281 
0.5696188915842904 
-0.6934897991159136 
0.3853901040031832 
0.7252627257236867 
1.07927374974668 
1.429162055365777 
0.7170604835939938 
0.68676232216583 
0.1691058699611232 
1.745683282958991 
0.9271872443839035 
1.7159931278313 
-0.7123573622497545 
0.3313718069254325 
-1.844766114735268 
0.2299308541796324 
0.04050410736479826 
-0.3638913456162838 
-1.251218293404423 
0.1736389677222387 
0.02417601034848415 
-0.5391009090387973 
1.524451605679219 
0.1487616646605429 
0.4845827752954847 
-0.2128049515444731 
-0.3457819230299476 
-0.3805485183424482 
-2.068742265598057 
-1.514429712727199 
-1.070470181238018 
1.427071321516555 
0.5213759633896823 
-0.1223803616873302 
-1.047183005326758 
2.897497152312233 
-0.6743603432832667 
-1.529136022993333 
-0.5098724401099025 
-1.082940082282182 
1.18952390424375 
-2.151390318260817 
2.463145781045675 
-0.5857741341404191 
-0.3041142112075834 
0.8758966016007187 
1.899073909535986 
1.024801860061986 
-0.006323460487170761 
1.185780939443555 
-2.071504721613149 
1.181317093092039 
-1.370112205641022 
2.294736652735153 
1.629794505268117 
0.4439682387309279 
1.510173640210381 
-0.1331644407374266 
-0.1408766631105945 
-0.1949356592758243 
0.7892912192984078 
-1.05503421864363 
-0.1552910000859392 
-0.6572696747399547 
0.1581939681501045 
-0.8098122361813329 
0.7941557106899017 
-0.8856648199737001 
-0.005600908559499519 
1.685197961534999 
-0.2423918098580764 
-1.817501639063573 
-1.309270393700217 
-1.855160377056754 
2.500361089108598 
0.09256037187507761 
0 
0 
-0.1754998314011136 
0.7841020797969639 
0.4266004332341981 
0.9766914480756935 
-0.5328344133953663 
-0.1109705942020845 
1.592421940838085e-019 
0 
0 
0 
0 
0 
0 
0 
-0.8048470938823146 
2.660736390044248 
-1.068090760998395 
-0.2305847911594396 
-0.5368247597232838 
-0.5820618191334064 
-0.4438959671065609 
-0.1821357468126541 
0.3215511822924733 
-1.333455393767082 
-0.7394531926579342 
1.424648103939043 
1.551268096352419 
-0.1873757026109668 
-0.2217153786572074 
-0.2481301306460397 
0 
0 
0 
0 
0 
0 
0 
0 
0 
0 
0 
0 
0 
0 
0 
0 
0 
0 
0.2047499046118368 
-0.919681675147508 
-0.1975148868729293 
0.7759708583195064 
0.1003565947139344 
-0.2109398280454961 
-3.089976191583688e-018 
0 
0 
0 
0 
0 
0 
0 
0 
0 
0 
0 
0 
0 
0 
0 
0 
0 
0 
0 
0 
0 
0 
0 
1.190530901275305 
-2.510569938054409 
0.9673967953434559 
0.4596221482426321 
-0.7993776535961518 
0.5330839967726354 
0.1120659514115156 
0.1704322582420701 
-0.4947039747747102 
-1.576084901090806 
-0.06942751338580679 
-0.1391187373629083 
-0.1592452772868624 
-2.034827883972443 
-1.169601041428657 
-1.32010962018601 
-2.701833497753395 
-0.4430262221635707 
0.7950110529358301 
-0.8937862220136504 
-0.3042770923785018 
0.3977607986423496 
1.608110608878403 
-1.207591282630979 
-0.039648597593367 
1.02027391847492 
-1.72272356085656 
0.6352247799049958 
0.9258171351224365 
2.346017124452945 
-0.879151313526463 
-0.2204272280687076 
-0.2757227449014376 
-0.2987944186569289 
-0.2443175361692102 
0.3890670945239528 
0.04722234861926147 
0.4141823843320572 
0.6371575334959119 
-0.8637735250087097 
-0.3258018558866796 
-0.05431971070789683 
-1.657462808612587 
-0.4199775215129843 
-0.6071279372454949 
-0.749717549641606 
-0.8076394859228057 
-0.2347296625859265 
-0.5914873506925633 
-0.9908948178139552 
0.2980263854453896 
0.9689537063403921 
0.3149266099780504 
0.7636697478766207 
3.126750539550372 
0.7024821689478124 
-0.886352201376697 
-0.2828861835539918 
-0.636573591726704 
-2.706525411228734 
-0.4035883152442056 
4.340302376573992 
-1.356879867868888 
-0.1040535610159542 
1.06614579286106 
0.0452675424357861 
0.5816127833535071 
0.3194402776294195 
-0.5310090879466737 
0.1852158740243391 
-1.31431331361585 
1.175904396876032 
-0.3960985571987054 
-1.512736095448843 
0.5392935974863019 
0.9588437725847739 
0.1097121631421139 
-0.3312579812455126 
-1.339062200357468 
0.1369746177670277 
0 
0 
1.8581861127111 
0.5253119054879415 
-1.902663544179039 
-1.391271317930672 
-0.7577477781812296 
-0.1793451691299117 
2.117582368135751e-020 
0 
0 
0 
0 
0 
0 
0 
-0.5852537690168161 
0.6574621274492574 
-0.197744627063919 
-0.4474802649832371 
0.2225806657174051 
0.1024261818481364 
-2.940812314554856 
0.03947129762724237 
1.023954549494705 
-0.5799011504906166 
-0.5844148174777947 
1.870693109471179 
0.01360317605705384 
-4.675923080226802 
0.408861726408093 
-1.173084353626482 
0 
0 
0 
0 
0 
0 
0 
0 
0 
0 
0 
0 
0 
0 
0 
0 
0 
0 
-0.4781841957138947 
-0.1455812737062549 
0.3787434437311846 
-0.245421380856893 
-0.366238115696553 
-1.218758456180653 
7.806255641895632e-018 
0 
0 
0 
0 
0 
0 
0 
0 
0 
0 
0 
0 
0 
0 
0 
0 
0 
0 
0 
0 
0 
0 
0 
0 
0 
0 
0 
0 
0 
0 
0 
0 
0 
0 
0 
0 
0 
0 
0 
0 
0 
0 
0 
0 
0 
0 
0 
0 
0 
0 
0 
0 
0 
0 
0 
0.6821292859749613 
