solver_type L2R_L2LOSS_SVC_DUAL
nr_class 2
label 1 -1
nr_feature 576
bias 1
w
-0.08853240879566006 
0.2391754605528359 
0.1985006866081098 
0.01214771416739428 
0.02871713375523768 
-0.002776177619487756 
-0.03267363844662818 
0.28282701033432 
0.4245595434849431 
0.3429737132687483 
0.1704647671914544 
0.350188094145208 
-0.1055640846597381 
-0.01225133151434869 
-0.5844189467725522 
-0.2027829431758315 
0.3924017765971468 
0.04322352815682114 
0.2192896033460391 
0.3055730876416157 
0.02119380083081522 
0.3532691555650169 
-0.1547254822633425 
-0.1223824229329284 
-0.1074155121767033 
0.05360733063730493 
0.09754340756903952 
0.7985827101197649 
0.2778063207240554 
0.2888269274044289 
0.5663313567134093 
-0.1809898208628195 
0.2829662273458387 
-0.03264137447875257 
-0.166530931730956 
0.5656983187650987 
0.4517017464093995 
0.2169925819959812 
0.1008921007519984 
-0.1651377227922875 
-0.4998074651698278 
-0.3515133975420955 
-0.127474238003024 
-0.08977125002115671 
-0.5939092022333852 
0.005703502287691131 
0.3600365042759182 
0.2223386904849395 
0.1836268052709633 
0.2783466060996208 
0.2409431902604876 
-0.02294560789131358 
-0.0144214746932922 
-0.1198904275755443 
-0.675585621783192 
0.3898850227201156 
-0.3945061615153204 
0.32988890162981 
0.02386210048690202 
-0.2670511216570005 
-0.5570960645617853 
-0.550450284878238 
0.2775141412722125 
-0.8719141143329005 
0.7423969155862469 
-0.7646185313222977 
-0.2072476621814388 
-0.5521436466435439 
-0.1881034118109283 
-0.2604852839084583 
0.3848820985312086 
0.1206317046059905 
-0.05606797712612682 
-0.7636211513548012 
-0.3193440022720971 
-1.274624249508881 
0.04715825341590488 
-0.2544889904651753 
-0.6139768990182395 
0.721207642897487 
0.004736473908396334 
0.1271178128480298 
0.5665443686700411 
0.39318650871159 
-0.4300291975601772 
1.248980366535598 
0.7504798534547816 
-0.03256490482211565 
0.1392121276144014 
0.5213295532220543 
-0.7947637023369636 
-0.4465069145736554 
-0.2035378192576056 
-0.1829720047716777 
-0.274958146049052 
-0.3670257707794212 
-0.3637836189883095 
-0.6093832940690864 
-0.473009955264722 
0.254823467314336 
-0.1866961710566481 
-0.1986475606162556 
-0.6788492766605516 
-0.9642749075371518 
-0.6792785630319093 
-1.413809789083991 
0.2285326213906038 
0.05784638345594668 
0.4860617959815987 
0.02640599156067561 
0.1854354386442463 
0.4687213181913843 
-0.322211448058043 
-0.8463562714066955 
0.1544582058849183 
-0.2562016291321023 
-0.07225360520044036 
-0.02837015403493744 
-0.175348130799388 
0.5295035633061254 
0.8273093064704447 
0.1266361094868859 
0.974645672971545 
0.6767591337445866 
1.155076683668836 
0.1450525123772267 
-0.6936161832875809 
-0.9976573398731877 
-0.4134886848258767 
-0.2529630151617311 
-1.084017269442611 
0.3571443432935217 
0.341249629998527 
-0.9540461870947321 
-0.2462673756462964 
0.430611404882719 
0.260872769314078 
-0.2612656428324613 
0.7549677933143255 
0.1476475284086529 
0.01529765641808193 
0.3328955474908911 
0.09508680252496735 
-0.9111281524939329 
-0.256003228432288 
-0.5633179833618498 
-0.5772139552437692 
-0.442668513656272 
-0.08300610912678856 
-0.8438380351854564 
-0.3135635212255324 
-0.3829539265193771 
-1.454987213629372 
-1.114958167615671 
0.1445055771109617 
-0.1319564703647619 
-0.115620146370493 
0.1366206152150285 
-0.6726342054768275 
-0.08821289738961896 
0.7855066716390765 
0.602894574084309 
0.5558198097248036 
0.9248180020099186 
0.5971075666975778 
-0.0626307328476837 
0.4455898218647728 
0.3986566177688337 
0.1044140169260071 
-0.08377186218650128 
-0.5166697612863201 
0.3751906760258585 
-0.1118407158994675 
-0.4641581158805628 
0.776695834836991 
0.4012309037644196 
0.2889961559814735 
-0.3208479322344772 
0.1234982000590448 
0.5471674543682822 
-0.07928781643880145 
0.05571390204164324 
0.3471979455424346 
0.02739569527522425 
-0.3112710792078491 
0.1852283013718336 
-0.6277914638598683 
-0.2764508784420637 
-0.5392462042147754 
0.3626783820929369 
-0.05115110121124055 
0.9752784440934721 
-0.4072230643009071 
-0.01376681519300036 
0.2219708514440707 
-0.585691614009894 
-0.02333001229382267 
-0.3329833813891956 
-0.2812154054092213 
0.3220605627362545 
0.86219055177188 
0.761427619438526 
0.2752217875953303 
0.3222010215601652 
0.7781089807759659 
-0.271577793258703 
-0.6841962989849895 
0.08524232132411215 
0.485673563681563 
-0.2704134485546918 
-0.4267622665490278 
-0.236693290302766 
-0.04595419889024179 
-0.2028999262820956 
0.6949362603832758 
-0.369675224417208 
0.4978721325519081 
0.1166336143159754 
-0.849193037724428 
0.4837897440141715 
0.126398152012832 
0.6661196872807185 
-0.8099604083630626 
-0.09197282810524575 
-0.4803715895931429 
-0.3958353036976163 
0.3691766041495994 
-0.2379114583270813 
0.3706244306597442 
0.5240831527892227 
-0.4073793466543056 
0.7954979816546467 
-0.4663104741343974 
0.246904590823426 
0.3300162505806005 
0.3360307789384865 
-0.4354159938436417 
0.7070031404205024 
0.5041998485785012 
-0.02969216213012207 
0.828626561326299 
-0.3843052435686078 
0.1128288251762364 
-0.3351021178722424 
0.4207365562039553 
-0.1706737081884487 
-0.2709886457664507 
-0.2130847705558017 
-1.749366935744731 
0.142258229791894 
0.7160259512239098 
-0.7314720423986398 
-0.3041831369806564 
-0.4029110480534306 
-0.1731344492084846 
-0.02031000785477165 
-0.2746525968433617 
0.2495990298762729 
0.6470087689934315 
-0.01606562427403081 
-0.2692703180107063 
0.3333616719427155 
0.3258466135044131 
0.4664870138956189 
0.207615223556921 
0.3484590799267199 
0.6266455831942811 
-0.06890928047217718 
0.3357832854042608 
0.03524799510477468 
0.4927975320128342 
0.4118801729980582 
-1.113542559979806 
0.9118038718986353 
-0.8469495289111345 
-1.328504304994716 
-1.715507101130178 
-0.3882877812112623 
0.7675646051509338 
0.097564588086164 
-0.09573507706694573 
0.1535053656705452 
-0.2509877386006779 
-0.1957671114534776 
-0.1215095133652584 
0.4079456048326917 
0.3050150676798898 
0.2504914848347581 
-0.8117609993248368 
0.1362897686366658 
-0.7244535996059893 
0.253372053451037 
-0.2434737011926886 
-0.9181839243402515 
0.402759496397293 
0.3608260283403445 
0.8782613152675028 
0.1473720015325142 
-0.6736447194616707 
-0.2379783610649796 
0.2197884165620016 
0.878884393515988 
0.51001211577731 
0.07686841071846083 
0.557754927804335 
1.103989427186849 
0.7896128155973566 
0.2948363484551687 
-0.8690130249560563 
-0.5625194029610096 
-0.02778581877371157 
-0.3174327525555764 
0.9609312631781114 
0.4049784735274032 
0.3428237412982029 
-0.282480759253348 
-1.022744732987851 
0.4400955013961908 
-1.023880237161271 
-0.1354001574131922 
0.4286215027653306 
-0.7054554255542963 
0.0006300742623857089 
-0.0710261302036069 
0.8874628652862612 
0.7120506872775031 
-0.5528424527219958 
-0.4322741464596825 
-0.6803883921727199 
-0.01078781594395096 
-0.05838540230308748 
-0.8689610255803163 
-1.278239977179619 
0.4695667877054263 
-0.3529769936166949 
0.5012963983018909 
-0.6418256383469019 
0.0931699123093814 
0.3267050111915473 
-1.044947849355735 
0.6275764802674595 
-0.226742457766011 
-0.1446032073769696 
0.9143494564155292 
0.5958333188975047 
-0.3550721376472394 
0.4272287016149516 
-0.7779297407546784 
-0.2066718334979797 
-0.1045793180707548 
-0.006185249142945202 
-0.8793167435728779 
-0.5172869668722131 
-0.2082627463395741 
0.40427724065985 
0.5344772605641631 
0.2239804607217897 
0.9139923974206203 
0.9057632454851875 
0.8574854572475937 
-0.1918030029958016 
-0.4080792327663688 
0.6620360914454612 
0.6380128350245392 
0.8589027199590333 
-0.9395830514842096 
0.463031301847651 
-0.642059948246962 
0.104971313396555 
1.17533309339211 
-0.3192439307961869 
0.4529110853911201 
-0.03659597666648699 
0.7422719231141866 
-0.5674684971180404 
0.1750258377990454 
-0.02239441448462876 
0.2819521579126207 
0.4364349971661866 
-0.6076398468501517 
0.290571609058136 
0.6478058661827598 
0.3496230454945816 
0.6309763233727139 
0.3480625908577273 
-0.02843041787476849 
-0.6313895189538221 
-0.07365172045215825 
-0.3493140232131639 
-0.4152895676370365 
0.3537210250456853 
-0.1220320351511803 
1.085919399239089 
0.5290981543218086 
0.2460271755826015 
0.08483653742439047 
0.419679920818979 
-0.4094510276996299 
-0.5602312207956263 
-0.8515856983938932 
-0.004253090690044141 
-0.004990049851381827 
0.2639595486815666 
0.7090851069507674 
0.1261441501004712 
-0.008327411708721729 
-0.04298816238433177 
-0.07023487510242277 
0.5706610861186839 
0.5031634016350998 
0.06250433468713952 
0.7048340141402583 
0.8969281349669169 
-0.202683728863674 
-0.007537106873081977 
0.5852599784715178 
-0.2667252669007314 
0.2878929914393968 
0.2920474964764491 
0.2481378027665709 
0.109396557215257 
0.04219078248699421 
0.5000261950099488 
0.3305261038603506 
0.3991461606728828 
0.08046444614792701 
0.05729017795617596 
-0.38415771579306 
-1.005113564255812 
-0.2776423864071647 
-1.568784791091295 
-0.8849899420406775 
0.7871850977089749 
0.5586507706299144 
-0.0186090783439745 
0.5908419454727081 
-0.3555340052709746 
-0.07628982078819613 
-0.296517322725402 
-0.6490348700012651 
-1.136827441269044 
0.1733579921730713 
0.08827419211703258 
0.865184823201698 
0.1007737298332174 
0.136692484553529 
0.3936951736787021 
0.152466332603738 
-0.8434134784535663 
-0.1677396514279139 
0.09017264056531395 
-0.2232893301866847 
-0.3511440682857601 
0.7754903175932498 
-0.08816909370228501 
0.07357058164223487 
0.2381482700324467 
-0.4271574214469016 
0.00292239140646674 
0.5238502028372658 
-0.3157736791898437 
0.5724619877367303 
0.3908606961051827 
-0.6110464867751536 
0.2157775759485188 
-0.5681418680044257 
-0.4943763084629456 
-0.5852493730330005 
0.3301657835957388 
-0.6719458531680843 
-0.4333401070168202 
-0.7743976523244048 
-0.4279871903706355 
0.09914476845465459 
0.1985026551152341 
0.8328026540983137 
0.2181856409376145 
0.4188657649861524 
1.315372673129823 
1.002910346744158 
-0.254373941176259 
-0.2388126341920341 
0.2972530336857828 
-0.07125193857032382 
1.102929686990209 
0.9875847569277735 
0.7568215705934527 
1.262842435893097 
1.008555468239093 
-0.6232801903879077 
-0.2740280175398653 
-1.199602927262936 
-0.658287326666454 
-0.6084676704583033 
-0.4097188408484678 
-0.1709171867940071 
-0.1882087750708055 
-0.1127664330529391 
-0.1259627627028586 
-0.01782974430164937 
-0.02066784241549407 
-0.04041917621491865 
0.4955964025416584 
-0.8930656736471058 
-1.281797369125635 
-0.8520687652678882 
-0.685755841687296 
-0.4386583979983004 
-0.6642008709502767 
-0.09869480651869721 
-0.4419867062145481 
-0.282233256767886 
0.8324776719363436 
0.572121399533256 
0.03550365776257135 
-0.123086478779847 
0.2010602314187514 
0.002026478366990685 
-0.7806393124071224 
-0.7062518838320072 
-0.4528989004569793 
-0.2982675394460089 
-0.5843817501739844 
-0.897513038526363 
0.6198447874940269 
0.9308500113263079 
0.1096082661319505 
0.631375061209056 
0.044745123746427 
-0.9907202672119903 
0.02599564695917971 
-0.5113086246583217 
-0.6594771670258149 
0.06887993040626252 
0.01268356670481806 
-0.8268497998573033 
0.3725193704439367 
0.1901055100448705 
0.141592803338483 
0.8154893238687819 
0.2220947428839125 
-0.2083406672492033 
0.05289331646678711 
-0.2468648787275636 
0.03426344698769585 
-0.3662453823580917 
0.1459761740665521 
-0.1755447901562571 
-0.2959734242885289 
-0.0134385376190567 
-0.6022480813521081 
0.5404643408604021 
0.6214364610594736 
-0.1762345819899777 
-0.1331986757590761 
-0.4729929129938311 
0.04729362472507639 
-0.268278223722994 
-0.06520122859296391 
-0.04516199301688379 
0.6701133769364388 
0.2550649322958999 
-0.2716999610892287 
-0.1991066957669385 
0.3022694531749922 
0.06161746239515926 
0.1695812298326196 
-0.1618477199376085 
-0.4627961614406788 
-0.1960131964374609 
-0.4445725435718647 
-0.10743178155229 
-0.07050275782191155 
-0.1743022343069538 
0.2152947289302027 
0.2612179992363394 
-1.752075595222484 
