solver_type L2R_L2LOSS_SVC_DUAL
nr_class 2
label 1 -1
nr_feature 576
bias 1
w
0.2155551388818918 
0.4231056844465271 
0.3026984979966985 
0.3372209453873697 
-0.07123955350519046 
0.03457227885620198 
0.4374936967924732 
0.4965491732651929 
0.1497653445096713 
0.07988027288338384 
0.1326678627874334 
0.6036268996649183 
-0.6175808446678577 
-0.1576840388672215 
-0.4132786023111761 
-0.04495933680251597 
0.2466948355355236 
0.320959674353317 
0.04960190290101495 
-0.6585046669650143 
-0.5423661538100613 
-0.300725209987962 
-0.419229583921518 
-0.2500041171554435 
0.1691826300325015 
0.1885103763407349 
0.1487361085997879 
-0.3816895754487024 
0.2774586810706968 
0.3948898836628873 
0.7174501098392304 
0.4804017898927602 
-0.1472051018183027 
-0.1139104923897008 
0.07301443612872675 
-0.9765226400812815 
0.06707298190086244 
-0.5073968266123418 
0.5075813203603047 
-0.04310069741314269 
-0.6493763528184201 
-0.6920983545054144 
-0.4605368529913265 
0.5669665448008678 
-0.6297391691945031 
0.6818996927860387 
-0.2792382639292281 
-0.6399755839278479 
0.131964071299035 
-0.3399037260038665 
0.9818884789570894 
1.066580491420065 
1.153550290517481 
1.069627668756253 
0.4817409395565831 
-0.8903480642309374 
0.7301639905104511 
0.3203545477701013 
0.5542362673705104 
0.4181156038100758 
-0.5299332692596774 
0.3084783007739672 
-0.3551282562056446 
0.4165888614223826 
-0.113775895302359 
-0.49916678531602 
-0.2314602868996523 
0.7494599420176081 
0.06161371952409546 
-0.2619173491856048 
0.08790477286251903 
0.1184716279229014 
0.1118704564022126 
0.2817975295295631 
0.5344257344760109 
0.5300752141172515 
-0.3739318097591322 
-0.1925832736882466 
-0.2007641730443753 
-0.3120199634383479 
0.2052429650978888 
0.03866533704680143 
-0.7904610222175823 
0.4850705665058238 
-0.1940071423375356 
-0.2570558407265687 
0.03551991152314053 
-0.4132844464503059 
-0.6844636855116062 
-0.5280574571788653 
-0.8753820419335813 
0.8611076492446982 
0.1927883289207443 
0.1456590742615003 
-0.3562776391954167 
0.2950775298972073 
0.2417176203008693 
0.3760727834246345 
-0.3379771267656579 
0.01826538645511339 
-0.06841735634542913 
-0.345551728912399 
-0.4048678494370872 
0.7406160751010523 
-0.6116883840433377 
-0.4169144735637084 
-0.683555494017196 
0.1962507659681592 
-0.1902127266391699 
0.01973423550193602 
-0.3430178839049686 
-0.3166403207472794 
0.259540503893377 
0.1108384939435691 
0.5684956392007292 
-0.3478902093974202 
-0.7692532575878726 
0.2739264869408972 
-0.9659605940730975 
0.681902691224802 
-0.3762844353624965 
-0.4455085681134813 
0.1406933554258094 
-0.6456121131048963 
-1.321600035774949 
0.1376188783368454 
-0.3750654006284412 
1.065184994826538 
0.1223116146188252 
0.5312666924696555 
0.6592541132002761 
-0.4158993129822438 
0.1862188250486648 
0.2215561067114218 
0.1489068364396244 
0.3495978296219683 
0.2416242904110508 
-0.2831758893318617 
0.4469537831895151 
-0.5031753553826135 
-0.370969346392636 
0.07886774907355862 
0.6637589197920774 
0.009468607895832924 
0.002033276323041636 
-0.6407105753063963 
-0.2054418491420665 
-0.7411948122956508 
0.1593694185351919 
0.08554678274875478 
0.06919635561062053 
0.03952540059378681 
0.3839418761742964 
0.1645955226724862 
0.1067144269758616 
0.2194905930021371 
0.3422911011878577 
0.4554512698662036 
0.198279001190858 
0.4012430653902367 
-0.1240594276870544 
0.06599271650277744 
-0.097304060199375 
0.3096091100588535 
0.5621587899194119 
0.5366938996559567 
0.3135238905268856 
-0.6142009452692242 
-0.4931927765343643 
0.2690193446363953 
0.6397956176342617 
0.09240625333865829 
1.388851588153173 
0.2484982947549109 
0.6204760247984696 
0.2245072299887093 
-0.3526087135428078 
-0.2574613436074465 
-0.1598410170249983 
0.4115786635246729 
-0.2345871567412712 
-0.07769819657154503 
-0.06412348561096806 
-0.80705084109798 
0.4395554500692189 
-0.5570214003754932 
0.2069495645402496 
-0.6826598922662636 
-0.1302120819313914 
0.2864801188768197 
0.1327020151968699 
-0.7261720209714507 
-0.6288244502251209 
-0.5177593968138085 
-0.7668237499457209 
0.6630547880453965 
-0.3134509457035174 
0.7396412387595645 
-0.1996838016014811 
-0.5168516476405337 
0.06042395926403976 
0.2739350073722436 
0.7376590684933173 
-1.326638275578079 
0.09897576877942241 
-0.7462293256488144 
-0.9959819862100322 
0.2227929382122613 
-1.061527012147816 
0.9690688903286512 
-0.9540851492184354 
-1.202887341863145 
-0.8005779938434228 
0.3762138499626797 
-0.0942471073609957 
-1.109416487358393 
-1.21100033368471 
-0.2438568440961738 
-0.2923557450531106 
-1.055174917289172 
0.5607017380616162 
0.6347841250790086 
0.1124905201277907 
-0.1826368963043457 
0.1287429471260053 
-0.1138723394087205 
0.1670858297634832 
-0.776668946961171 
-0.2435074983068845 
-0.7595615139264228 
1.075430025430073 
0.1396032717842673 
-0.7272405032699224 
-0.2766614572055172 
-0.2096051166398167 
0.7851113977497285 
0.4380029868807847 
-0.3996335539514043 
0.3714082236204594 
0.6206260043732228 
0.4809653829600586 
-0.04093664301547895 
-0.1739778942407393 
0.04280297042736934 
-1.103455940909057 
-0.677790778054492 
-0.3564798195985686 
-1.016405288489388 
0.1263161211925873 
0.3949633289342089 
0.8968220113354158 
-0.5596641126449914 
-0.358677418566315 
-0.2775409458570123 
0.2630298991877073 
0.4530819286168478 
0.4158289138320613 
-0.5320382301556904 
0.8755361954783743 
0.2970552286650662 
0.3700645035024971 
-1.367821150842894 
-0.1312145834312319 
0.9763284118166345 
0.5631055655472759 
0.1722838981677305 
0.333607780182949 
0.233973602323571 
0.4540009944266432 
-0.645129739393462 
0.8331068794566283 
-0.07684888069528591 
0.5043796963397113 
0.8602337576568049 
0.872819470471261 
-0.5051653164376928 
0.1481883282024289 
-0.6486701928741426 
1.749466414838444 
-0.9003702305780597 
0.3619320138167178 
0.05549182663079834 
0.1245179749203399 
1.156007197112715 
0.4350419451582352 
0.8654619405341022 
0.3389826267929801 
-0.9614745313846349 
-0.07543224553051672 
-0.4821476742202735 
0.2426648184647542 
-0.4347540804227245 
-0.08837551787491917 
0.3871863643995476 
0.2179867568572029 
0.1539053576881351 
0.1966333687283644 
-0.487806535644026 
-0.8550984309432061 
-0.2418534427861472 
0.2815765625127559 
0.2629878032247694 
0.1380117842020788 
0.2191672570484988 
0.6062461232788905 
0.4614839329269423 
-0.47269136132857 
-0.01720723708000101 
-0.3974683735389914 
-0.7165861007902914 
-0.6425365619909814 
0.09100000663528074 
0.2324419128934195 
0.5173201986267672 
-1.120996925588647 
-0.2393074934357247 
0.03122957261408327 
-0.3858450371825085 
0.0294465610806022 
-0.8509456795025839 
-0.6196780415753603 
-0.4617319576047684 
-0.7145447099153703 
0.2628641193007567 
-0.2788779710845308 
-0.3031753356407939 
-0.7480584824832437 
0.425072757102856 
-0.02124154686808776 
-0.1826507230744601 
-0.674282153599241 
-0.07208982168411361 
-0.08327866104828216 
-0.9151257225409903 
-0.2583244954890132 
-0.8159607460349698 
-0.198342674760492 
0.1985101498051046 
-0.1691067576749982 
-0.5009525725174892 
-0.2532678885896008 
0.1561245876914027 
-0.7258126658696145 
0.1199213520850342 
-0.4004563513536383 
0.6598064076657537 
-0.3301207526648727 
0.3244040379471873 
-0.3688669551799842 
-0.7487267132144213 
-0.4901095879740092 
0.01823418744664449 
-0.4665689439763164 
-0.8916797044453296 
-1.087455413911136 
-0.07465989267965545 
0.6492632285611648 
-0.5444190404240383 
0.8915518971839713 
-0.5302742613947548 
-0.3684534644288365 
-0.8150729084345444 
0.1738058006577593 
0.1320308500336485 
0.6945262233525792 
-0.08706009484338352 
-0.1862448927979045 
0.6011917051399204 
-0.2645878354090363 
0.5880846005058893 
0.2862979262576075 
0.145852300499998 
0.3078647856469622 
0.630665582173823 
-0.1283316471990607 
-0.2755222981347014 
0.5313159716697699 
-0.4213056484031886 
0.001855922914292889 
-0.01931616692399576 
0.07496195307371599 
0.5016187857760613 
0.9996154811720337 
-0.1082894351346141 
0.1365409136144459 
0.4234709454142397 
0.3531960877848955 
-0.08617239823283031 
0.1484559054297316 
0.8110370414217264 
-0.8677988083439707 
0.9851587402658694 
0.9104818679059651 
-0.1439604198317631 
0.5164238505501603 
-0.9307041633984104 
-0.1966816956833665 
0.4462553552861543 
0.4461372440785015 
-0.05613535779085577 
-0.2695046607331806 
0.8426861893006726 
-0.7832636719320522 
-0.03962007462784657 
0.1710041930804788 
-0.04704312918072812 
0.150725987267134 
0.4941505505262159 
0.8342615236938796 
-0.3672563330615736 
-0.5071634139365729 
-0.3926963234281403 
-0.8239849944961578 
-0.3610112815911618 
-0.09983838782315925 
-0.1621784182127432 
0.5645721517100255 
0.3384548426427496 
0.1167187823916874 
-0.5084078329552527 
0.3127040493803101 
0.2279016751642644 
-0.6282333534217728 
-1.566001139886473 
-0.04124503414489068 
-0.07459001282151921 
-0.09841308154855784 
-0.1581239916438131 
-0.3972228861256014 
0.2142121144218059 
0.2742077121431009 
0.7972838176839321 
-0.04409618008638937 
0.0564846790616862 
-0.3283129147957959 
0.1049568278898206 
-0.4099627266656918 
-0.9516714377863842 
-0.5016415134776202 
-0.01631615022851621 
1.361499338559655 
0.4349912580152455 
0.8818537107361173 
0.3279069114387988 
0.05686982023215532 
0.03355289895519823 
-0.3172710128063945 
0.6709861129562643 
-0.02253995225879251 
0.177722156696687 
0.8641703826574004 
-0.733063486764914 
-0.1676846575215621 
-0.2340007735175484 
-0.3722098333169662 
0.3577911849766738 
-0.810079431082484 
0.838257258182194 
0.3468072685663999 
0.3539648362140897 
-0.1733245729611141 
-0.2345256511057246 
-0.341195416829983 
-0.5008796041796261 
-0.7603274042169245 
-0.2732387833971182 
-0.1674074706750982 
0.2425813926144552 
-0.3117561581516079 
0.9564818896702496 
-0.6465244991893185 
0.1384811510265502 
0.1862169742507814 
-0.1121707152557338 
-0.7847035823549963 
-0.1413687677782449 
-0.3332222662524088 
-0.187258163209825 
0.1749154157835204 
-0.1706021707360087 
0.2998419620293424 
-0.1515765599625607 
0.6350831601341613 
-0.1579148751648775 
0.6259831170708797 
1.127141683467684 
0.7637183165353128 
0.7288522140853119 
-0.5783892657464682 
-0.02052962893452801 
-0.0389245021278976 
0.5547692385949353 
0.2935464374848205 
0.03950624027251701 
0.6457503704383912 
-0.8318459294318703 
-1.252069488302011 
-0.6186751985899397 
0.006958420732694566 
-0.186253569773018 
-0.3203551335324885 
0.04004127103250033 
-0.4580672984083667 
-0.4120846749242643 
0.320769479987096 
0.1207149594381127 
-0.3657455474521492 
0.2811019201955642 
0.02666263865707026 
0.5848561229345405 
0.9174872946271486 
-0.2408115844293615 
0.372883796248872 
0.2141689021388892 
0.131447052932665 
-0.03712391040815222 
-0.6548484286081645 
0.3457180346781278 
0.5716101243805376 
0.4873033305323773 
-0.6205109790809886 
-0.1447170085331825 
1.208898900808862 
-0.161977115078462 
-0.05318717340008239 
0.0911487591031486 
-0.337063530706003 
0.2470069547136423 
0.7706955664956311 
0.4226536872421427 
0.3014241458459093 
-0.6156078741282401 
-0.3030540588006883 
-0.5060153282459609 
-0.1561896076756258 
0.5506615964649286 
0.697061403059317 
0.9039003996349537 
-0.7257678337443465 
-0.2940835674499092 
-0.5545266449011811 
-0.657887620259042 
-0.56755689687591 
0.1652976467087813 
1.061865057457905 
0.809107766374307 
0.2779540824647069 
0.07857900472349989 
0.6152982242204802 
0.5411413247022244 
0.4573271287727329 
0.8359384527984476 
0.03818847131113429 
-0.07041505363792461 
-0.01832424252905707 
-0.4327187144562634 
-0.09756673897742109 
0.1799292363537468 
-0.8799966455515903 
0.6451093100778261 
0.04960085999308909 
-0.07257864777780468 
0.5868651840857952 
-0.2839292221275835 
0.360763713833483 
-0.4773580679225036 
-0.09014756877537748 
-0.6922651814749221 
-1.341970713622102 
-0.6097281278163923 
-0.3296069378649948 
0.1064376947369398 
-0.5613354785072658 
0.09859416711114588 
-0.03274645099151562 
0.2372936081570487 
-1.846767984908833 
