solver_type L2R_L2LOSS_SVC_DUAL
nr_class 2
label 1 -1
nr_feature 576
bias 1
w
-0.3947868625178657 
0.1835396745134592 
0.3676889472966174 
0.2925381779268647 
0.4355803985156161 
0.03949302533854814 
-0.3575692412635018 
-0.5054339453729707 
-0.2197410381855797 
-0.2289287432953362 
-0.1108370237665666 
0.1210064293845678 
-0.06273383276900015 
-0.3570728654903324 
-0.3575797776729161 
-0.2550017101965447 
0.4026962280503394 
0.3669430830947037 
0.8281010688290932 
0.9106386984972247 
-0.03617210117243766 
-0.04070139109099633 
0.4741474032030934 
0.6458369744007779 
0.1944754009306079 
-0.5472524137668281 
0.2582927931047065 
0.3102231150844365 
0.2450760854697527 
0.6364532100151975 
0.5758504748689761 
-0.3899695963715776 
-0.0445300336430707 
-0.5317663571986049 
0.1873120035024641 
0.03066383960311231 
-0.2521027760114015 
-0.1925552076032994 
-0.9968262178049455 
-0.463267945543728 
0.06216950402793593 
0.385329384066287 
-0.04763513192214535 
-0.1527429474980235 
-0.02709042684435238 
-0.6219601052997831 
0.01496692447205719 
0.07710709250276475 
0.455229729469559 
-0.4092439357812072 
-0.7564695478209084 
0.1241570617326492 
-0.8479566415401022 
0.1123187721991379 
-0.2782557306853252 
0.06442426654826992 
0.3480383477538303 
-0.02056534163308431 
-0.1974077284337446 
-0.4641113831782406 
-0.1351507996889834 
-0.7494484470340125 
-0.2025230955967215 
0.7751074996074174 
-0.5237384999437498 
-0.3660011800530579 
-0.9198609397121466 
-0.7646103961025672 
-0.06926488634642261 
0.2493822973465086 
-0.2649548754207488 
-0.2948485392146081 
-0.1721911454262404 
0.3388392496983259 
0.1796255986429422 
0.1352394233190055 
0.04364618893054594 
-0.6822756901873116 
-0.4401812277468163 
0.04636413279205166 
-0.6399145001837238 
0.1782740623580921 
-0.1189242399785499 
0.7978527039697292 
-0.01303108893276887 
0.2338263929985102 
-0.5201809900141527 
-1.201205345136628 
-0.2470439192629551 
-0.1589070113904748 
0.1540384818310154 
0.06678271916487556 
0.04468627034365084 
-0.5992793821160106 
0.1370644545093849 
-1.354234850715473 
-0.1683339078735631 
-0.716258473845956 
0.380237490577242 
-0.1813311321732426 
1.553271602666183 
-0.02125103657782195 
1.007051394844458 
-0.1616617667854818 
0.2263754359201695 
-1.027562061726762 
0.6324090966705389 
0.1533321987992628 
0.9315747191504099 
0.7562192400258254 
0.04320945620267565 
0.1722008724938406 
-0.2040082321361493 
-0.1870065619793887 
0.3088447657192548 
-0.544467339630637 
0.5206696998766336 
-0.2393447101152189 
-0.5020291184286163 
-0.5325157227755155 
0.1632091043086796 
0.372811490624945 
-0.1035021774583008 
-0.6268790036860991 
-0.3612274565352812 
0.5332510646297869 
-0.9536456192396122 
0.03273044472578765 
0.1067507391008133 
-0.2004961397157654 
0.02694471744974013 
-0.5268986766972189 
-0.5983385436471916 
-0.5379609316771546 
-0.6493046121502336 
0.1230748893509345 
-0.1679182152008338 
0.03813897307793667 
-0.1646228624378232 
-0.3381744361438787 
-0.05462536934113749 
0.3385646652738421 
-0.3707487675523137 
0.5613174723196057 
-0.874271153191462 
-0.04622128117011831 
0.4888601001233491 
0.004730755585599853 
0.3074946980839173 
0.1748462248672159 
0.3483895541672354 
0.2529020412750998 
0.1250098814579974 
0.221969129527585 
0.09648086687454864 
-0.1556227581577327 
-0.6511621023254592 
-0.05843560848307632 
0.004983286185953234 
0.4089709292808496 
0.1177548938767253 
0.6990212410902738 
0.202350696304901 
0.3466701550139225 
0.290604055515915 
0.6876571126325088 
0.3200925625487502 
0.3483958654004398 
-0.698381242010268 
0.09474011882302348 
0.1800495504434617 
-0.02804888204670937 
-0.3495187407339072 
0.3740074594045266 
1.130774824726632 
0.3170044233195282 
0.1365466998767713 
-0.9300682607237212 
0.02220432752847127 
-0.2047647719742788 
0.3704208152251255 
0.4652422712375678 
0.216545787629006 
-0.4554422395729341 
0.158740315667904 
0.05204014453245985 
0.6016654072856766 
0.7630330054467168 
0.6823454854855962 
0.4957403936834208 
1.167789331913333 
0.4333116650092092 
0.09558302740883526 
0.8070482502851571 
-0.6344930057369052 
-0.3751022046707946 
-0.2531473786176756 
-0.5552288388883326 
0.9196957598193046 
0.5187713156165235 
0.6002802553450379 
0.3190120973616376 
0.3442116684142242 
0.1067887625059988 
0.1942406388816414 
0.389689229472742 
0.05131242919408952 
-0.0355683042629811 
-0.5592770597086491 
0.5650235197446727 
-0.7861802905220527 
0.3339909612998696 
-0.415820319733486 
0.04294851097728022 
-0.4042545482476311 
-0.115755687911198 
0.1850252029631141 
0.07759459912655857 
-1.493739122635446 
0.1983895585847207 
-0.7272457126613228 
-0.3286797382098032 
0.2726417764611594 
-0.7037858563165192 
0.2611738500065737 
0.464045944428739 
0.2237534927176715 
0.4913681868595064 
-0.4361231532670493 
0.003840856004896693 
1.128563338964447 
-0.3288160753861262 
-0.2576905261340455 
-0.7774884247470876 
-0.06993035063607807 
-0.3695030040103493 
-0.9588041042200355 
0.5963426133005323 
0.6010456869179843 
-0.3006671288043902 
0.3085187811476775 
-0.3759337572560492 
0.1703918021309391 
-0.8154079635874904 
-0.8229814016197232 
-0.1578907814152504 
-0.05040193629672889 
-0.4397156549673347 
0.3576786079740613 
0.6703172300034074 
0.5974736562040475 
0.1664076820341072 
0.7177179465441819 
-0.8185854060505725 
0.3608786337633684 
0.4983224869590376 
-0.6509151887167632 
-0.09306930584845752 
-0.1085513178530299 
-0.4903408236837906 
-0.7769644818219841 
-0.3490642241544408 
-0.121724115051593 
0.14782858964963 
-1.375090052373545 
0.5829914735768903 
0.4806126935569197 
-0.03607862544447793 
0.3882793499445868 
0.4864151093415257 
-0.184648759701344 
-1.010203326134878 
-0.4434951889245167 
0.6200825251614878 
0.1438030453356564 
-0.2670078250466154 
-0.9296703319073374 
-0.3181476487465234 
0.09807539029596606 
-0.3431399372631027 
0.3061368003376717 
0.487299423989341 
-0.2283762397026404 
-0.1060875519407056 
-0.05609713326558004 
-0.8461756202137 
0.6227440878046571 
0.4139650818999039 
-0.1176959278210074 
0.1737811053840359 
0.04420007974264631 
0.7844832385362863 
1.288986096605802 
0.1983898105373412 
0.3449965527669899 
0.1890712505638884 
-0.1132009449106089 
-0.8182713296823222 
-0.5054331505683999 
-0.7150063080257798 
-0.2284167635931691 
0.6920255643986517 
-0.7718280469195418 
-0.199933067402308 
-0.1383148656342429 
0.6860943939910178 
-0.09605187543667142 
-0.1004599977852904 
0.2137361490252271 
0.1210688659968118 
-0.06876403639343276 
-1.870179940532459 
0.8970112641932995 
0.1873758208805648 
-0.5741990349011348 
-0.117244186418612 
-0.2673426793544699 
-0.6461449742997318 
-0.9698632104025222 
0.4711866030372048 
0.8399578960386005 
-0.3327942495789139 
-0.266961110821706 
0.0312320267829912 
-0.04965077448308058 
-0.05168410038602031 
-0.08466100870076376 
0.6324574901500141 
1.423651306783678 
-0.3094126252806328 
-0.09516429604075231 
0.7945578072162491 
0.6897431000148474 
-0.1116386385345534 
-0.6134229104302983 
-0.7855024767017551 
0.8766833544083528 
1.715298824753619 
0.1723216132927977 
-0.02648536663640183 
-0.6454032159345774 
-0.4094676960072133 
-0.9552683908994132 
0.4990854532137872 
0.3781000884836184 
0.2828471782880949 
-0.1116827744546037 
-0.3343922674614668 
0.06964595500241273 
-0.130346790628917 
-0.1248652800974552 
0.9284919944347487 
0.0004650415993050582 
0.1900635870355203 
0.6578963039246407 
0.2632875440902702 
0.1990443126707968 
-0.1843943835767462 
0.1397818096448648 
-0.1994227750291155 
-0.7948856078722353 
-0.07075117452882064 
0.4444618356913238 
0.1863324637834028 
-0.1922848169902633 
-0.2023412841385794 
0.03097555827091921 
-0.7045004280094849 
0.01542032795970502 
-0.2576902565106962 
0.2694172346649585 
-0.2325370102103566 
0.3936192754287296 
0.2082299815763048 
-0.3438873015384951 
-0.8197957871255405 
0.7094767142293121 
0.1010935230946032 
0.5392597151698501 
-0.1271190368243056 
0.02596985939891856 
0.3782388648856216 
0.08681655490998078 
0.2595111257810405 
0.1030979152635515 
-0.1313481170138379 
-0.06931001405646831 
-0.07775947390051131 
-0.01404525346704633 
-0.1448089734339969 
-0.7720112888929043 
0.2852429749182136 
0.5141567592352205 
0.520603251267832 
0.2446649534756285 
0.5816096634352254 
0.7870374169181591 
-0.6155122208971209 
-0.3583579204645081 
0.2740651188593385 
-0.8556190042847113 
-0.3559562980873053 
0.4923515599189445 
-0.3290818909275202 
0.7349742648805696 
0.08078969397061812 
0.365382707538109 
0.4587414188750027 
0.08856075400596183 
0.3637195637532539 
-0.3305639912163322 
0.8772419690142564 
0.5452283686359859 
0.4017598788329579 
0.724393014510936 
-0.4437967367110262 
0.2643904197883433 
0.2610598022395998 
0.1857791485814599 
0.2604257970217446 
-0.1310502096279855 
-0.1190047917077426 
0.1206235673606312 
-0.4697201776861152 
-0.2963169197396918 
-0.5266052986898726 
-0.889214325348815 
-0.9028040023850458 
-0.4013498795228729 
-0.08088854670195715 
-0.02237696227406964 
0.2942254204992441 
0.359618584615078 
0.1931154264530381 
-0.4405626663862563 
-0.3184845799287582 
-0.1591345139587844 
0.1600401717307284 
0.6151271497982029 
0.09137180588521221 
-0.2268815386735639 
-0.280186742829289 
1.173613895677554 
-0.09196575771983763 
-0.2004186148380746 
-0.1275644487335687 
0.3270833497258175 
0.1043942616006756 
0.6059147506105143 
0.9776887544793621 
-0.5073970927685719 
0.452253267892117 
-0.2677437423725232 
0.5294245400981242 
-0.5773509447112356 
0.1394728767924825 
-0.1210252316407084 
-0.538550479473101 
-0.5560853924014824 
-1.301759259825386 
-1.154079654286006 
-0.384202117911631 
-0.5235484790256962 
0.4335148942699496 
0.2394191543218808 
-0.656905389729344 
0.6213075276850806 
-0.1032808047503575 
-0.05120527328802144 
0.06703064464231584 
-0.6747670908629518 
0.5320368938555108 
-0.6609149253550963 
-0.02482844496034122 
-0.1108619971776303 
0.1440509971870961 
-0.5031783126465107 
0.3031926798404771 
0.6478503528092113 
-0.1368356855497008 
-0.1127621455341563 
-0.3194308345486759 
0.2004811129221441 
-0.08066370030376793 
-0.7965889767049142 
-0.6595526856642431 
-1.142006061805167 
0.1664666326050879 
0.4117528177670857 
0.2488962167977842 
-1.089653962944488 
-0.006716592825522714 
0.4524918333220311 
0.3738872768331628 
-0.1670854049872896 
0.1966616623482222 
-0.3955945601574217 
-0.2130846661885152 
-0.2234908039087553 
0.4955032015720578 
0.009136324869182991 
0.6795896619994071 
0.4050473134994705 
-0.4974015656936446 
0.7640519814338328 
-0.9528169570586755 
-0.0414155516218097 
0.7335466998071978 
-0.08904856126466094 
0.4613638490931371 
-0.5379190718578811 
-1.094413148090517 
0.2892201390231828 
0.1104414021123318 
-0.4147611898928083 
-0.0602670588196455 
0.2770660537447346 
0.03283646334799337 
0.3480882868330574 
0.6271285830372443 
-0.155514233527233 
-1.070564022000956 
-0.445954321944405 
-0.9027636343541844 
0.06599861252444465 
-0.1701707837173133 
-0.2158432710663564 
0.4973670154265971 
0.1330446278716125 
0.6932311473574473 
0.3418394418132998 
0.920438096115839 
0.1654989522892316 
-0.2790345113565496 
0.4314797771513067 
0.4657616894173496 
-0.6741890535631491 
-0.3502340917273348 
-0.9606062518292585 
-0.3248313723895942 
-0.4607007087272991 
-0.7345950760493498 
-0.3072529457620051 
-0.109450538792969 
0.1457158426368483 
0.1968600003331785 
0.07044812401249585 
-0.8925623103637913 
-0.3214144682362904 
-1.302085935221457 
-1.451982437873006 
-0.2648833008863314 
-0.8531741284933314 
0.4987831610918219 
0.3420954037127484 
-0.2538474105126769 
0.2422207873712811 
-0.2861185723368894 
0.7635684015461097 
1.005124244925607 
-0.6208051008091462 
-0.6204713947435468 
-0.527583141259524 
-0.6532845515495797 
-0.3281143397272344 
0.041384333198037 
-0.152628708944254 
0.1253382837943197 
0.13367411582894 
0.4647222541680027 
0.1874012007538336 
0.1811641276813589 
-0.08374648966728771 
-0.300551430892427 
-0.2760615853631817 
-0.0009193302455491725 
-1.242306651112207 
