solver_type L2R_L2LOSS_SVC_DUAL
nr_class 2
label 1 -1
nr_feature 576
bias 1
w
-0.6643634263005787 
-0.82901250389259 
-0.7930764674741078 
-0.8050833057435236 
-0.04380577809990235 
0.1365162351658653 
0.09225503794729328 
0.09029291004276858 
-0.2117113800426135 
-0.2997145243783405 
0.7154636908328543 
0.6498803306270309 
0.2982561178983249 
0.8468368967891595 
0.6244167430481916 
-0.2567201457312051 
0.1539628597039877 
-0.08769480172066409 
-0.8570336244996928 
-1.218733185007178 
-0.1649349131068836 
-0.01513838581322995 
-0.6068789252375351 
-0.7821711560315353 
0.08091754447573903 
0.1381035446864741 
-0.2791052848612019 
0.01936215237577137 
-0.07043790675572483 
0.0621306532423857 
-0.1990151065332227 
0.1216874824876374 
-0.3593243536392456 
0.05120724004599998 
-0.1367527998305154 
1.019642227726231 
0.3284182156105839 
-0.2578147767728951 
-0.03978688088775425 
-0.8766821538979265 
-0.6757755077985962 
-1.112153416631153 
-0.5660722276366353 
-0.05029810427911621 
-0.5443968751969772 
-1.13242047364165 
-0.7238720384979316 
-0.4060717678435033 
1.303807612291717 
0.7596839379373869 
0.6414290264084277 
-0.07769558691639661 
-0.6536051632774471 
-1.139587025444213 
-0.6250252430498792 
0.7233329896265887 
0.4062948232463896 
0.1168000095673785 
-0.8112372637640002 
-0.2214177120936453 
-0.1035244050857363 
1.042020536519956 
0.8522290885306112 
0.5618646342156105 
-0.1291829470846568 
-0.06166587448925275 
0.4164699740863487 
0.4529062429608141 
-0.07335652331176458 
-0.5919175326626437 
0.6024636994915897 
0.4440733302323945 
-0.02871848127684715 
-0.2750910758010253 
0.7698582119008787 
0.4502395591259736 
0.5546963609549744 
0.2402528088236033 
0.3850577097665254 
0.1805625045919711 
-0.2323242767991529 
-0.460678473905608 
0.2903528572843332 
-0.04195098158034714 
-0.07304895235153289 
-0.8397420288710557 
-1.238650701607192 
-0.4167137038106565 
0.9329113547746916 
0.9467074808038821 
0.1540605851580092 
-0.6528974897131085 
0.3020163414762976 
0.6084941272262611 
0.07039505908360813 
-0.7727602947882095 
-0.1184494046780103 
-0.5029723628395544 
0.006219409722208384 
0.1697747172840338 
0.5183377526574905 
1.764785016930196 
0.6496950712463843 
-0.6792874708960571 
-0.4742433737168711 
-0.4086575994134175 
0.5910439975447743 
0.6458750476699656 
-0.07351479501119265 
-0.6178277564193322 
-0.1517057605647505 
0.3109789307535228 
-0.1495200017366912 
0.1043500002663643 
-0.370461227323414 
-0.5900478064851424 
-0.5784500459296366 
0.08235630281238709 
-0.5123031238288963 
-1.10431957323275 
2.162665969832688 
1.500653293927535 
1.069540560444288 
0.269255108579523 
0.4219204427773874 
0.1988131297921822 
0.2384230140747617 
0.1566702276294498 
0.6355798557675347 
-0.06340385572457293 
-0.1368402181520403 
0.01427065061825135 
0.207736217586681 
0.74341124078711 
1.456152749553014 
1.226107437991605 
-0.1122115815021002 
-0.3799752951749104 
-0.03686851273852786 
0.7606411899215037 
-0.5833758722177089 
-0.9191960435910156 
0.0150545519412456 
0.6195545125543998 
-0.2375495222125456 
0.1719514196199024 
-0.2512697449083791 
-0.2106404190778152 
0.1573207484437931 
0.2388847425991167 
-0.2149084999110807 
-0.3995878472943313 
-0.3022764578661785 
0.1890786747634418 
-0.4248013703860916 
-0.009542043600144263 
-0.4177673611926449 
-0.7350791616894855 
-1.131622820213068 
0.00197459542212153 
0.6145771457250013 
0.6371911758348848 
0.1562862596482096 
1.135368802569792 
0.0704579840772447 
0.5743799808624945 
0.826211791597218 
2.113213762554141 
-0.9064729461894233 
-1.261313473262096 
-0.614166481248092 
-0.3155752968714203 
-0.0988861807307838 
0.07723974937894812 
0.01226257794557816 
0.4400626044679872 
-0.4643369826063178 
-0.4491731946915266 
-0.3393044508780678 
-0.7806544972756031 
-0.08042225826075004 
-0.4613244617786005 
-0.4635534169745121 
-1.385682649069929 
-0.9642982600887625 
0.9924392936564408 
1.10478704459252 
0.1911171199248727 
0.09608826570621001 
0.4470799281660887 
0.4348519083611298 
0.1900851145906906 
0.3907890233938831 
0.1558907476767096 
0.766420449130248 
-0.3526852217358837 
0.270250924927886 
0.6011668280267394 
0.2402069209154772 
0.3765834629549396 
0.5795688734712765 
0.6259614642745908 
0.1900977901631449 
-0.7167749633476399 
0.1989038456837531 
0.8024120501502271 
0.1369927123718927 
0.08148784234746702 
-0.2620702442104497 
0.04281249546178109 
0.4153818243309577 
-0.1337547239983589 
0.5169116829454912 
0.2875160523768608 
0.8505285587679371 
0.1523443033842801 
-0.2489353425849752 
0.1481389469365621 
-0.4110253196342822 
-0.08962191781861674 
0.4238045575644534 
0.1043896299341881 
-0.06043614318240762 
-0.3432435868050664 
0.330211442288911 
0.408665217330913 
-0.1009581096787424 
-0.1910635862589879 
-1.049349697893441 
-0.7387550234238481 
-0.438394431448897 
-0.3022843243082209 
-0.07066322252498195 
0.9653194316469811 
0.6549500397088327 
-0.158453537080934 
0.1359767036905465 
0.5416468342147315 
0.3156943982010425 
0.6626422226625648 
0.02436403921652828 
-0.2908458792506612 
-0.2026317220547184 
-0.2553667326082775 
-0.482164436075454 
0.4319713869932935 
0.8880983204802703 
-0.1511342433050301 
-0.7694482531935194 
0.3395157097107203 
-0.4510396918516217 
-0.1407840712117863 
-0.8537206247014796 
-0.5644523750417424 
0.02351526749211561 
-0.2191181302602646 
-0.3710317473669438 
0.2424136553908214 
-0.2675473944150245 
0.2854040869366913 
-0.05025765821961321 
-0.571196067071761 
-0.006762759382641073 
0.1347804651684494 
-0.2108867738225883 
-0.4559908768066114 
0.3535320595765221 
-0.4544400472029782 
-0.9376689184680102 
-1.289670201769543 
-0.3318169716658505 
-0.2081116155697639 
-0.4097791468653953 
-0.6163343991396776 
-0.7943457908212805 
-0.6279935345944812 
1.397856840857932 
0.4937170424352731 
-0.09175036038692805 
-0.3577850823366037 
-0.2433457729981088 
0.4439095380735453 
0.1704015778192977 
0.03420581726687823 
0.2097109820458587 
0.2939191446212264 
0.5560047722849159 
0.5607680409745414 
-0.4962440546766448 
-0.5395965474775788 
-0.1852237786421234 
0.6383186639161005 
-0.5290293837086217 
-1.848402112433982 
-0.5202899034765163 
0.07857978094535394 
0.5955949003469686 
0.005306630127489396 
-0.2087713168003524 
-1.033817537070289 
-0.1776819751435936 
0.2448437066603857 
0.006589316795650711 
-0.3917761083007813 
-0.9981788406840048 
-0.9620138992193468 
0.006162633696252691 
-0.8064325249046532 
0.4271216021099158 
0.2745574382359547 
-0.9705166153477167 
-0.03707354406883097 
0.1117750755427712 
-0.4920469669428628 
0.4022147859899753 
0.00209736635488485 
-0.1225140095279266 
-0.2161423706570294 
0.96855686869216 
0.04072231632759974 
0.3258713167849104 
-0.2154557911961672 
0.6037396534537454 
-0.03155293697787078 
0.007618995382988948 
-0.07255460008525667 
-0.1047432662998806 
0.1605211370448624 
0.3325193894048091 
-0.5395994113853093 
-0.2520826464361992 
0.4188402946864172 
0.4827696170480003 
0.552831649165323 
0.2618730290295729 
-0.1639042070536643 
0.9106164412832229 
0.6105417975019235 
-0.3429041059597626 
-0.3133478205390872 
-0.1407413492757483 
-0.00539728177846592 
0.3301064553839849 
0.8898422765759316 
1.138076502594915 
-0.3316556052912671 
0.05941074982129341 
0.001632654769070597 
-0.104947602886362 
-0.655984834984272 
0.02743566503461242 
0.5389865257345036 
0.8824370172801085 
0.8206911155441401 
0.2530837967363193 
0.3656366535474868 
0.1852148253865499 
-0.2829982141914936 
-0.2058062127804112 
-0.1431981250467509 
-0.08850651782985475 
0.1884983999050464 
0.02949325599628364 
1.057108325350288 
-0.6449969858795766 
0.1573487590117074 
-1.221263856092444 
-0.08360923856934294 
0.2065366215702033 
0.6065036685699755 
-0.274456904696152 
-0.06934981236794001 
0.6928824310752587 
0.02993796256392602 
-1.11259126879305 
0.009938772131971177 
-0.834042778951165 
-1.417506148021923 
0.2965291579135962 
-0.7290167437122587 
0.3243068712860869 
0.1255071329294807 
0.3314882908852475 
-0.07766117396927333 
-0.06810780632766149 
-0.1339034069746455 
0.02723910677356341 
-0.1342239894288585 
0.6277416721834264 
0.7166741405180346 
-0.04239509130890883 
-0.1568835275557072 
0.03277898863427317 
-0.2814360194901623 
0.1997728757933499 
0.6120640399116893 
0.4985208859347796 
-0.05867561331194295 
0.1165518954288528 
-0.3157431251516432 
0.1125428893925751 
0.2455604434893641 
-0.0323219118345274 
-0.8934779599194745 
0.09513139581466339 
0.278468065991707 
-0.3937192028972129 
0.1469750500877711 
0.4955426858013833 
-0.8660544547458966 
0.3215379285755021 
0.4201767001916925 
0.01201844490457899 
-0.8614322253534195 
0.07781083594499726 
-0.1241391124597307 
-0.2213537223021738 
-0.1082295245255116 
0.06609258825421907 
0.4278912947585805 
0.02870200504374879 
0.6885346850801041 
0.4799970586925678 
0.08216905826448596 
-0.3619216752575092 
0.1536508873858673 
-0.04679907583457327 
-0.09110655681427891 
-0.04589413718075143 
-0.6974119171003935 
-0.5838230841126019 
-0.5450299813935827 
0.161771051885154 
-0.1025448505253024 
-0.3310235269958009 
0.526881650205095 
0.3577358771378708 
0.1556520447626142 
-0.7942318166020803 
-1.34220299313559 
0.6410101773343001 
-0.05454000087118284 
0.1946297760909936 
0.4767479763883353 
-0.1769561714719374 
-0.4006163524230496 
-0.01131286575477605 
0.1750720908884072 
-0.2701895229805805 
0.1629897540902471 
-0.03734654823659688 
-0.144443742964974 
-0.507492597722276 
-0.1317915954079129 
-0.2038763358617904 
-0.4645927564208034 
-0.7064336319531333 
0.523283568760175 
0.535930441929922 
0.2214483922088153 
0.8096344440225157 
0.6977782276827865 
-0.4619335573752906 
0.02860972579233212 
0.4229220035140343 
-0.000964829498291579 
-1.165165873241252 
-1.090237976638561 
-0.3549524042022445 
0.2997290364830923 
0.1059495012526643 
0.1421180315220643 
-0.06581678801227611 
-0.6204068382699335 
-0.4129948948234181 
-1.076277245739593 
-0.3283763260969993 
0.2547480668559945 
-0.521079650118391 
-0.006296638657617686 
-0.02486673414972128 
0.3508779921498926 
0.1731649795788666 
-0.8057268115422545 
-0.393230501904937 
0.6248848297092179 
0.5730232380169074 
1.121126295384655 
-0.8707574895616391 
0.2867631862919804 
-0.5682155538509437 
-0.3520524250621198 
0.1206286211994578 
-0.5373422667127153 
0.2509737325076665 
-0.2978757210329657 
0.1561091211091482 
0.1004175811025842 
-0.1353575451541274 
0.289428207463433 
0.6299579767813401 
-0.37570636254397 
-0.7970597251722381 
0.1188053232971499 
-0.125420674790216 
0.2661778796361357 
0.5130534446591818 
-0.2866591584949527 
-0.7754801878495774 
-0.6784298272925521 
0.3586575427540556 
0.3477785885085469 
-0.6060628954234361 
-0.5338022945539944 
0.2569667387404093 
0.483542604705265 
-0.2993891386562602 
-0.694585834900401 
0.109365382140006 
-0.2582696278831752 
0.1086086306552077 
0.5164255930951789 
-0.008862650264936708 
0.3977494986008115 
0.2038700974132202 
-0.483785974017007 
0.2991359954316294 
0.2029707514134195 
-0.01860089057548495 
0.005187282278264207 
0.3442181427347749 
0.1362249733288919 
-0.2336481872050021 
-0.2201362009089763 
0.3489718801774002 
-0.1267212552546046 
0.2606143571291069 
0.9536387406556138 
-0.1115189710262298 
0.4733016772495806 
-0.5156033715450397 
0.1955856012229848 
0.005922521311695544 
0.04967626324765605 
0.03920416198108691 
-0.05937401358080894 
-0.1394734044580587 
-0.2622316741926636 
-0.8309190396801992 
-0.1871068142969706 
0.09140737372603382 
-0.005680484263620229 
-0.018389154998756 
-0.4069582564646317 
-0.2934401257034514 
0.3165854474751959 
0.3213518289862198 
0.1219598405435498 
-0.2962983597906067 
-0.1747843994210634 
-0.1192579770310987 
0.2966445488292233 
0.4139213110156632 
0.2933205681626543 
-0.139495989369697 
0.1338919396787825 
0.4252830631190513 
0.2154567640805489 
-0.07693907172685247 
-0.1277651861489958 
-0.1317032760725604 
0.08072032763332855 
0.4380433502695607 
0.02168455999819585 
0.04301161530287186 
-0.1215141694888015 
-1.727447050744609 
