solver_type L2R_L2LOSS_SVC_DUAL
nr_class 2
label 1 -1
nr_feature 576
bias 1
w
0.3857903622556459 
0.3858452449656966 
0.4167098588777722 
0.2903722824314907 
0.05403181071426048 
-0.3623905305625181 
-0.5155993322674943 
-0.3696914764244507 
-0.7775411812827103 
-0.2210105438431435 
-0.2882668808132952 
0.1281165129241234 
-0.2367436847185471 
0.09260989136301966 
0.2181737589201676 
0.1396177684535359 
0.2037439963183985 
0.3074338393638947 
0.03116359079930762 
0.3626271333019423 
0.04674849895278806 
0.2542545983130632 
0.4617314387746084 
0.1842114199980396 
0.04100074666560088 
0.2876570841275998 
0.4278879053989654 
0.2193713270427329 
0.395853929085867 
0.213704550766376 
0.6883786683697105 
-0.4551587775821359 
0.0137350760175014 
-0.139223280282446 
-0.7400781933636023 
-0.4019044353745133 
-0.3751560432151799 
-0.5823732570967594 
-0.668879332663094 
-0.4858398273738419 
0.02708061602297632 
-0.398730361133925 
0.08929143708811384 
-0.2412404715954099 
-0.2341431218423679 
-0.6192461046121124 
-0.4274672959759067 
-0.4157672062114364 
0.04931729752142858 
0.04853512888040005 
0.398782901065998 
0.2418613614422611 
0.3390525568429929 
0.1566916179528013 
0.07444816602049634 
0.3468909766510131 
-0.04292209776006443 
0.5764783109355141 
0.181476152913063 
0.4133528513121058 
0.276825379055435 
0.1839904678413855 
0.06871817171561583 
0.4318403436267879 
0.08970235374416008 
0.04277112460628205 
0.7594440246026972 
0.5179691030510685 
0.5940424131845964 
0.2566108133948424 
-0.6101360434646881 
0.1868625305113663 
0.4529875926183883 
-0.4002203778863038 
-1.130733329735758 
-0.5150115971188289 
-0.7531052283386637 
-1.222657491036001 
-2.184339091419545 
0.8431964655912824 
-1.598120396173532 
-3.252165716218249 
0.08722638055506413 
-0.1208592762445534 
-0.3077672347114369 
0.5702173665243346 
-0.08425294781303637 
2.620459589765703 
-0.371653258992471 
0.9475856485920143 
-0.9362132509446469 
1.184482067938574 
0.113837338981008 
1.00413956700702 
1.279048108021167 
0.6968857315319377 
-0.5602410905718888 
-1.257200556236413 
-0.7070379489631504 
-0.6167620198281603 
-0.2556849272804346 
0.1931022234929104 
-0.6663968574794705 
0.1644533466387106 
-0.8835358467064612 
-2.696407448292463 
-0.3833066872508708 
0.8878897273399702 
0.5071412466187589 
1.313019509903148 
0.7423874181491477 
0.6140610417522744 
-1.820668478827787 
2.227154215961029 
0.1323219488676161 
-0.3351891903408898 
-0.7017220307936243 
0.08806297415252908 
0.2562024698877151 
0.746528543814115 
1.484951989887273 
-0.9176584309539528 
-3.42252222363451 
-2.227687346939305 
-1.078365755441036 
2.859034660459086 
2.999802783221779 
2.93987313230301 
0.7769920319829309 
3.39956941574973 
-0.1783353582671799 
0.7537858162894546 
1.005545133851741 
0.3099934712096436 
0.6099859212388576 
-2.402395817531051 
-0.04232066530768365 
-1.794828946490421 
0.3373499250110977 
-2.517915310572801 
-1.026116859178033 
-1.904643270892503 
-1.549235114196455 
-1.249194201875798 
-2.002172429198351 
4.64946513486249 
0.4779177257631976 
1.183195008305122 
1.144885924155994 
1.349636871920596 
0.9534335110886826 
-1.906268831179525 
-1.281102586681481 
-2.083182043395525 
-3.182847983082993 
-0.8484936914165314 
1.222381822116741 
5.385648567609016 
2.722250226589271 
0.746561970520524 
-1.394295038626221 
0.4109782905436807 
-0.6622079123116559 
1.444958189614777 
-0.7951172482123009 
-0.3872444609384597 
0.4583564478808749 
1.03134611042383 
-0.9653519544924322 
3.016367146850429 
-0.3014888026440775 
-0.3416887617414819 
-0.7715903108420577 
0.03380061143927932 
-1.714218463172126 
-2.313057473478051 
0 
0 
0 
0 
-0.1173037247780067 
-2.969064109052898 
0.3562032105214127 
-0.05240477832160013 
-0.01822470621552153 
0 
0 
0 
0 
0 
0 
0 
-0.3097088926812496 
-0.04217817421148671 
1.331460716861808 
0.1191435872972937 
0.231784049257376 
0.6634349873414812 
0.5747176415211498 
0.7371773763997602 
-0.2816774212723585 
1.438305590528013 
-0.5000251855713813 
0.1880510089917075 
0.1296397120395713 
0.9811749266039578 
1.066567696486594 
0.8109870384449959 
1.37226455014288 
-0.2861740937025561 
0.4818927169818297 
-0.9523791846078086 
-0.2160380966704839 
-0.9311518346420484 
-0.02896444617773109 
-0.3313905060504701 
0.06796904839223271 
-0.3747923444900781 
-0.6641879584183594 
-0.5012043820648013 
0.3056579237392817 
0.0868030037623211 
0.4533388067808388 
-0.5209363344770436 
-0.8904766500110226 
-0.388988598737578 
0.07896775176986275 
0.6471203404997246 
1.178758025227669 
0.3198392533245534 
0.8145559797872761 
-0.7758660160787269 
-0.9036948052175399 
-1.663047444249347 
-0.6963972487276798 
-1.633082537896501 
-2.154138157952088 
-0.09713591386860322 
0.7721668409985599 
1.884741380390167 
-0.948982863717362 
-2.250137089675739 
0.7390913344823054 
-0.9860832073443168 
2.026546523329263 
0.4563082459759582 
-0.01188806979760251 
0.5296047667055684 
-0.1256608630833771 
-2.18476139196174 
-2.567956514931482 
-0.005170401786231267 
-1.078455234519722 
0.1558293134567199 
3.498186396301024 
4.175463416202818 
-0.1089447637427007 
1.67594338171524 
-0.8024881196408292 
1.158323082327302 
-0.6858090545146076 
0.08955173300694251 
0.1594029732643882 
-0.5064042877971737 
1.582641560891579 
3.18911565553863 
1.210922333695078 
-0.3915269880404879 
-0.6284104651519274 
-2.169353435961119 
-0.9389631911144276 
-0.5723564399532882 
1.056068688860807 
-3.332326330470312 
-0.853058892431005 
-0.2476472898049772 
-0.01580729492468196 
0.5429817489764259 
-0.9080064492263081 
0.5702156726045053 
-0.3910498791599179 
-0.3427142932337772 
1.253294052315289 
0.750608680116032 
-0.492198207952972 
1.005932904204027 
1.913879778819738 
1.564018301811068 
2.440338734889369 
4.907525593902294 
-0.6308588188692826 
0.3414562508296889 
-0.6759492379329607 
0.007333409849195033 
1.237608909788451 
-0.2499807703816944 
-0.3533910406973084 
3.305302158468448 
3.69311721540847 
-1.655915509556169 
-1.400633210301408 
-2.318030138455955 
-0.3549033279409191 
-2.13486463653645 
-0.113663612651512 
-0.3035663801964331 
-0.3801376171307284 
-1.564128281828357 
-3.679092209635403 
-1.436576944909983 
-0.9007712584802111 
2.739305867079393 
-0.992541684168854 
-0.2937104146513963 
0.1881476208678991 
-0.1522805735674238 
-0.00461725756046796 
-0.03911285333760073 
0.003544958302732196 
-0.02614695673777833 
1.699870198067777 
-1.608729067395144 
0.4712452065345925 
-1.280523341145877 
0.3076352568973421 
-1.012713890558219 
-0.696638483203969 
-1.765790290642792 
-0.7056449012725299 
-1.698040455799329 
0.9904730267975023 
1.257613993486906 
1.941064319856714 
-1.975073011714802 
-1.820015161612348 
-1.236208143025282 
0 
0 
0 
0 
0.2202793036852108 
1.306858183250244 
-1.509194844445493 
0.8107971365587973 
-0.0547021819530224 
0 
0 
0 
0 
0 
0 
0 
-0.7325077097125783 
1.200168806733732 
-0.6194949056453863 
-1.332853320238765 
-0.5897183379782385 
-0.2073637021306572 
0.3431147494105492 
1.48446232073609 
-1.192038479165271 
-0.3711534145891118 
0.2355431414109087 
-0.1832925877731954 
-0.01604590328900251 
-0.03694035913826022 
0.005068635352223567 
-0.03376916185024659 
0 
0 
0 
0 
0 
0 
0 
0 
0 
0 
0 
0 
0 
0 
0 
0 
-0.004381405314456357 
0.1118494984771555 
0.631195575505386 
-0.1804688609951819 
-0.6999060072889232 
0.4900712573596721 
-0.3892133299347883 
0.5092834429536117 
0.371725737749017 
1.823676240079803 
0.2239324800398556 
1.666157889834948 
1.62736087339811 
0.0873479164794376 
-1.651096638709881 
-3.404459631481652 
-1.208244272973092 
1.568760143413167 
0.9506656190042353 
0.6356351979230719 
-1.802158674300117 
-0.03712942004669633 
0.7874515326380047 
-0.838986398818677 
1.185305318103911 
-0.3010653965828555 
-1.879245608826233 
0.1479756012787603 
2.920791836586016 
0.2193995734020618 
-3.226076863479274 
1.56774062964212 
-2.160938254493136 
-1.67025967501289 
-1.730206762312114 
-0.02094248086906232 
-0.4064926884910721 
-0.4937671046177244 
0.1186816259752052 
-0.247998595660172 
-0.2580352712009262 
-0.9390573444966023 
-0.3738738607189062 
-1.144989857461975 
-1.000657671215409 
-2.202716937885895 
-0.2952000218757722 
1.80839744219194 
0 
0 
0 
0 
2.289659361460986 
-0.8315356608962734 
1.110289522466064 
-3.078129532945482 
-1.491053609410817 
0.157285317377124 
1.507718646112655e-019 
0 
0 
0 
0 
0 
0.6049041191282174 
-3.216495875838311 
0.3824599572110667 
-0.07288849584953371 
0.1698708120186511 
-0.1498833308688873 
-1.164671652296695 
0.449117798817083 
-0.7491010074005791 
-0.6010691711036799 
0.3277498205827705 
-0.515784960810705 
-0.7663912526300868 
1.099062822260498 
0.2961491335349251 
-2.17355315826314 
-0.1597175728619569 
-0.6087545816870734 
0.0744489370466308 
3.046126052223177 
2.682950013799785 
0.8205959934753914 
-0.1942466743578316 
-0.1072479736250073 
0.448140751071727 
-0.490372495269767 
0.3115227628805686 
-0.3374375881842073 
-0.008240255785707621 
-0.1006084781323571 
0.1073298631285367 
-0.05814427707816926 
0 
0 
0 
0 
0.9565211555508886 
0.6489354411940512 
-0.7986013542918042 
1.199446519096028 
-2.754521994474697 
0.3676318196315968 
2.574980159653073e-019 
0 
0 
0 
0 
0 
0 
0 
0 
0 
0 
0 
0 
0 
0 
0 
0 
0 
0 
0 
0 
0 
-1.250904190065404 
0.008504614332036552 
0.2968508864295534 
-0.4083768222910635 
-0.3127017006981559 
-0.2401173758925135 
-0.2000476257369071 
-0.2078547649616337 
-0.2248892907875006 
-1.591698682698307 
-0.2467346403024599 
-0.6674125158352195 
-0.0611826484209398 
-0.1551457919572074 
0.8404760225391929 
-0.1768938040221593 
0 
0 
0 
0 
0 
0 
0 
0 
0 
0 
0 
0 
0 
0 
0 
0 
0 
0 
0 
0 
0 
0 
0 
0 
0 
0 
0 
0 
0 
0 
0 
0 
0 
0 
0 
0 
0 
0 
0 
0 
0 
0 
0 
0 
0 
0 
0 
0 
0.4181328899826534 
