solver_type L2R_L2LOSS_SVC_DUAL
nr_class 2
label 1 -1
nr_feature 576
bias 1
w
0.07807140152869503 
0.1040901709549363 
0.5324610437164078 
0.4282700326362614 
0.01001044077056328 
-0.05778759475487855 
-0.1799086051912933 
-1.006320931786645 
-0.3798452071599425 
-0.4603248139636629 
-0.7556778044302891 
-0.2457563638533471 
-0.6574591872360859 
-0.3324959046343948 
-0.1284368989572657 
-0.1211174392312216 
-0.7635194693818043 
0.2369037491647835 
-0.4482477415061716 
0.09367518995669562 
0.5218806465786348 
-0.5202523979642516 
0.6133685012298858 
-0.3482437255855185 
0.438023137834289 
-0.06195988336179389 
-0.9522577007665219 
-0.954324787058957 
-0.6639479106522445 
-1.095902922054092 
0.349110852178798 
-0.896759607440385 
1.20894107262475 
-0.3848865752503808 
0.3232579224367638 
-0.8338796396670405 
-0.761570352784874 
-0.6015578147589225 
-0.9099523838228905 
-0.2228278631368356 
-0.3046249815041394 
0.2225290784465364 
0.07326808824951653 
-0.2735316499884058 
0.2506725413882155 
0.4517455364920262 
-0.4662769356085835 
1.013021984135409 
0.8619814020677638 
0.2437173708385106 
-0.3396496264109555 
0.7787217417720612 
0.09012431736437723 
-0.5251758305793614 
-0.3466954225812034 
0.5292726375175428 
0.6499427205068505 
0.4095650235151593 
0.4394763389916218 
1.265887648082965 
0.5979722064966165 
-0.107494244886682 
1.569157931194222 
0.7089755566954203 
-0.8780023234354834 
-0.1511392656975686 
0.03491586078265618 
-0.3610161836771898 
-1.262850836807298 
0.5098113443821076 
-0.3089726470888331 
0.5804653426134901 
0.1483641515865394 
0.4501066563145113 
1.11812494606372 
0.9264000462689666 
0.5821799324811288 
0.6632761691647575 
-0.9375919700550535 
-0.3843431842507239 
0.3202814109904097 
-1.012109967799778 
0.4543489779405411 
0.4063542809944837 
0.2774849615674182 
-1.383270722077714 
0.02033856576719329 
-0.07117214021853703 
-0.7052847879304492 
0.2072777042634782 
0.3537278779685925 
-0.349149534894835 
-0.3551274070833152 
0.4735903460085527 
-0.3240807405927284 
0.8412801403649152 
-0.9882827559672444 
-0.2950058936606469 
0.01720582281248004 
-0.3744641874816799 
0.5834734063836865 
0.6891757661218745 
1.046601466996717 
0.0358121865195185 
0.1932063533299095 
-0.1937392630813862 
-0.906184524279276 
-0.8891398204928155 
-0.6460775389195924 
-0.06178181206456215 
-0.7759302159222443 
-0.06512671589718523 
-0.09605643676488593 
-0.4733649482590613 
-0.9759372497368919 
-0.2736768207488752 
-0.1493849408692714 
0.4051410521163766 
-0.7736127877964457 
-0.7327663813238251 
-1.282050751571055 
0.2873412363915436 
-0.5802927112911464 
-0.7290271734620369 
0.2027884764864869 
-0.2881665729924179 
-0.1829930398105558 
0.07822467240058557 
0.0179550577991004 
0.7654655591873792 
-0.1765064415971792 
-0.430136680684219 
-0.2050471543736833 
0.4822137299022491 
-0.1761021740609778 
-0.2502547227813322 
0.5516656387158474 
0.3231304104834832 
0.06959393846890598 
0.5528650580301315 
0.5204500861753664 
-0.2985715883999329 
0.264252337508183 
0.1947237249197676 
-0.5137312833917312 
-0.1270161161590407 
-0.5924330038395442 
0.08991621718466572 
-0.1683612650994963 
-0.07669576243082794 
-0.08302120798628512 
-0.2295689524357175 
0.1158459181041477 
-0.05531614112467947 
-0.2103719836626539 
0.2397630278905566 
0.306137450687855 
0.2432840832997694 
0.1461565128965906 
0.3618377482923084 
-0.09152226331001767 
1.066127577900026 
0.3926723483909811 
-0.4345003885944467 
0.3377371999391726 
-0.7142857132559018 
0.1633166287507933 
-0.3957873273599423 
-0.001337801404741461 
-0.1913006270432174 
0.3934664739195428 
-0.04603208029775637 
0.318476702897141 
-0.2974774118768701 
-0.2526437622341163 
-1.322481012549759 
1.229835075203513 
0.2385291443134344 
0.4427626225166155 
-0.2355836326365999 
-0.1479794910667229 
-0.2423754058905777 
-0.2822843895559076 
-0.05907974560259533 
-0.5959651408702028 
0.7304282671223622 
-0.6553626759195359 
-0.01124988831006904 
0.4458952183468183 
-0.08345774957528547 
-0.2244546529802986 
0.5938456263809055 
-0.7604280608799758 
0.557991454688204 
-0.5779653030264482 
0.5445287686647824 
0.1534737970391917 
0.3208265851921331 
0.4697339668063016 
0.03909468295875068 
0.3924601370239582 
-0.6542494808482965 
-0.9253877985033578 
-0.1540516879263381 
-0.04545965565281467 
-0.1467895469728569 
0.8387471922944855 
-1.047225409487741 
-0.9880722235788318 
-0.753433026399061 
0.1777610045715257 
0.3917339081967738 
0.3771339227109602 
0.3369233881237282 
-0.4496085510433794 
0.1563476252216521 
-0.2557998463349498 
0.3502651178115597 
0.1994126352713111 
-0.03697487376876455 
-0.2956645305352691 
-0.9613768124412636 
-0.7200395159971809 
-1.237938378070414 
-0.05007012276696755 
0.06995057900227107 
0.5823232505534884 
0.1482206794051821 
0.0799218141721301 
0.1544176722856248 
-0.1174723215824811 
-0.1646064130322357 
-0.2437024420341173 
0.2410150864866567 
-0.01547653395241352 
1.030474694790708 
0.5671150012534164 
0.2754985109773231 
0.5708528519343221 
0.9763929790455206 
-0.4580942809301216 
-0.3534708212758757 
-0.4726313196092519 
-0.1822337756112051 
-0.3119032802536182 
0.08859808139939202 
-0.02708766161317915 
0.3942503755398523 
0.3384221643367866 
1.039529729158193 
1.066147193783592 
0.83258110455468 
1.341899879273016 
0.5439848156622155 
0.09500544412563498 
-0.5738555021374409 
0.7028934435832128 
0.7563032558677063 
0.5266704622896046 
-0.6498702266580584 
-0.3512939829363193 
0.1869544080519287 
0.006657973300774165 
0.07667371712460255 
0.4184909151822737 
-0.2673505564823672 
-0.1237633790423718 
-1.362519307853438 
-0.3478811178247094 
-0.4997868017409641 
-0.6820193760915245 
-0.5501679484870928 
1.051427716985969 
1.012634201152961 
1.566198012249304 
-0.8865800797719491 
-0.9369744239223724 
0.871523675892225 
0.7708152750103201 
0.1395681019848554 
0.5669830057129659 
-0.7303332500475186 
0.4585286032548695 
0.4421287157986656 
-0.5603671515364584 
0.01177968272093322 
0.5140062534637729 
0.5280007685613469 
-0.1097028976850375 
-0.1449314138741747 
-0.1566993620303392 
0.4491918317117045 
0.5489080475119037 
1.072838068845663 
0.9376755055052296 
-0.2173595059143996 
-1.056429229400284 
-0.3191556318187813 
-0.3459354997851055 
-0.2905897239464293 
-0.4264710953127411 
0.2606628535896928 
0.9713678858922954 
0.6770929598197994 
-0.9442684358272173 
0.01971305893759949 
-0.5342178946358174 
-0.4075778874296616 
-0.3669862680205253 
-0.5850921327219257 
0.5057990001180354 
-0.1205602764643572 
1.442020180918238 
0.5032705045019047 
0.9043794696397406 
0.2863656299973604 
0.2192124773109921 
-0.618812772841422 
-0.4938744514910273 
-0.8034356933265583 
-0.9382868385840791 
-1.511550807083078 
-0.8467107137952619 
1.321574650085846 
0.2927904800588138 
-0.2283535088861878 
-0.2262709997286516 
0.7842687994807442 
0.4453766876112 
0.351844057511755 
-0.4987761572364023 
-0.3394963378925731 
-0.5223429444177677 
0.07841569844870946 
-0.7805014150891584 
0.1895108117856786 
-0.6758768560524315 
-0.2028515651163771 
0.1726950017374304 
0.4191924143683123 
0.3995947277606805 
0.1476449116746533 
0.5518342237954559 
-0.07149876642947382 
0.4434561382924872 
-0.8948762684571583 
0.4536149679292613 
0.3283607263397819 
-0.3436079530261342 
0.4544099709389923 
0.6703375688502441 
-0.07673847939643654 
-0.2603690319778886 
-0.5563617309354229 
0.4854837204268078 
0.3915415144433322 
-0.06886599006307398 
-0.4173572682233768 
-0.6775276637467547 
0.5249868038001967 
-0.3258203233258374 
-0.7425747233665666 
-0.6101486355856397 
-0.6718336908181445 
0.2751576856588479 
0.7417427312433574 
1.559043490712045 
0.7439791877220857 
-0.1756468168421948 
0.401124232468636 
-0.1837366156673981 
1.239680734266042 
0.4159048318379917 
0.4055529083764136 
-0.4419562558315024 
-0.9454725070974986 
0.3642595622064405 
0.1729688513596391 
-0.06031918263525837 
-0.7144320219205504 
0.2669740803136251 
-0.3941962596798514 
0.06029466776349278 
0.2940352250232228 
0.3900343739465766 
0.2600475953605245 
-0.08657828753231309 
0.04053431654156753 
0.344283325691768 
-0.1000968445496969 
-0.02804099377595602 
0.01570124616225785 
-0.394830956476314 
-1.168706956216238 
-0.5600600771180029 
-1.111892268015092 
-0.03473421843491546 
0.04542888744770369 
-0.3040643317042756 
-0.4407242153475283 
0.1002912968053933 
0.2074173738260501 
0.5842365023675187 
0.3460683051783475 
0.02579364280492832 
-0.723813720082703 
-0.5676164637475173 
0.4258797303864321 
0.4322416544930982 
-0.7058003907540688 
0.343588399427225 
-0.1507389235301832 
-1.376156015411462 
-0.2302666316870096 
0.1126306495677565 
0.5576820861786287 
0.06192244290882826 
0.4886593783156181 
-0.5660015976816923 
-0.7972918060708604 
-0.6149534382502352 
0.1884844647234802 
0.1451843743762347 
0.2797053157698055 
0.101832286425847 
-0.2558854687263989 
0.283099352372472 
0.2329950993288446 
-0.0576926751820213 
0.3164689087596732 
0.2422809291127279 
0.4149310322791914 
0.1941560661373724 
-0.6051326604614892 
-0.4256736262235388 
0.5845688424269498 
-0.2185319018466117 
0.6102773542809521 
0.1050108055114363 
-0.1918204237736035 
-0.8522258810369821 
-0.02001755571584296 
-0.5459634410465938 
0.274966280096575 
0.0004348780856789682 
0.1733872092659956 
0.5159313385392496 
-0.9728641810049998 
0.9162404265028142 
0.6561611323329378 
0.3521965466149934 
-0.8329210947281058 
-0.2381727547185484 
-0.5547354074587066 
-0.1706341779760492 
-0.6248454284619639 
0.006754114382235542 
-0.3861723674033476 
-0.4852258075672573 
-0.1571058335221409 
0.7825692590760413 
-0.09734432025407454 
-0.2730027382744 
0.08058379959299922 
0.3818917444323619 
0.8145248664824631 
0.3916815573839672 
0.2580226387454956 
1.091286884434746 
0.8097036482459337 
0.2054562712592237 
-0.1146058236775033 
-0.146786203039267 
0.5673707289097372 
-0.3850129435560691 
0.4148216322311253 
-0.141817260349858 
-0.1383339523429245 
-0.1989212895694302 
-0.2487999887606519 
-0.6957607966646617 
-0.2934141256623948 
0.06958190299313893 
-1.29958688947726 
-0.3581536383109089 
-1.745587988032421 
-1.175768054274113 
-0.5632024398274191 
-0.06255804242784703 
-0.01574991734952556 
0.713842865183563 
-0.2627582422171416 
-0.05845803350220579 
-0.06426995679931079 
-0.627049787586483 
0.8588633920797364 
-0.6857512153622255 
-0.2655638783711712 
-0.1184411326208946 
-0.5444118687207861 
-0.6113923623089347 
-0.06241777785897494 
-0.5049786972687466 
0.005423128835732006 
1.121668304457253 
1.196921438397491 
-0.7128457646235391 
-0.04356699988000275 
-0.2185814955519592 
-0.4034129924470428 
-0.06607502876339556 
0.1705978081910176 
0.7395649369646142 
0.09698410454684843 
-0.1422756422825733 
0.1205022166206011 
-0.03847558857532574 
0.2492101922109381 
0.2698184894798507 
-0.1628442675826705 
-0.6397539870786017 
0.002294335942545484 
0.7032964270701108 
0.4327893813087143 
0.03991353560722414 
-0.2128685545101019 
-1.021310718490036 
-0.2259307112399783 
-0.2692593304244731 
-0.610678853316766 
0.08824829531553668 
-1.074321330970779 
-0.1106363227746744 
0.07744885815477912 
0.6292637328841174 
1.207643890365727 
-0.1889283111948714 
-0.4363630186807892 
0.3262172111924602 
0.4348364587567367 
-0.05287779416554124 
0.1717824718121614 
0.1159191371390348 
-0.5546298780652417 
0.6743089175297082 
0.1153624057305585 
0.1113546555354794 
0.3501627123695715 
0.2324546750652449 
-0.2070875542680813 
0.1089246499347657 
0.2438870531797236 
-0.6608232910043879 
-0.5910201423171027 
0.6819245417851412 
0.09837518299170338 
-0.127471771881805 
0.07040090405760509 
0.05068809159228956 
-0.3841691336452424 
-0.1058587828388439 
-0.7435932081182805 
-0.1661767108715615 
-0.07132975905348056 
-0.14605174849478 
-0.00289012213802666 
0.1561462094501121 
0.1303484789449721 
0.6107993148247802 
0.1227850627296604 
-0.2463152256335533 
-0.004311503968120074 
-0.07848200483131383 
0.2671696295157993 
0.3770479193458125 
0.01307939197584627 
-1.211091199732737 
