solver_type L2R_L2LOSS_SVC_DUAL
nr_class 2
label 1 -1
nr_feature 576
bias 1
w
0 
0 
0 
0 
0 
0 
0 
0 
0 
0 
0 
0 
0 
0 
0 
0 
0 
0 
0 
0 
0 
0 
0 
0 
0 
0 
0 
0 
0 
0 
0 
0 
-0.1458814141235429 
0.1547073266863981 
0.7119978823850854 
-0.2994187507009428 
-0.07905693783980687 
-1.190525598906153 
-0.7218181914881438 
-0.5379222745679648 
-0.4074432002141694 
-0.3446022195074027 
0.06165740574663935 
0.1175015283735273 
0.08264161654174325 
-0.1340394868660498 
0.04545137412324071 
-0.1634592805580979 
0.9848285371328027 
-0.04153006185345593 
-0.5265126419862689 
-0.4236450838273852 
-0.0946826869353755 
-0.648306011844526 
-0.2344910874546395 
-0.3514979642518777 
-0.1859667866457111 
-1.177086575317452 
-0.4949129938373124 
-0.513677649573199 
-0.4347153907734951 
-0.2229446451024442 
0.5045965248938805 
-0.06006045903410893 
0 
0 
0 
0 
0 
0 
0 
0 
0 
0 
0 
0 
0 
0 
0 
0 
0 
0 
0 
0 
0 
0 
0 
0 
0 
0 
0 
0 
0 
0 
0 
0 
-0.3652725041929574 
-0.009354782465645289 
0.4781585574753267 
-0.632706128039936 
-0.8997057804075832 
-0.07868485465154648 
-0.1352040154623558 
0.1472159918058814 
-0.1362255661589359 
-0.2782082472001898 
0.03303521218410072 
-0.01251737929777409 
0.2433939745823143 
-0.04364248994808249 
-0.06267568204601175 
0.2603655786050589 
-0.6222403902038033 
-0.8157733758566216 
-0.3177223064640551 
0.3059047206330153 
0.7039637910311637 
1.330757252455022 
0.9332848490481293 
0.08501621158561669 
0.1069352145798918 
-0.09846425152794774 
-0.3051487195801603 
-0.2873545324561751 
-0.5577395592541796 
0.4588636010904091 
-0.04410525494446622 
0.731970773564363 
0 
0 
0 
0 
0 
0 
0 
0 
0 
0 
0 
0 
0 
0 
0 
0 
0 
0 
0 
0 
0 
0 
0 
0 
0 
0 
0 
0 
0 
0 
0 
0 
0.8582858385749301 
0.05724512089580659 
-0.1413403775210335 
0.4682570852028431 
-0.781880232670253 
-0.7061709815796744 
-2.332412771358519 
-2.021758964067274 
0.455958437985752 
0.9237941490055663 
-0.2191900561933856 
0.5484729100605942 
0.800871830979786 
0.2201206316874003 
0.1884693459508839 
-0.6469963671545893 
0.2952276182195322 
-0.3160804544467654 
0.3470162408771611 
0.1909389298993924 
-0.2583162935537922 
-0.1987114505502776 
-0.1070328839995781 
-1.34570816427281 
-1.103792060993318 
-0.3693416932852469 
-0.118236198960306 
0.1355960724246251 
-0.1751468359588095 
-0.9441678779666005 
-0.5375363013562743 
0.2145328903803733 
0.8388603880996224 
0.620975153379684 
-0.5222191841473872 
0.8667282612515562 
0.1135268076537557 
0.5027572581188964 
0.3506737597302596 
-0.3578172516955601 
-0.1939121443902108 
-0.8351194652329665 
1.068815743734846 
0.2201645718578442 
-0.4322913188898013 
-2.286407448899809 
0.1710761165364364 
0.825145792225553 
-0.7628103669626004 
-0.4491723580306666 
-1.095000394619102 
0.6562007679200083 
1.745269761470375 
0.8219776615842583 
-0.3646834003621368 
-1.219221551471987 
0.2214110937673606 
-0.3726216880580892 
0.5785595369910497 
-0.1168497487948262 
0.2275999324475052 
0.3623466529374751 
-0.38160797676948 
-0.397206709374881 
0.1337710140169376 
-0.143197618759399 
0.4817231987744789 
0.5756522986590299 
-0.8341808770659484 
-0.1555585527738211 
-0.4319847772876593 
-1.894072926145758 
-0.4566589245998338 
-0.3945430946773562 
-0.8636638189503998 
0.4762405380462558 
0.3097886739314995 
0.486815795769637 
0.5228066491913399 
-0.1108736558488941 
0.09545715056066559 
-0.7500954159465476 
-0.854217083370146 
-0.2870967661244415 
-0.29727965555767 
0.07731641116943668 
-0.03987561187273208 
0.04396444920150298 
-0.08123630299658374 
-0.05734608677327083 
-0.272785619780362 
0.2162604973523848 
0.08607767806149484 
1.000976128340547 
-0.07352746408221569 
0.1014596548935806 
0.5260601095374121 
1.014545555481404 
0.9497350914146686 
1.376239435696896 
0.5634995021156765 
0.9121839844400901 
0.2407098860007479 
-0.7159965227753914 
-0.7575792856132785 
-0.4371781571816626 
0.6283380713232233 
-0.4608630077767391 
0.0165705576568589 
0.5518770748688112 
-0.1037064953435306 
0.6946157787977568 
-1.403224820485749 
-0.2511349792293214 
-0.06457128046747211 
-0.3131616051522469 
1.104285866858193 
2.140714207427519 
3.692427096686491 
3.104067956671707 
0.9045579134460542 
-0.09020365272021996 
-0.1240904179263799 
0.390729808444816 
-0.7977678606573291 
-0.2772195653761287 
-0.09686264774340254 
-1.61060538537162 
0.4950019929841316 
0.7568689719905315 
-0.7553554061038696 
-0.5175633631140093 
-0.5626345951722398 
-1.622537907454867 
-1.150699029299565 
-0.05489368695305653 
0.4302245735902529 
0.4467371054619513 
0.09046955338078076 
0.03096653795257042 
0.2365298782797279 
1.201517962926586 
0.1007673876113669 
0.5786618503066445 
-1.2805740022587 
-0.4755012578378251 
-0.132679640084427 
-0.5159651505728927 
-1.029647499884216 
-0.01522104421656773 
0.3835682209933132 
0.9664712813315154 
-0.2171704891404859 
-0.6573575888569747 
-0.1935256993852825 
0.2451486062275471 
1.244402022332191 
0.1681488847447143 
-0.4610234611991394 
-0.7859079996617163 
0.1019917020461736 
-0.2252285034670243 
0.3883236610203933 
-0.1027803138443688 
0.2542174801405228 
0.06811441202687954 
1.089872826080152 
1.894492930398893 
-0.06131298882031098 
-0.1321223292336103 
-0.4584096301372647 
0.3573106867567401 
-1.033273167636012 
-0.8491211150189677 
-1.01438295214388 
0.4499674772869408 
-0.1855209799169912 
-0.7141673070748735 
-0.7569629964790646 
-0.2786055974940548 
-0.5505750062584515 
-0.4703858171497937 
-0.4848431586223547 
1.809078077566691 
1.176625860670824 
-0.5382277150558377 
-0.3447679520857029 
-0.457587315494656 
-0.4945244656047603 
-0.1596753165625636 
0.01127746999559991 
-0.1411982016493312 
0.6995589926932622 
-0.31880125647976 
-0.003985167416673487 
0.1104899289346269 
0.03222764357930581 
0.6642164895996596 
-0.4931104262505839 
-0.3921622565763079 
0.3960573642761721 
-0.2123719221617249 
-0.2779523815218426 
0.8762559054554421 
-0.594661443693853 
0.1513160953517547 
0.6677868948249203 
0.009247013256853554 
0.05229804012556132 
0.1391342931038423 
0.1230545854488293 
-0.4175179930850381 
1.160742474362261 
1.971599393228281 
0.141429169589082 
0.2121869526019233 
-0.01685727413011482 
0.0746924822993605 
0.1662032581370554 
0.8335976064014381 
-0.5586660034499478 
0.6606591863621598 
-0.2783597706489247 
-0.7892237035364976 
-0.170480881904389 
-0.1649504243542826 
-0.9333897940830033 
-0.7076309196183592 
0.1143229625917031 
0.2489274180249419 
-0.2013064742990326 
0.6913770408815195 
0.401653615637413 
0.05278920379177812 
0.2708361778755001 
0.313517503119533 
0.08306782885173425 
0.02514671122172611 
-0.2631624452239333 
0.1756575316590603 
-0.5845602502819514 
-0.3802488179421388 
-0.3739571928434507 
-0.08574749229056394 
-0.1366430271202068 
-0.07263251332594381 
-1.180646936810794 
-0.4033624923041664 
-0.2226412104425597 
0.4340310301900381 
0.2448264953668171 
-1.105366671201312 
0.5903687259189532 
-0.1676869120021217 
-0.5787584418252918 
-0.7020207273251031 
-0.04546145804926559 
-0.02241082298176659 
0.1424402541006246 
0.2773378769200589 
0.01397596682424722 
0.2726771205878407 
0.05182603765297605 
0.1704862486188198 
0.133901287178067 
-0.4717611494539516 
-0.269618578976898 
-0.2912584278586478 
-0.4741223392200687 
-0.5409651459252143 
-0.2648771063065332 
-0.2276206190832562 
-0.7807903261243199 
-0.4860567486421774 
0.6978400021579907 
0.4593033150830203 
0.2596722995979183 
0.2409661331432558 
-0.08152363679493431 
-0.7900785538484783 
0.2965216626617641 
-0.3494207781602934 
0.409905923625339 
0.4589941395218976 
0.3217607208675258 
-0.3459612843861285 
-0.06285861782864008 
0.02339890397505991 
-0.2313050628223273 
-0.0919706982510972 
0.6871666257611597 
-0.1610061284550744 
-0.2937416010528819 
-0.240000356356875 
0.9387752625767698 
-0.08307201796413152 
-0.1538612809327113 
-1.394951683655535 
-0.05952065271961724 
1.197282256330254 
-0.4476147727503059 
-1.123274151774967 
0.8320130324837499 
-0.296417717597172 
0.07789981542740976 
0.4258686482311695 
-0.6007058441474461 
-0.3983642324697787 
0.6941276170913566 
-0.5256999815005256 
-0.2655744594659639 
-1.286801231589763 
-0.5880738580273004 
0.9202710695703638 
0.4371232833602103 
-0.3629030533801374 
-0.06741663649198838 
0.1849524788312236 
0.2149986412313589 
1.024750579168721 
0.7920396580568779 
0.7232232304147129 
0.09402839020021329 
0.2799234459679021 
0.3985841291386669 
0.3513926530470903 
0.07315517773847292 
0.7988453724307006 
-0.5852460131308462 
0.1314406613778326 
-0.3865804954574108 
-0.9936703197214899 
-0.4057369609892915 
0.4080262734392813 
-0.3451398872279137 
0.3672673216741318 
0.229753522228325 
-0.07579979158006373 
-0.2400817948205445 
-0.110272018708529 
-0.02335514586794825 
-0.1713016854055915 
-0.06617728822383945 
0.7358175394929003 
0.1452053163220969 
-0.3642284029574299 
-0.9138815180508216 
0.585260363004568 
-0.3740431939197274 
-0.710212929402443 
0.4692453963726606 
0.1944350084974679 
0.3079068752531929 
0.06682183988348821 
0.1859695084134687 
-0.5296586522493351 
-0.9635476643214382 
-0.5087031322261193 
-0.2056845342669623 
0.749467659633303 
0.4157860277739208 
-0.729411919056294 
-0.07463848377410826 
-0.08482025262549724 
0.1510407173736323 
-0.0695592671682152 
-0.05193562394922056 
-0.4980718249651698 
-0.2534905440517532 
-0.8141033004346729 
-0.4675459001824998 
-0.4565947012571682 
-1.381283261608809 
-0.6165785692810573 
-0.1423688700844705 
-0.1560879364677661 
0.1786349737328285 
0.3378089706193723 
-0.0508512398802413 
-0.3537627768967719 
0.6175727748366329 
-0.4222129226877999 
0.2177660425816163 
0.7420728323824672 
-0.4639644412989609 
0.04143709591368897 
0.3514311839271911 
0.1743820486501709 
0.2342510385825898 
0.2750309424192701 
0.3653482958765524 
-0.4637909733660033 
-0.5399031103269244 
0.02259228145444569 
0.4060492216649985 
-0.8135383218153447 
-0.1863291463063281 
0.1686132530708942 
0.02354245254116746 
-0.1162289038960782 
-0.7285096652027041 
0.03657067013338208 
0.3023502906985119 
-0.1128275165124751 
0.5044892976670548 
0.07449573341856106 
0.1189975316100332 
0.2822258103105692 
0.4084971140468471 
0.2715080309290661 
0.02526068920344594 
0.1086323872982461 
-0.2960659173739205 
-0.6319289295662421 
-0.5791778972225777 
-0.4415412078682131 
-0.695549066782071 
