solver_type L2R_L2LOSS_SVC_DUAL
nr_class 2
label 1 -1
nr_feature 576
bias 1
w
0 
0 
0 
0 
0 
0 
0 
0 
0 
0 
0 
0 
0 
0 
0 
0 
0 
0 
0 
0 
0 
0 
0 
0 
0 
0 
0 
0 
0 
0 
0 
0 
0 
0 
0 
0 
0 
0 
0 
0 
0 
0 
0 
0 
0 
0 
0 
0 
0 
0 
0 
0 
0 
0 
0 
0 
0 
0 
0 
0 
0 
0 
0.08328380085061966 
0 
0 
0 
0 
0 
0 
0 
0 
0 
0 
0 
0 
0 
0 
0 
0 
0 
0 
0 
0 
0 
0 
0 
0 
0 
0 
0 
0 
0 
0 
0 
-0.6028977430571492 
0 
0 
0 
0 
0 
0 
0 
0 
0 
0 
0 
0 
0 
0 
0 
1.266220753511113 
0 
0.2309755399842786 
-1.558734646214264 
1.685208995245523 
0.1871613596428093 
0.8979237413030715 
0.4671240116099019 
-0.2144728347895217 
0.9589487798763753 
-2.137659742192884 
0.5027185561911189 
0.06710540257454598 
1.266548274279896 
-0.09575667484389781 
-1.088724319798658 
-0.2990717998177144 
0.8771627620563425 
0 
0 
0 
0 
0 
0 
0 
0 
0 
0 
0 
0 
0 
0 
-1.127525485059629 
0 
0.1561288980754149 
0.7395352363868275 
-0.9921770802299803 
-1.379898755582555 
-2.095554633622631 
-0.356207412064496 
0.9767938501925609 
0.1468770990598507 
-0.708192324941239 
1.161803872214781 
0.04037566953597994 
-0.3973855697645241 
-0.03020757359986554 
-0.4116481328266645 
-0.001100821038924112 
-0.5358426898913221 
-1.047660146562627 
0.3237042202049653 
-0.986274477406108 
-1.685363641364377 
-2.731288527385701 
-0.4509271373196827 
-0.4268137290246242 
-0.9373896251801663 
-0.5035368243810742 
0.08558947677008921 
0.9980990417742701 
1.670155274752561 
0.2776507516383984 
1.245652163091384 
-0.6242498348381821 
-0.2494890858346562 
-1.175627244311402 
0.02074621562359617 
0.4107901164693385 
-1.162519872794901 
-0.4705418977180998 
-1.276747030046434 
0.2953213496446395 
-0.2981228023701296 
0.6749144690496458 
0.3118222482064909 
0.5470001323487369 
-0.8231757388367936 
0.08472517790127955 
0.156256527327227 
-0.8718913128785096 
0.08397421925425865 
0 
0 
0 
0 
0 
0 
0 
0 
0 
0 
0 
0 
0 
0 
0 
0 
0 
0 
0 
0 
0 
0 
0 
0 
0 
0 
0 
0 
0 
0 
-0.2989648612299272 
0 
0 
0 
0 
0 
0 
0 
0 
0 
0 
0 
0 
0 
0 
0 
0 
0 
0 
0 
0 
0 
0 
0 
0 
0 
0 
0 
0.5867689555074684 
-0.03743590257848759 
-0.1393581568124631 
-0.3816977452083514 
-1.068482805620577 
0 
0 
0 
0 
0 
0 
0 
0 
0 
0 
0 
0 
0 
0 
0 
-8.525178456088707 
0 
-0.6085865320307669 
-0.4262568049821658 
-1.014261787589715 
-0.3874306459603438 
0.01096505632503576 
0.6582652969436761 
-1.0565442149097 
-1.24967115202383 
3.182171980175947 
-0.7953137296764361 
-1.90091663557296 
-0.6996024113217433 
-0.3249258043923399 
2.354069784183563 
-0.4405310587509221 
0.257292354802323 
0 
0 
0 
0 
0 
0 
0 
0 
0 
0 
0.3307129599460046 
0.1376640946849518 
-0.7726141004821227 
-0.2145451424051547 
-1.440674308941833 
0 
0.8409074658272357 
-0.7187608277057629 
1.194920165055831 
-0.7785125593475023 
0.4884373248906777 
1.985226501051701 
0.06652091059620707 
0.5149294691357453 
0.863951218697871 
-1.417295551763748 
-1.759092897133213 
0.4496851948995859 
0.277013988958784 
0.2853698377984043 
-0.2812954699995829 
1.45853591888033 
1.940424989149272 
2.031674052197918 
-0.2526895942920508 
1.070342227428667 
1.746039550479776 
-0.4369079248768129 
0.9305145625038409 
-0.5888040808350225 
-0.5317220856346702 
-0.02944318150835007 
2.320028763484365 
-4.022078930963571 
-0.1921690509099415 
-1.346763969373735 
2.403822004005598 
-0.2285087676392963 
1.135540444558286 
-0.7352441637612723 
-1.613825429591606 
0.07182401603444809 
-0.5400608917764197 
0.7913268130049834 
-0.4281233873707427 
-0.1874142675022043 
-0.9786581206942696 
-0.2655806178397268 
0.0516834922952869 
1.324974826254225 
0.348040710279814 
-0.1559968509189413 
1.117379977260522 
0.1111342684040462 
1.136118389752165 
-0.1001811812744376 
-1.831026253311454 
0.4946753410499418 
-0.2475787747545909 
-3.783698453376904 
1.290409676292343 
0.6329754410051114 
-1.694405577961674 
-0.4323085434655751 
1.132457670507655 
-1.717917687775892 
-0.5768411420729919 
0.1890071032901473 
1.202089895060122 
0.6254395861549511 
-0.9178418680701359 
-1.628187822810898 
-0.1192096486306105 
2.656263919378672 
0.5908965224687995 
1.42183719206484 
0.01364128900865637 
-1.132058743336181 
1.669299862936523 
-0.8282947868240476 
1.458113973713802 
0.6888745089854395 
0.6979417191998748 
0.316899783278082 
0.3604324814681559 
-0.3847912729542674 
0 
0 
0 
0 
0 
0 
0 
0 
0 
0 
0 
0 
0 
0 
0 
0 
0 
0 
0 
0 
0 
0 
0 
0 
0 
0 
-1.490043087198855 
-0.1567884804566724 
0.4662797941813738 
0.8278653458424026 
0.4859931858195943 
0 
0 
0 
0 
0 
0 
0 
0 
0 
0 
0 
0 
0 
0 
0 
0 
0 
0 
0 
0 
0 
0 
0 
0 
0 
0 
0 
-0.9380974532152633 
-0.04470013849645714 
-0.06432920413148938 
0.11696736869528 
0.1299456742875973 
0 
0 
0 
0 
0 
0 
0 
0 
0 
0 
0 
3.279286608776006 
-0.4155828040673944 
-0.8763952178112362 
-1.742550880199374 
-0.7603723454791721 
0 
-1.425713886503851 
2.318865278681563 
0.5630038351247877 
-0.183411673141741 
-0.8046336560791038 
-0.3567891785007938 
-0.7666221958080632 
1.504508401800165 
1.304842992195652 
1.706495891801872 
-0.1338501473405789 
0.4537639761281214 
-0.1136465571986387 
-1.776611844389207 
-0.1947476307422981 
-2.806616180678686 
0 
0 
0 
0 
0 
0 
0 
0 
0 
0 
3.206630769033522 
0.2854449127156326 
0.03976902534593096 
-1.360173190955543 
-0.7051480151407048 
0 
0.3944260905971295 
-0.3324928567035878 
1.137699122754623 
0.1317069243717512 
0.09754349763538894 
-2.576699247983151 
-0.6659285762955647 
-2.117037362008889 
1.809921779178656 
-1.491369429001445 
0.09106355112354363 
-0.1234708409845463 
0.06670953792252088 
-0.01147103627022328 
-0.8731907949656009 
-0.7471174654975051 
-0.4983681523533935 
-0.8856203310184708 
0.6920624800070048 
0.9878312822147287 
0.8914817995923517 
1.886700787274543 
-0.065323674200193 
-3.431684474079479 
-0.4636050566184291 
-0.705152262063436 
0.3293814177389438 
-0.0203982996234929 
0.1932694946601091 
1.720094200327235 
-0.2733121319776539 
0.3537314039976605 
1.941634525018019 
2.174775307978877 
0.353245181486654 
-1.983983131206817 
-0.1802984871221065 
-0.9917928333861417 
-0.1283484139067632 
0.4243546894578824 
-1.73239175313421 
-0.4310814908427753 
-1.403821294428376 
-1.074601250033664 
-1.114976707632235 
-0.4513495755379134 
-0.5429420716242023 
0.737753666893652 
-0.7518542282126159 
-0.3512165804661424 
-0.8060403258215829 
-0.5982229749378338 
-0.3914232985414554 
2.052113795661116 
0.3990409736072013 
2.176954589954293 
-2.98215740831591 
0.7968171550531057 
-0.7755144859752421 
-0.3045205632130523 
-0.4721316142625785 
0.1598501856474171 
1.576841469519133 
0.385854165796625 
-0.2193989519603656 
-0.228469373871723 
-0.10436268315468 
-0.5309449973056084 
-0.5111742364053302 
-0.9326091838643463 
0.4170423717161825 
-0.6091506721320383 
0.07704290001520996 
0.3010224680470855 
-0.1079309845459054 
-0.2944819813645394 
-0.2200440420103432 
-0.31830270644639 
0.2457008695035366 
0.06751658932270312 
0.3802092468179918 
