solver_type L2R_L2LOSS_SVC_DUAL
nr_class 2
label 1 -1
nr_feature 576
bias 1
w
-0.2177414013408023 
-0.1087424316015185 
0.5450396000739516 
0.08593323944402048 
0.6444209596341708 
0.7260931306957863 
0.661464092788529 
0.3934312633139022 
0.1812270161846889 
-0.4413072677785475 
-0.6064199837427458 
0.3464940535072137 
-1.321604561237662 
-0.749317273490795 
-0.04830236320667199 
-0.1466675170663564 
0.413233692691206 
-0.09887700542170379 
0.861498474916595 
0.5538165878460347 
0.4369957164672305 
0.3065254100671826 
-0.02607467773655011 
0.5656801478355144 
0.9428155567179291 
0.1939476137759946 
0.1593221022897485 
0.0019076538841495 
0.3336895521884964 
0.5456231187015729 
0.1878842156638227 
0.2287009533039753 
-0.1021447801731892 
-0.5696344586290568 
0.259879183109533 
0.361033270533295 
0.2946571204993983 
-0.2940189539284232 
0.7001121516951976 
-0.593389534738065 
-0.641048015083843 
0.0791090475260121 
-0.3825440393386113 
1.195741864953057 
0.2776014002819748 
0.3562638980255583 
0.8285901940287285 
-0.4103816328750789 
-0.3172554650925159 
-0.1906399839464678 
-0.7762126102362553 
0.1725543674137598 
0.6907079981855319 
0.09697469266273705 
-0.7347653629520285 
-0.5329816345494308 
0.311927218376886 
0.1325705306030375 
-0.3744290869774554 
0.2791653439376848 
0.02346518550437793 
0.2885015048314914 
-0.2447576425764906 
-1.129586529432152 
-0.0942175935046398 
-0.3268338911510607 
-0.5882551249038559 
-0.685731496518167 
-0.1537786310483149 
-0.2093424427658265 
-0.2536910810687386 
-0.05781283297097492 
-0.6660670002703636 
0.3570719737900902 
-0.484394499790788 
-0.3654723003153803 
-0.5660564400785629 
-1.04530632874867 
-0.8385285322448931 
-0.1380278607214875 
-0.5766078643313919 
-0.5579336907783374 
-0.2216671467649505 
-0.4671404021550706 
-0.9889504197057393 
-0.3295653685933342 
-0.6931545767448641 
0.7383673365795765 
-1.252096530580709 
0.0143778235078539 
-0.08131483478487155 
-0.2754441972151668 
0.1327592580878532 
0.7913511849454147 
0.8406542661577193 
0.875439688170582 
0.175205606078343 
0.407018442282569 
0.4191288893227909 
0.3973732284579091 
-0.0697598962198295 
0.005640529937727563 
-0.1074260695690336 
-0.7570783651997687 
-0.9506515724338782 
0.5013758870192903 
1.007007296727488 
-0.2147377970205262 
-0.3346404247638069 
-0.3439983758919328 
0.6125327593994446 
1.217058248496386 
0.2785388903217176 
-0.1693170496726631 
-0.7797834959699549 
0.3990405495351858 
-0.7631013896010706 
0.3488063093788259 
-0.8957499662488296 
-0.2202732006930779 
-0.1649971305400182 
-0.6481114931707181 
0.02574221971561705 
-0.506257324348774 
0.1618785901829926 
1.088415242885601 
0.2916183606885349 
0.7458191452058379 
0.676591346089526 
0.9454323223753406 
-0.5285175330592021 
-0.3540667605081432 
-0.310230563096288 
-0.5635345650148551 
0.3543229956151828 
-0.8592901620292763 
0.9392735087574693 
-0.3048400190095985 
-1.197952401441465 
1.197298680864483 
0.5882653713282214 
-0.7475967738195457 
-0.1557317840578195 
-0.6921143998918106 
-0.07888322757615121 
-0.1355064646952895 
-0.01182120599425291 
-1.046955247363115 
-0.09716242525042565 
-0.4300231352969469 
-0.387660086034839 
0.6063883830722338 
0.3419230615113157 
0.26409698111393 
-0.4105299521739231 
0.364859633781509 
-0.5997880678818328 
0.1740403674876291 
-0.2795583794194178 
0.433564799240845 
0.1379790128283343 
0.6196608110777843 
0.8537433591250169 
0.1275266763720485 
-0.05992982209478213 
0.8297725976671034 
0.8717474773138589 
0.9417138697523221 
0.3254126150204955 
0.143666037951689 
0.6520863449993084 
-0.4738651733096852 
0.3437037478520149 
-1.418896048541451 
-0.5573546370712655 
-0.6498863059424381 
0.2047799507169962 
-0.2727576005139321 
0.7377822729646811 
0.271156902604657 
0.5618326684271641 
0.2712917396335839 
-0.1103357127125875 
-1.023194105716106 
-0.08186607227606657 
0.518880780782691 
0.1637941253046911 
-1.087644315922838 
0.3006269684631562 
0.08074666990274862 
-0.4245284703668405 
-0.3010996948660655 
-0.07529032657836687 
0.1489497859998629 
-0.531287415512138 
-0.8429015917847448 
-0.3974474085873337 
0.2222234539887792 
-0.4021289464359668 
0.6212536903830055 
0.3484229915305493 
0.3811414987083802 
0.4739476340756598 
-0.05491599100983701 
0.0004938818802332326 
0.01917808050572892 
-0.2453230054798321 
-0.02004960612249026 
-0.08130173041205059 
-0.887938297710887 
-0.746875503460197 
-3.062579833402276 
-0.5106790220469077 
-0.163864240020876 
0.3784970950748879 
-0.4756678215844135 
0.3205844166943666 
-0.02221949791636831 
-0.2302048147717858 
0.1065337230204968 
0.1681128507906481 
-0.3095693559840435 
-0.3156309549006013 
0.6295972615544906 
0.07615791751264464 
-0.2561301117378363 
0.6576993643667314 
1.15758670572901 
0.2483538088145916 
-0.8855463603733662 
0.7043925440687542 
0.1667193909542106 
-0.7617257930864522 
-1.111428814506831 
0.7412125879810879 
0.3854970012476953 
-0.4418321008144025 
-1.036021310654775 
-1.13850991197011 
-1.054338442746788 
0.5191468806498815 
1.053422998710805 
0.7554610073284506 
-0.9386037431839258 
-0.02320745487819186 
-0.7862387829141013 
-1.162509719538592 
0.5752657888878268 
0.8799346691091073 
0.2413839295127586 
-0.1141691165725161 
-0.9830782000803836 
-0.4846784465274345 
-0.6323248900566255 
0.1822774037673944 
0.2037052648839917 
0.2372022365695236 
0.5503920315950559 
0.2856588522216581 
1.496490365388335 
-0.1890347897232843 
-0.1508823816591106 
0.007225493095564824 
1.102142102310555 
0.1964810095433702 
-0.270880534688098 
0.3569544071543248 
0.02327954078188023 
0.09170480308743821 
0.4055423548668791 
-0.06435852218530397 
-0.6872541526682694 
-0.4015684473063301 
0.5131039937498134 
0.8633324322829327 
0.2305216518734 
-0.0005339312000598322 
-1.052253004873572 
-0.6720381598674904 
-0.6918578163492066 
-0.2073494289330152 
-0.309592271688488 
-0.9560690744777619 
0.4419309002321984 
-0.7133986020547781 
0.4211690980630145 
0.5356965486575998 
-0.7757540549922919 
-0.447598983705758 
-0.9606100991051417 
-0.2503298385276617 
0.9032217483271592 
-0.04560817405601284 
1.173234967153974 
1.012075316990396 
0.1180604402033911 
-1.18666512701883 
0.1425662951522756 
-0.1045510191645053 
-0.098745819082279 
-0.8520336548339503 
0.3665996584448898 
0.3856853811025713 
-0.0982640801528811 
0.2334553023961399 
1.390056548697659 
0.6156879408375854 
-0.5594736452312932 
0.03119844636279795 
-0.2125413999072931 
-0.4829058223308559 
-1.085312067501639 
1.427082936595053 
1.773858962948834 
1.627825531793908 
0.6588678863731475 
1.202976212831591 
0.1914064073976212 
-0.1655434872986388 
-0.39536019615303 
0.6611045671300543 
-0.5938728968540195 
-0.3970425704205796 
-0.1778924888916181 
0.8696187696348682 
-0.04992497138453775 
0.7081426935612154 
0.186583533019955 
-0.0603034940885365 
0.2962194487263725 
-0.1869324789506554 
-0.0963563916220925 
-0.8752941431532278 
-0.8936911313781494 
-0.3541423977427366 
0.9943980206631106 
-0.39827191689472 
0.3743329531659029 
-0.3337621932238332 
-0.06333638406280615 
0.3979442455596832 
0.3883794697041515 
1.025468783629187 
0.80316982696833 
0.4563785394751234 
0.198240040253208 
-0.2518343382818554 
0.5431496143232405 
-0.240950278858231 
-0.2923524091334855 
-0.6664577516629825 
-0.01613472729976501 
0.2841412806514623 
-0.8882810266944178 
-0.1968176879779055 
0.4633549327566112 
0.2190262209953365 
0.1914951474896495 
1.07984999772114 
0.9236754472160826 
-0.04995287628006132 
-1.106869034677623 
-1.248351719018618 
0.1397851459587021 
-0.4041343839760241 
0.9344848530735884 
0.8307908075305444 
0.5387304006109532 
-0.3764098790209284 
-0.9764839825998213 
-0.9809950560280759 
-0.7279347804139014 
-1.312037245625475 
-0.7294787200357987 
-1.142285432414234 
-2.233796656884723 
-0.5403790576971697 
1.303548941389286 
0.9987482310795536 
-0.4152812239711669 
0.6597872174901956 
0.01108780957226874 
0.155026562516317 
0.5546612535460368 
0.333789397734053 
0.8907166238213931 
-0.1299106811084382 
-0.8330545772690192 
0.3035679402360215 
1.38016180211325 
-0.3582973292100027 
-0.6769874439189274 
0.1868594137147584 
0.03101792220731392 
-1.30642609920283 
-1.587482822089002 
-0.3217290910368426 
0.93839888931565 
0.9002636680846069 
0.9443102657121931 
-0.8413085511034574 
0.03641665267697884 
-0.01688991333339962 
0.7550549361620903 
0.9382946549143858 
0.7047698643905151 
0.808737772202531 
0.3138324841597733 
0.290370129278719 
-1.037049019962646 
-0.577881002200381 
0.7298607724634769 
0.9349812880153978 
-0.1898996478663903 
-0.05272655413848644 
-0.5838927022056031 
0.4301103189031157 
0.4116830625732201 
0.3898604733207725 
-0.3109775676373823 
-0.5179619763811609 
-1.215277971518856 
-0.362656264158616 
-1.259467696871363 
0.02665868867256029 
-0.2286216917980497 
0.7736147674716257 
0.3600975279672434 
0.3499347920412618 
0.8921884479163509 
0.3652029914060799 
0.1824148683956627 
-0.2141651991912023 
0.1828308718518515 
-1.227040957596275 
-2.024386134153972 
-1.040289857651317 
0.1342258678456735 
0.5759966928628481 
0.2916784183484554 
-0.5322137983287775 
0.2223946481833253 
0.5118844800700234 
0.4372547051654764 
-0.7822499862607315 
-1.03558906753606 
-0.8591314394550934 
-0.1273135563501254 
1.224756761224384 
0.1346329708800166 
0.2943505531687284 
-0.2108864657942133 
-0.03009866349096874 
-0.4848072412149754 
0.1881049004214243 
-0.4576968089711787 
-0.3246646432971799 
0.183277209126096 
0.3429362947786549 
-0.02668357882744293 
-0.7053984076492359 
-0.7558152048207528 
-0.7771145505707856 
0.5716048019599578 
-0.8362774713708178 
0.01423050108426976 
-0.9031553496343835 
-1.267850667851335 
0.08444896211177749 
-0.2601067304704156 
-0.9954936243671628 
0.3762121636707799 
-0.4076813317005615 
0.8092038494455176 
0.22973166256218 
-0.2967815812458498 
-0.06748812449572102 
0.4364067079296949 
-0.2309274744809253 
1.249224700878172 
-0.3849732058601892 
-0.8768343336457879 
-0.08275853942249203 
0.6699321520069396 
-0.3274630518970768 
-0.9052258998572679 
-0.6293435700771373 
-0.7372171059658988 
0.09853990083861826 
-0.1651764901866061 
-0.2106421824061025 
0.262222402424831 
0.4903997384875816 
0.5288703557232094 
0.4163740853690162 
-0.3054686001572898 
-0.3478050873137706 
-1.099080847166679 
-0.5840428817964912 
-0.4196621454110227 
-0.746139451579103 
-0.09498090678864651 
-0.2956381908751377 
-0.07219475430133446 
-0.4349202464766016 
-0.01086195300014742 
-0.5636997666059818 
-1.176428742288028 
-0.1773125085477359 
0.1271918085590956 
0.7301764983973496 
-0.08063850167904332 
0.2169116505004513 
-0.09259703711014913 
0.3963177829222048 
1.150864012832699 
-0.1435450149691616 
0.3472025597893653 
0.3410818790032867 
0.2848059743563245 
0.1447206617587186 
-0.7665466840828751 
0.2769897159018555 
-0.002953600345033954 
0.05602660051300305 
-0.551976986475164 
0.5190636397384731 
-0.9049938714574669 
0.4130787214386942 
0.1066104764886265 
-0.7125093420975651 
-0.2744224628290256 
0.5882302768134318 
0.2494289676846088 
0.1108260623772553 
1.628604023837052 
0.7659087017307718 
-0.4952591375039125 
0.2288031870194048 
0.6773513374540241 
-0.7115282869133609 
-0.4150364684777953 
0.189770198219274 
0.02014872310748385 
0.09256686500551703 
0.6830373198510111 
0.111475872814024 
-0.7367236409911471 
0.1132255886150702 
-0.02039049613682253 
-0.1803731511966595 
0.5715620977323618 
0.4533585211172945 
-0.2501267784219584 
0.4078135239955108 
1.271041686833388 
-0.3393865910476223 
-0.4144627208683545 
-1.02274852901446 
0.1311112491095799 
0.394687874834855 
0.7624093831934359 
0.4729904017516664 
0.1226053082048741 
0.3110742078841439 
-0.1466178382915729 
-0.1121255023392736 
-0.3681817052089782 
-0.8121725083224398 
0.03226294156145278 
0.1137209620303703 
0.1383647316201422 
-0.00607421791321846 
0.2876971644511915 
0.3129742921850117 
0.01816378020996776 
-1.616262632079161 
