solver_type L2R_L2LOSS_SVC_DUAL
nr_class 2
label 1 -1
nr_feature 576
bias 1
w
-0.4143484949372304 
-0.1067692683688422 
-0.1504339791014568 
0.07781015236367418 
0.4154522931689102 
-0.0442249256961956 
-0.3521166198661734 
0.2562800807596206 
-0.5705008133783681 
0.1050349186077225 
0.2199026163915788 
0.0722215469917853 
-0.1454443703186205 
-0.02239685060396109 
-0.3095074004890008 
-0.3445781742705066 
0.1657324495967648 
-0.05159602676715961 
0.1823374769845535 
0.0193191179981982 
-0.2751275295952181 
-0.2710911250146851 
-0.4137458848358487 
-0.5783566743809839 
-0.5194425376085915 
-0.609738602755537 
0.07869396009423556 
-0.3035403785981528 
1.115759649470747 
-0.5715183576888274 
-1.183150421534356 
0.8288232795570376 
0.5633752867898625 
0.4146134189879333 
0.6379501734305272 
-0.6142925563958167 
1.028081891098799 
0.2086391826024592 
0.7733524351516561 
0.1268910461323128 
0.1466127619839305 
0.09050247833326018 
-0.5470074865257267 
-0.7704820942146199 
0.4757457193931534 
-0.01935266212501835 
-0.152382175314089 
-0.1965076228566384 
0.7598874252147501 
-1.150261980920905 
-0.4970414017284141 
-0.5639709112916193 
0.4529003854425816 
0.5655806893973308 
0.2972281097898899 
0.265618317535491 
-0.7295915432894679 
0.1762675317763605 
-0.01842721283415265 
-0.1549422235994688 
-0.5705628780347601 
0.3599266187535062 
-0.281458079315379 
-0.8853495274668534 
-0.08194116672051162 
-0.02888867794858883 
-0.09749618929251629 
0.06556038489686046 
0.4516815039845997 
0.510158404530231 
0.4765343783832432 
0.8873519065277536 
1.173303446326488 
0.8023479809434773 
-0.3801997537859901 
0.4223874701693427 
-0.7764593113242241 
0.02447439837505071 
0.9093744729619968 
-0.9710055528651762 
-0.3207045203844166 
0.06915297243308685 
-0.03518874369217225 
-0.02805365148663267 
-0.10451010134892 
0.02563197374771837 
-1.009365478393157 
-1.32545086542764 
-0.6479408395168006 
-0.2555230973192577 
-0.02461288596588629 
-0.3106494801338931 
-0.4888795456665308 
-0.2234265004019251 
-0.755332365201542 
-0.01609298896504043 
-0.5520252837409742 
0.2898216452815919 
0.6733744937889362 
0.1408262608808733 
-0.1834857968138975 
-0.6618480141565303 
-0.2294886780563558 
1.003321312686992 
0.9925737882221951 
-1.198533982932245 
-0.6024146997039344 
-0.3365493499711079 
0.6880726409234682 
-0.7206834606961197 
-0.09733296275441576 
-0.04257048877475107 
0.7713730365023002 
0.515603007527729 
-0.4155198565676603 
-0.2812826958321917 
0.139605117254847 
-0.3082268379999903 
1.062996509859414 
0.2852284118275946 
-0.4543440888214777 
0.4351630272137252 
0.1831468757675434 
-0.03970736399021889 
0.1731886297189223 
0.2212744077324297 
0.3976919525186125 
-0.4020464425770892 
0.4906803938749508 
0.0465101548427931 
0.2518588961605838 
-0.1477067386228019 
-0.1645102363749734 
-0.2750386114256763 
0.4439064674138315 
0.4371917230905704 
-0.01087143307242983 
0.1881179380092242 
0.3526792297519107 
0.2493079543814268 
0.4092374282136246 
0.2704571500668406 
0.5746437434312759 
0.1157792447808497 
0.1081642876509516 
-0.1047019080829643 
-0.3706734363869683 
-0.01468321667673664 
-0.6111980764147066 
0.2694976993009389 
0.08643396675864692 
-0.2900746728644779 
0.05743175090020204 
-0.1619462887497917 
-0.4593863514719245 
-0.2786101748748115 
-1.094367320034798 
-0.8594079255686173 
-0.6404540630895094 
-0.01441548567837149 
0.0006902607765917995 
-0.3451580784785086 
-0.1299333684571417 
-0.1710985282247341 
0.2903322568441332 
-0.006562392767083431 
0.2401938539021283 
-0.2544663908025039 
0.3177163862117954 
-0.8122747476774758 
-0.01857817270989199 
-0.06857883538598908 
0.3097557583548893 
-0.9161325369840246 
0.07403573546589035 
0.2576119247072984 
0.3754126594768416 
-0.1888037749747333 
0.5734602276990388 
-0.00304566011428442 
0.06818836299011361 
-0.179578112478297 
-0.5292571007927109 
0.5743175719622596 
-0.09077443249292329 
-0.1461246464800701 
0.3195854254303055 
-0.1545506747418244 
0.4442264878426009 
-0.2216605670377731 
1.283287942421468 
-0.1221603381643842 
-1.09383703526641 
-1.252237315095127 
-0.8511073340435016 
0.07620662720450448 
-1.638761062027869 
-0.1913271168011807 
-0.5009482508612722 
-0.6027957399180939 
0.04621335302058219 
0.1300491568986732 
0.2443721148341463 
0.6113138351576304 
-0.51465364640695 
-0.2876174956449503 
0.07972201232802223 
-0.4847194467197098 
0.02500502051460227 
0.5524896633324045 
0.2718859180496202 
0.03788661782089356 
0.140964634905751 
-0.2715268635484285 
-0.552755953826133 
-1.212213865170955 
-0.399753326264441 
-0.2287744746601185 
0.1631207827954589 
-1.240888426694705 
0.3513810207838865 
-0.1593812845797553 
0.4999880433025103 
-0.316411876999756 
-0.3047801443767502 
0.3529121228238638 
-0.4313508729231131 
-0.3001712044520782 
-0.768692983651265 
-0.4650358903499073 
-0.170400859143655 
0.3132097338873386 
-0.08287866345221839 
0.04189966613516206 
-0.1109585057477134 
-0.1412633400555227 
0.2384306694744462 
0.006834261365573151 
0.05461101152117351 
0.1994570204952772 
0.1698797274963333 
0.4398940015380508 
0.9155772706991502 
0.7059442876418901 
0.4981660709024544 
-0.06752599701549518 
-0.6834718885775274 
0.5247040233010064 
0.5049476856528415 
0.4865404958444843 
0.50481608182088 
-0.6895668926049606 
0.06177530533447741 
0.6700299873712408 
-0.1423652496883721 
0.8226900267879381 
-0.5299435610851205 
-0.07913051847969588 
-0.7141053293021038 
0.1472245640881472 
-0.4562410975289637 
-0.2291123553633785 
-0.2111083841438066 
-1.221890557071298 
-0.4407291947541837 
0.4216130660304644 
0.4242767000538845 
1.448356679190224 
-0.4394361540616956 
0.06085208274997639 
0.001031245138498543 
0.8535382554165878 
-0.1063679377262502 
-0.09013406890544984 
0.26170753901065 
0.1542260381936145 
-0.3317449718287936 
-0.1428027803653469 
0.4781081078741679 
-0.004292715236655917 
-0.05856814159275763 
0.7133282866083961 
0.1201672481387003 
-0.3878126982547528 
0.3332174510818454 
0.1857895909927357 
0.1283844299829819 
-0.2681677483713182 
0.6201221579873695 
-1.338758208443795 
-0.7605325957645323 
-0.1397224915228441 
-0.353693659945799 
0.843244205025144 
0.4076702130191593 
-0.6872145406135406 
0.1021534650297174 
0.5362413404957518 
-0.08271370250685148 
0.9891782451770923 
-0.08875510524824723 
-0.6092176952556735 
-0.5974888959433609 
0.3881381733414689 
-1.119834618364269 
-0.7306418850150369 
0.00648158401286895 
-0.0792753981036825 
0.02299098228957001 
0.1433201009967424 
1.17429993940525 
-0.3814661443645623 
-0.1915408740855154 
-0.03240627233149263 
-0.7648456739626547 
-0.02801403798512702 
-0.4099197175422141 
0.4505213024014887 
1.004648680825465 
0.2331251532548782 
-0.5778654825860522 
0.1255961019471006 
0.2533502375577612 
0.1174117291169869 
-0.08603511761876138 
-0.2934156576058693 
-1.569701554110341 
-0.4368592007911613 
-0.3625411651758405 
-0.5100361256111603 
-0.4043475823920458 
-0.08694878423719941 
-0.7178923471139853 
0.2285994437066442 
0.08055444451611117 
0.2780524390466816 
-0.2191714365260817 
0.2830806980433158 
-0.2714687035446558 
-0.1159871633580742 
0.0209809215012207 
0.4386491532550726 
-0.03906166360900102 
-0.4253681558899778 
0.2002743683800911 
0.1454781381423481 
-0.02769915987476785 
0.5917275580726524 
-0.2552098720548347 
-0.1893522007578599 
-1.047109761804973 
-0.2729964577279552 
0.4996278848713189 
0.02365182811243282 
-0.0891192424283264 
0.4955652398657858 
0.2736456665061653 
0.03758803832585146 
-0.6608124529830414 
0.5348204561478317 
-0.2226072712561343 
0.3004662545778342 
0.4776939207567626 
0.9546327246507467 
-0.9353399603098348 
0.3489684260284365 
-0.1686139868655172 
-0.9509411460027591 
-0.1760719092466643 
0.2038597149963942 
-0.09776086015963617 
-0.1165879326292305 
-1.214725303648713 
-0.4339955596985367 
-0.2490691390652613 
0.5776104172663927 
0.0939802315768639 
0.563451083043478 
0.3312911994945425 
0.1038954584087947 
-0.06977560143627941 
0.2059155949163787 
0.6929223662305232 
0.2250242160062455 
-0.03813663185582096 
-0.8521718624485645 
0.1468865146421969 
0.2966591420744396 
0.7139347750705177 
0.4718326868731181 
0.07913378992476271 
-0.5659924451656084 
-0.1456675391099833 
-0.718262928053951 
-0.2193349435521798 
-0.0323515023183608 
-0.2417256506175284 
0.1304261822343915 
-0.1620656511921123 
-0.737767078927152 
-0.5798872058902682 
0.5273634328946808 
-0.781829917012739 
-0.9152409829474477 
-0.6653175818376533 
-0.3248417040553468 
-0.4722947258904834 
-0.0674051593515158 
0.6176238173345251 
-0.1298657124988748 
0.3142677989141038 
1.270015303334534 
0.2567562600048597 
-0.9976483439759741 
0.7149333926308825 
-0.9377534826240642 
-0.2997190376042449 
-0.8280555743777414 
-0.2473600827079012 
-0.3110456091276809 
-0.1029734972417376 
0.2366553580639212 
0.103925522104752 
0.2976930955268219 
0.211502771676786 
0.4686538651815613 
0.4615952415344302 
-0.3425410852638371 
-0.5623540154065653 
-0.109267681496161 
-0.135045054834535 
-0.5467396807609194 
-0.4402725128804905 
0.4351961886046321 
-0.311844729550381 
-0.2244205738403286 
0.2984860836098497 
-0.0331714425846812 
-0.7883738242984067 
0.05855365601779405 
0.5611645599358365 
-0.5351416659538262 
0.2523467623234255 
-0.6373869495986151 
-1.373428680879183 
-0.1011564529241082 
0.5732882225101564 
0.1596648197442906 
-0.6569626978610366 
-0.17524471517834 
0.5254934115749937 
0.08699743423859364 
0.4360890542323266 
-0.3494344865582535 
0.5874380764349674 
0.3617134895266908 
-0.8823256304009598 
-1.417724106873854 
-0.922034815562238 
-1.477317392155463 
-0.06853058029876227 
0.8279021204651893 
-0.1960704202530874 
-1.318170113705397 
0.8774183331162248 
0.7817418371080276 
0.1856603652184273 
-0.1526945657536878 
-0.4416340211048277 
-0.9521246168944122 
-1.169156041952661 
0.2915283271760612 
0.5405905629083173 
-0.06976138204591874 
0.9364739298602273 
-0.2872976516440682 
0.4286802519811279 
0.1070911808950847 
0.0439565834891096 
0.2617128173320004 
0.06769489647863716 
-0.1197205028761543 
0.3682767359102741 
0.1015738790189876 
-0.4619148309947364 
0.6102404333858794 
1.035856371336728 
-0.09463920530444163 
-0.5446577584985782 
0.437650707955102 
-0.1575995978596174 
0.5324153079582215 
0.7557871243431402 
-0.5576434516801989 
-0.4124050726014209 
-0.562100344905864 
0.2975768750195074 
0.9034244011302195 
0.7234501586524211 
0.5143436800423988 
0.6432901945823947 
-0.02082111517755773 
-0.3978897059359328 
-0.1711295934483824 
0.5141432797261407 
-0.3197047332538728 
-0.291174741290217 
0.3902867720033472 
0.2406528241244662 
-0.4602617411933869 
0.3854109618857559 
-0.9598614675256004 
0.1823067067960388 
0.3378500401557655 
0.2741034648601874 
-0.1168014146021692 
-0.1259853205696654 
0.2886680819261219 
0.261113511641319 
-0.5401643334992661 
-0.3128328669272902 
0.2625910842065853 
0.2571207619441543 
0.3383396917747655 
1.213108626996708 
-0.1850834247714587 
-0.5122226036186217 
0.6677167552261988 
0.3177358343847944 
-0.2823032851489658 
-0.4098022885926841 
-0.7235310455897568 
0.3263502203699749 
-0.4807010466428516 
-0.3229153902313644 
-0.6842154047403435 
0.2672485002584331 
0.1590928191911663 
0.1239590301129085 
-0.08511808246099901 
-0.0783866841342231 
-0.2199999827639693 
-0.06306440422437179 
-0.1080200907620265 
0.3357367949177624 
-0.2506249423749267 
0.02272019634107851 
0.5306752236415594 
0.2995018094192462 
0.4023722197571876 
0.6423602167874428 
0.8431000080749292 
0.665397719251862 
0.8543194048592508 
0.2426033258275993 
-0.3352859862692988 
-0.1290845640177923 
-0.09514769452535618 
-1.05485088096038 
0.5410313550597247 
-0.225962169980069 
0.3338115044685925 
0.655494457978043 
0.6669783841177213 
1.227585678875713 
-0.06766605054528396 
-0.4591293365272656 
-0.5972993270938867 
-0.7096699928921336 
0.1283171750068604 
0.0836776639778283 
0.2822362966056084 
0.3057726408068682 
-0.3844134387074941 
0.2530277723357216 
0.1415017949399806 
-1.004456799757743 
