solver_type L2R_L2LOSS_SVC_DUAL
nr_class 2
label 1 -1
nr_feature 576
bias 1
w
-0.2196464155746875 
-0.5524618056435834 
0.236829041193231 
0.1929159780986344 
0.05750617339438719 
0.3498641144644258 
-0.0182701386963159 
-0.3677220406370931 
0.05777574413257442 
-0.7650700932508894 
-0.4526927266829372 
0.1472356802865337 
0.6703608950409107 
0.2337332254078214 
0.2565026059723888 
-0.9453590414205161 
0.4713967484215459 
0.3694062732271012 
-0.07724568496976721 
-0.0909611457901631 
-0.03271944149505462 
0.7334514555398752 
0.436528199095936 
-0.07092091354129537 
-0.5653226394067077 
0.476844448995126 
0.381555029288723 
0.7587186231352175 
0.257775985812446 
0.3765755213674977 
-0.007312020242843282 
-0.4153443941138054 
-0.2648126631739527 
0.1777091237769356 
-0.09283329688883521 
0.2069618326409801 
-0.6639751514027189 
0.5072808530291931 
0.3714992407977316 
0.3373711675596702 
0.9770093060742687 
0.04203745298746007 
0.2333794371147846 
-0.5140297003801785 
0.7081716275573921 
-0.4206761315314432 
-0.4253704595971097 
2.224399034014532e-005 
-0.02292942547111656 
-0.2198570746366732 
0.7706144676697718 
0.7110695578903162 
0.2282486571603062 
0.2177570735955157 
-1.153662864015867 
-0.8115281321581203 
-0.3293046229294503 
0.07864166547345303 
0.2134760196868147 
-0.1741939773513921 
-0.1944575064007854 
0.7856613641388416 
-0.2207975905347671 
-1.281101951277035 
-0.1552919790433057 
-0.1639530610108352 
0.3402825391138228 
-0.01026857672711339 
0.274301451746099 
-1.20088882609338 
-0.3518337316604777 
0.1680715153917628 
0.07554835856841631 
-0.04924324990701996 
0.6928290697336008 
0.511498185540244 
0.04452746824873814 
-0.09297642978928046 
-0.10532175513182 
-0.3791555644125204 
0.2974877950094478 
-0.7682070157592045 
-1.454172886523973 
-0.6229895811055558 
-0.4309124857192286 
-1.530342918386887 
-0.08559982698152302 
-0.5817667957943142 
0.4662996573661961 
-0.4714878750336075 
-0.6553457712019688 
0.109904092547622 
-0.285193238374225 
-0.2293005559010662 
1.014943622423716 
0.04666277948784192 
0.7215741822962024 
-0.7059703907096099 
-0.6280500959188187 
0.03984515095299296 
0.4757730874014249 
0.2338026209624903 
1.543647001872676 
1.567190190185037 
0.1195907521884138 
0.9472358073544779 
0.6780018097405783 
0.091505376573633 
0.147092467855249 
0.5145149783249167 
0.6850488028898853 
0.7703389092647102 
-0.00116642944486718 
0.4478424645216744 
0.8348785627525688 
1.170131169171274 
0.06198688358784446 
0.1748030931054009 
-0.3497290238428282 
-0.7102071146983181 
-0.9704466654365717 
-0.2536157064668 
-0.5216137736802796 
-0.5331524326186221 
0.8466339669348437 
-0.2283086874581175 
-0.003513989540764554 
-0.8068462566337872 
-0.2407350939945704 
0.3095255759077098 
0.2565054038655388 
-0.4991192712325534 
-0.3940899684117435 
0.3946593194247862 
-0.03023901577256337 
0.1416386710685866 
-0.09959898308046221 
0.667885116295762 
0.5053195710144736 
-0.3760190135190292 
0.1845824874566994 
-0.1984864984437277 
-0.4130553316275724 
0.1093483657819302 
-0.04797513850712212 
-0.03030271322134203 
-0.1354012587148173 
-0.8335986766062917 
-0.7622556417411911 
-0.6616977297851344 
-0.6052165882490898 
-0.5139149809208947 
-0.4163738454074453 
-0.2169261607731798 
-0.2819067751682868 
-0.265329425328143 
-0.4473973910732578 
-0.2046047050835901 
-0.5365951199412233 
-0.173025311742484 
0.5395167475273319 
-0.7450983514286348 
-0.4566168989500716 
0.02240716065297586 
0.7998209353075683 
0.4272491249445989 
0.3403083599671897 
0.4355605688931309 
-0.2454157523283799 
0.08710081377738743 
-0.2477106841741585 
0.3081718648417849 
-0.2576642975985226 
0.1453343689244153 
-0.3556913797753259 
0.04763612057878578 
-0.2189983647186471 
-0.3409341604851617 
0.7925454592261273 
-0.5757613658996014 
-0.1953446226957582 
-0.8438503429737611 
0.09904769310743275 
-0.3139218917439493 
-0.380141362533613 
-0.1325920482996541 
-0.3651933440798352 
0.1049455758233652 
-0.4110560664386398 
-0.08482743942075795 
-0.3184065042181483 
0.02709720419104897 
-0.509542468969077 
-0.1359138926123592 
0.0591982879848694 
-0.2704879104803025 
0.8639402908499861 
0.3218717952007602 
0.1962233700695568 
-0.3205411601921189 
-1.243241846768568 
-0.4542070096434698 
-0.4731590665576173 
0.3913667688818011 
-1.128972298055156 
-0.4556696797207231 
-0.1973922052832598 
-0.3011076150208172 
0.2250221596673493 
0.01208138349370079 
-1.126386912314625 
0.6083105721751679 
0.4748201448217241 
1.292765782754542 
0.394456169773561 
0.4362104381456612 
0.9333507113330688 
-0.08914716785622127 
-0.4672640347281339 
-0.06563590127228687 
-0.09649275720805478 
-0.7431630627528361 
-0.4750462299424946 
-0.6719506333287083 
0.01964924329577096 
0.5452125398593439 
-0.03899235545387064 
-0.674490803255872 
-0.5106890976607994 
0.9297486303276571 
0.1621914067422373 
-0.7136362781325151 
0.01409312590482902 
0.508266990201898 
-0.1125292498220682 
1.085932829619975 
-0.1124551877446493 
0.2958220528579377 
-0.2632913791153773 
0.04779299029681539 
-0.02858898575367404 
-0.8480542403100898 
-0.6083783645854825 
-0.5982779591542908 
-0.6030088069619392 
-0.1310491533066721 
0.02728815472876432 
-0.6533732169350864 
-0.2087633232322156 
0.3512002338944025 
-0.393962428568562 
0.741719793916933 
-0.6106342004925703 
-0.06744731081357136 
-0.8381161064242283 
-0.1745277909790824 
-0.3635758727673988 
1.419529353301235 
1.624495351727629 
-0.6323932186346899 
-0.5638694269821331 
-0.7487428007824017 
-0.120309229887381 
0.03976041825502704 
1.221725179550102 
0.06549477392686812 
0.01172591595881056 
0.4987642979864199 
0.06553018729803209 
-0.4503292280460482 
-0.9877238444148123 
0.3182967731127911 
-0.2351155519933642 
-0.1009264617794908 
0.3286470947011721 
0.1429919930856654 
0.01671626954721893 
-0.2082706183654793 
-0.05865172487783839 
-0.292810578726264 
0.07565887711900338 
0.03100827530957633 
1.033116722609969 
1.752266830809939 
0.4415854597690336 
0.9275171323482304 
0.9102724972475871 
-0.1626290153258837 
-0.1406631776306364 
-0.3571915872347815 
-0.3447083942664673 
0.08171150550790236 
-0.6060138227247527 
0.7407737003858554 
-0.3220174930176631 
-0.1158501140085024 
-0.08829852995263769 
-0.8182924540348775 
0.4950391417870413 
-1.314411724650374 
-0.2690779237325443 
-0.9512939568464824 
0.1982822857084778 
0.2239403579698635 
0.3089784532265934 
-0.4397144947980928 
-0.5388836231467881 
0.337193225412273 
0.05463227396608965 
0.05160645838506626 
0.1485661169708374 
-0.6147263916854933 
0.03281123565955414 
-0.4186534428435977 
0.03464338808167144 
-0.4757869541922514 
-0.8637438087081477 
-2.163320764611006 
-1.007690495734289 
0.966028043339872 
-0.8017918158591416 
0.4896567703388735 
-0.3832279943886022 
-0.9574646272680777 
-0.6449814168170109 
-0.5252974305068212 
-0.5292000628785663 
-0.29076579957921 
0.185636077582043 
0.003080602135174861 
0.0700506040839568 
-0.8065007087625028 
-0.2329454163676031 
-0.79660448078915 
-0.098535862449475 
0.4232799175998798 
-0.08344462868726744 
0.5404915049332276 
-0.7599379783358085 
0.3003354698913814 
-0.5653654887897118 
0.5195081709223941 
-0.4849062843976878 
0.1248519605595525 
0.625838065416869 
0.2727012709313702 
0.360616172288031 
-0.465422702039174 
0.7350390445617324 
0.05655312060279729 
0.5423296892080728 
0.4745909070981175 
0.6200655194023496 
0.008849243207505027 
0.6190012231468699 
-0.05242059875451084 
0.6400153892861507 
0.3350410882708239 
0.08247115447063021 
1.061844729966423 
0.1253764228185532 
0.2950193137670947 
-0.5337187242957229 
-0.2787995532842522 
-0.8649968253505752 
0.4221975724402455 
0.003228531875660046 
0.08825906313019667 
-0.2370761762578351 
-0.22327325392456 
0.4452499536722759 
-0.4263871017417229 
0.376660977341666 
-0.1781680434048177 
-0.5144880829308997 
-0.44089184122594 
-0.3005956989350817 
-0.3005283972787806 
-0.6895889840179167 
-0.5931207311608916 
-1.380414775079755 
-0.3685920885591048 
0.6282982213783119 
0.03067126713536266 
0.2753881195114969 
-0.248354822598424 
0.1891537002264465 
0.6710912135677896 
0.2887802000776284 
-0.8969378688650352 
-0.1344907100753866 
0.6542764063723262 
-0.1236075874047815 
-0.7033023856842051 
0.4076516753306574 
-0.3549225022677583 
0.6329863137790577 
-0.2613581106329143 
0.7495739084322539 
0.4073683602893087 
0.2562842214588809 
0.08548676454062522 
0.3834715457853922 
0.07289682066471766 
0.7320218634897344 
0.2691780106940624 
0.1539494153830305 
0.6018005765599322 
0.4134732892686453 
-0.0771847386834713 
0.217510753579857 
0.5743515723294241 
0.9544250136067084 
0.8885916631410675 
0.6661516061790707 
0.5064515556399345 
-0.1606712543735988 
0.1908944670643992 
0.1233338944440362 
-0.06057816682340827 
0.022990878336412 
0.5505148774171869 
0.5159268568335695 
0.7301393059437483 
0.2136709982763154 
-0.04060883327934487 
0.1722535858177961 
0.4666117267958729 
0.7918521301682439 
0.06534170240293542 
0.7143494149034311 
0.06603888888350357 
1.160431558694066 
-0.1494260310768369 
-0.8526782265428763 
-0.2325377151643475 
-0.5356640449485572 
-0.7071144823570809 
-0.2657610565788088 
-0.920104703899274 
0.7919691863233654 
-0.04015501555007889 
-0.08717247059998393 
-0.1980292997110827 
-0.1534705553170527 
-0.2468156524603613 
0.5541318978682953 
-0.5464138370527794 
-0.05564052938433746 
0.2972412878357961 
-0.3473852831658636 
-0.031366103676298 
-0.3430649491680616 
-0.4341147872834991 
0.3135963939748194 
0.5704316587859523 
-0.08155973700226157 
0.6974058296947845 
-0.2376143946350622 
-0.05323974823702936 
-0.3841208489718002 
0.2050025946077831 
-0.005115836797691988 
-0.2611345929726946 
-1.245211738972384 
0.3032016674555444 
0.08978583381085468 
-0.5124790008762358 
0.04921945556381046 
-0.7989508547117035 
-0.08141044191666462 
0.270343444923802 
-0.1629597647578562 
-0.09630093528778423 
-0.07312308835579405 
-0.07911409501337649 
-0.1058117572702315 
2.137669884097344 
0.1040598887820255 
-0.9811815682058455 
-0.9396440475303455 
0.3791904077447909 
0.9381503383765414 
0.2888815708497007 
0.2722200015534503 
0.7975186174007731 
-0.2192990112595809 
0.2646705812885611 
-0.4973566314847647 
0.01615721282287324 
-0.2162671149386376 
0.3475789895437183 
-0.06531657695141083 
0.0408857571541141 
-0.3687897984500716 
0.1839657316018674 
0.7569163386398375 
-0.02751573769779221 
0.1827211992629331 
0.9049698641475272 
-0.6646727866575055 
-0.1910417100189997 
-0.2844325768150147 
-0.7268289925378046 
-0.3274946333230041 
0.2975768040565017 
0.1078459587578197 
0.08257140390025901 
-0.6651205356224191 
-0.1073154159829623 
0.5771769244071564 
0.3333473625318806 
-0.04822387992133546 
0.3380277352624649 
0.04737006987752385 
0.3194792222166397 
-0.5017684179292108 
-0.2814736734100614 
-0.2257049932682638 
-1.155863225905192 
-0.3054895918406806 
-0.1902102326609435 
0.004174237982736177 
-0.02460804759023668 
0.5865357473760675 
-1.66100637482347 
-0.3059917449499581 
-0.8096806380219214 
0.3049316388991594 
0.09049205680231465 
-0.07288877365143057 
0.7618394760279263 
-0.09878324346120952 
-0.02120364998835795 
0.4385809480173649 
0.3497104926581571 
0.07110861755686081 
0.3189982442373304 
0.4376607382923101 
0.2268127411558724 
0.8083563998365008 
0.471541033507417 
-0.5402665863751647 
-0.1831207168516709 
-1.127918881250688 
-0.08937448580101239 
-0.004448223118770577 
-0.7867085589798801 
0.4555137784147283 
0.2358226417082176 
0.316386918753545 
0.4728510775926695 
0.20471294238253 
0.005258610268982914 
4.117550740411267e-005 
-0.1232497160070908 
0.517475371207809 
-0.4461902426916452 
-0.6247565742676823 
-0.6444510289702733 
-0.02407102236690263 
0.07760838022582858 
-0.2250861247522755 
-0.1753081706510364 
-0.2277837139629564 
-0.1318273363956883 
-0.1952173215227428 
-0.2300742232143803 
0.0647270548066569 
0.3153805686027594 
0.210624872622256 
-0.2596025953107458 
0.2566841940741202 
-0.1261013355627166 
-0.1536564822209283 
-0.1366839702347338 
-1.471609393850587 
