solver_type L2R_L2LOSS_SVC_DUAL
nr_class 2
label 1 -1
nr_feature 576
bias 1
w
0.03909518843846349 
-0.2774951437004811 
-0.2627601069999299 
-0.418921647710808 
-0.5696110164693422 
-0.5778553357837661 
-0.1386108312818937 
-0.2533250510914163 
-0.146185735185168 
-0.5282488998933914 
-0.3365590682126061 
-0.7800426600745726 
-1.023632512394708 
0.271427576952739 
-0.2110419974194885 
0.01435053325158388 
0.2941878209026873 
-0.4641343367657893 
-0.4518212641693518 
0.03725800903745893 
-0.3018919859410364 
0.2332219765030163 
-0.3475247029903473 
-0.2158111198500025 
-0.1410743966739354 
0.4735477505009404 
-0.6073317979900244 
-0.1799927685473203 
0.2806568764545086 
-0.214143195442858 
-0.1484850045444303 
0.3102709826276797 
0.8622670039989488 
1.071948902720744 
-0.7499306678067663 
-0.5047784354329046 
0.3397255562791376 
0.0369589411703344 
-0.180115707572357 
0.7686932539217536 
-0.2568189172760058 
-0.8093046271715676 
0.5477249242109566 
-1.030380608955206 
0.8629019423429364 
-0.07601204166638192 
-0.0131198210093662 
0.5456976218793607 
0.6079083664104482 
0.4958361103845431 
-0.1958841080287892 
-0.1552818918039476 
0.8435035116294517 
-0.05013171180056147 
0.3340626240848842 
-0.9170249572430758 
0.4612527787276926 
-0.2503774722525355 
0.5357557222378285 
0.6786582009689162 
0.2383716420409159 
-0.2367236918713785 
0.4374460753585194 
0.4031669870425831 
-0.3843733896399578 
0.07185126761307502 
-0.06340750422057349 
-0.7103907712574972 
-0.05951304408392101 
-0.4650778784279808 
0.6001167149022354 
0.8082792952668773 
-0.112781977987255 
-0.4111940343337194 
0.07559979841049841 
0.08318604213381325 
-0.627062143551719 
-0.08839694405898577 
0.07929574880317189 
-0.14863466481129 
-0.7496317001817523 
-0.5757229671625186 
-0.09879220779989716 
0.03402447127679115 
0.4845696140810631 
0.7496925193103713 
-0.1868087375993594 
-0.5497024041347395 
-0.6304277078932915 
-0.3842558796574396 
-0.05609597099062181 
0.2969627064049778 
-0.01921778363012281 
1.16339673748353 
0.3651062715087078 
-0.4716411444216784 
0.02752800466067189 
-0.1305575219053468 
0.78258743123728 
1.085648279474976 
0.268618897711405 
0.07274672402572403 
0.3815509110646852 
1.045102167894134 
0.5185348683640867 
0.4109453702696979 
-0.6175911196905906 
0.3681771002484799 
0.3081093902806165 
-0.2239621162706107 
-0.4777436955787459 
-0.4412884176991553 
1.405996532843157 
0.9302704946070434 
0.7514852710979896 
0.3479807347493571 
0.3978339917950089 
-0.1778973924623059 
-0.127261278236278 
0.08530133082906263 
-0.1104994246892084 
0.5609877275860566 
0.3808550508252384 
-0.2482356613783567 
-0.587813346688817 
-0.004632126129929755 
-0.03148145726472295 
-0.05990901059142231 
0.4575883208028548 
0.6460176354680592 
0.1275754619571973 
0.03661745544127525 
0.03588538946017169 
-0.3065326211449708 
-0.1281932382404741 
-0.3793971104699243 
0.4350204479598941 
0.1969422915846486 
0.2414506182425714 
-0.1367515916896668 
0.2297888072444263 
-0.9170070066590458 
0.2002282313981483 
0.04094567434896815 
-0.2049544275031097 
-0.6412398405658908 
0.2508864197451508 
-0.0632882973069866 
-0.185021422205956 
-0.04354914182644006 
-0.6935027281222659 
-0.2990286121758916 
-0.07950690978020056 
-0.5356061284518962 
-0.397288722793686 
-0.02270420567837704 
-0.1546051179688035 
0.06620609646378502 
-0.3365099176039972 
-1.122169144595908 
-0.9013619509543432 
-1.149009920020994 
-1.068038613713547 
0.180755630543162 
-1.495519395417489 
0.1158337283199237 
0.1152782062967272 
-0.5393836277063915 
-0.3744007667778938 
-1.458732817656715 
-1.069590329288954 
2.051449636885003 
-0.2826562785484619 
0.6184355532172519 
-0.1967456150187429 
0.09412774096529035 
-0.3635063835345889 
-0.278631330195331 
-0.4340744953158241 
0.02042210122307894 
0.1350377754006219 
0.2589155682561503 
0.5577979207804094 
0.4604412314526015 
0.6291449058356301 
0.8165148739184412 
-0.07302095316048214 
-0.3130208680876165 
-0.9200472650625017 
-0.2953622841269044 
-0.1654575459215421 
-1.207394905542215 
-0.3691873523396079 
-1.317099175690057 
0.9292994555654346 
0.4625515842785178 
-0.2750261905639747 
0.246754136796659 
0.5072227494648628 
-0.1585209664860081 
0.242110773318269 
1.113350033712607 
-0.1666875838089549 
0.5653264707585333 
-1.135078450127425 
0.08284618126656167 
0.06557531609335519 
-0.5261475042243564 
-0.1284079931433499 
-0.06083127776847975 
-0.3327335737280851 
-0.1198315505558385 
-0.9575993538566606 
0.059270251828869 
-0.2598527438331774 
0.2299092883968588 
-1.084296093004167 
-0.3936601038405505 
-0.2075164957484659 
-0.3727200848534484 
-0.4574284950026185 
-0.1450789240155712 
0.5691856972416761 
-0.9053362298714042 
0.498277511020004 
-0.716939960995469 
0.08902129847263229 
-0.4931776640059158 
-0.2845789458006485 
-0.6599391935968766 
-0.07708741097465054 
-0.4667935194413811 
0.003641364472611011 
-0.4439602865685899 
-0.3132501741945635 
0.1824871831543091 
0.06340309444146201 
-0.1303743134573734 
-0.06196515468356711 
0.06585655246110023 
-0.008714701812716191 
-0.3513534481003473 
-0.1680318386736323 
-0.05563447069037003 
-0.3593174775834189 
-0.4732451060814255 
0.3667114770730577 
0.369074857942773 
0.1315993835570979 
-0.1161453034001363 
1.153465621459707 
0.3133913399212064 
0.5042418726183683 
0.00735663266850645 
0.1035505722269582 
0.8521762656001624 
-1.231238746562681 
-0.1915384202209117 
0.1385304439328237 
0.399861457745373 
0.7414091562863651 
0.7699554490864844 
-0.09955455594028718 
-0.6009209170117219 
-0.1318720367662901 
-0.3933895015012856 
0.1397166774856679 
-0.5916676248949515 
0.1242373353649559 
0.8874556634257483 
-0.7292884299219945 
0.9254400625220298 
-0.2274528971221406 
-1.152310244796769 
0.2071009422503059 
-0.4069940671452317 
1.407728963589693 
1.048373803816965 
0.5430352564760653 
1.058025937382615 
1.337258620321956 
0.1409554971541744 
-0.3846721236376579 
-1.512855605161418 
0.7523942101287876 
0.07850361319960715 
0.9572864580293005 
0.5601775505565406 
-0.3189098440345864 
-0.8684446600215938 
-0.5074028035257522 
-0.9824117450999429 
-0.1590263110272842 
-0.3573383443886365 
-0.2024034827051181 
0.08133677005253658 
-0.7240080860480068 
-0.9112214915187556 
-0.5414417527154822 
-1.070592780720017 
-0.4017859761807855 
-0.1681086951261377 
-0.501813388773882 
-0.09375757210153232 
-0.0670310708795886 
0.1808391318598996 
-1.209759598616642 
-0.1318468984306826 
-0.3915837388378373 
-0.5252477426490518 
0.9155206635799804 
-0.2832169185241054 
-0.01074947043703147 
0.4072490503056973 
0.9860757667625005 
-0.4286964976046956 
0.0616818516841991 
-0.5045830269932631 
0.08983046362289227 
-0.4769882915050275 
-0.9941968654938805 
0.3970272671280021 
-0.04950775013629636 
0.4985313696969113 
0.2126154654225007 
-0.6820680523288969 
0.5446488448743667 
1.006525348962067 
0.02618328764540204 
0.8974165485882979 
1.57658043836978 
0.5173488668502505 
1.23600639065269 
-0.1107973544496408 
0.08613205718744457 
0.5352398117986202 
0.1043651476164391 
0.09066343432654632 
-0.4431759280850952 
-0.7100170392889655 
-0.02168761060750589 
-0.03986401737566452 
-0.790358883949943 
-0.4884184005766039 
-0.4489369283792406 
-0.1099425786552725 
0.7701379013023545 
0.617976766697446 
0.7847880582110189 
0.4239909080481351 
0.2401553234410229 
0.415833666724349 
-0.2776678338721378 
0.2892086353139564 
0.8849580231159053 
0.8921010680504573 
0.08903187526484227 
0.285988073724401 
0.5050849753536861 
0.1553605927756058 
-0.02047158879707006 
-1.606641473760858 
-0.5255647881992326 
-0.4039596666465978 
-0.717684120901338 
-0.3366300332673084 
0.4461837827672538 
0.8400931922324904 
0.4626388121827322 
-0.6298614451607264 
-0.5217810790457549 
-0.00560982406083419 
-0.2181553409601377 
0.5875014800557615 
0.6475331271312642 
0.3912881666364638 
-0.03936851691311868 
-0.3649867241934323 
0.03861907098465999 
0.1883618411650792 
0.02288459023416643 
0.3608281973829757 
0.2578955088759561 
0.2911256935394742 
-0.8023117417701032 
0.7525761967167221 
-0.4899961679524053 
0.4643756797251 
-0.09870667765877274 
0.4603620625286098 
0.08705845059642993 
0.54007687423589 
0.05534986551759961 
0.1684997580592692 
0.1499443993760986 
-0.2120532624100348 
0.02392773695195993 
-0.0279880526706169 
-0.140312068510978 
-0.1092773976406272 
-0.2076301258334213 
-0.3047001472672577 
-0.1076596025309862 
0.2603360555639461 
-0.1274480314664599 
-0.02260080714946958 
-0.1767446374184135 
0.145147195266159 
-0.3006919064005439 
0.02114102294268554 
-0.506717044103924 
-0.3403244753658842 
-0.518180029454803 
0.1076383858103372 
0.4961606112881368 
-0.22811788620459 
0.4645634348335419 
-0.7150336207779888 
0.04315051105230148 
0.08661323815636414 
-0.3772627591512749 
0.1551681880094617 
0.0694951633429422 
-0.131740682910673 
-0.2372566727954776 
-0.4212991418694025 
-0.09682750464103684 
0.03215002844407669 
0.201795798900902 
-0.3741313767399143 
-0.4013721654958284 
0.176814458268017 
-0.235863336675608 
-0.3691875890053604 
0.05669603067179032 
0.2527453365472764 
-0.2280624977036742 
-0.4253174213599654 
0.084522161587683 
0.3144288311562528 
0.5577781407744071 
0.4803485985509575 
0.4696542050406524 
0.2307099192395309 
0.51530466154094 
-0.7225953116216407 
-0.08217374090340313 
-0.2498148354427819 
-0.05131292347342103 
1.114724479681261 
-0.04559695389966043 
0.03891146324872527 
0.1972833262922563 
0.2844365086662919 
-0.2270088527958353 
-0.9026956472221859 
0.4659683679098616 
0.6023699231958567 
-0.7115663458424285 
0.5607865386699051 
0.5901972424551528 
0.4250153878548916 
-0.03066446334840213 
-0.8570200198176106 
0.450984895615179 
-0.3118689463145571 
-0.4150910746616287 
-0.5692952538618658 
-0.06514703169921005 
-0.08360658730224235 
-0.7704848317499335 
0.932929573444703 
-0.2052769230266402 
0.9648012032429464 
-1.179235661880055 
-0.00795117598166452 
-0.02187261605504242 
-0.24695781881155 
-0.07336795419196408 
0.911394788420564 
0.02801225296370849 
-0.496284831781401 
-0.07279119076124613 
-0.07208422545242925 
-0.006753944451087475 
1.030741103912376 
0.1414032368687623 
-0.1184897520902929 
-0.1856951829858168 
-0.7257463053614262 
-0.3086684317809801 
-0.09044658504419292 
-0.4254469664298264 
0.9892936321142978 
0.1746604149610172 
-0.1747204880307996 
-0.03831898597192903 
-0.3020412902323803 
0.1101497477363221 
-0.1874425218319423 
0.2391464778458589 
-0.2837783384560639 
-0.2702029104115677 
0.119005066334894 
0.08115256584291797 
-0.0327417431266494 
0.1918295685142184 
0.5841518375337187 
0.3306441695097516 
0.6232553287435289 
0.6894355810704522 
-0.177115919403553 
0.3765248159946054 
0.50747976752528 
1.357955617006398 
0.4429255817933803 
0.5823382858272823 
0.4834267309681641 
-0.119250755941901 
-0.4602428759135686 
0.8923506731103891 
0.4549981909246258 
0.451287901774323 
0.323687424130441 
-0.3065102453428103 
0.7515414743428666 
-0.4958588762317713 
-1.286976145116563 
0.09595985231935794 
0.5758465173008944 
0.563333707249107 
0.512868666383112 
1.035010082670908 
-0.9372453202324121 
-0.7305130998827448 
-0.5372035852936016 
0.1953373283548439 
0.2868558792706337 
0.2112005551015006 
-0.2580457320725462 
-0.258440648590399 
-0.1535987776976407 
-0.002641287554832183 
0.1918562277208615 
-0.03669856369669941 
-0.2182355407059491 
-0.4347959120363004 
-0.3162158708277329 
-0.5946486506672931 
0.0212655069078 
0.001400976861675274 
-0.4526649511734123 
-1.184614515421445 
-0.5232682056177841 
-0.2330430284527916 
-0.3959152896493196 
-0.7144794556407117 
-0.4236328901450388 
-0.8628484818775647 
-0.04874379259572098 
-0.2121242518848912 
0.2196804418632158 
0.04717563537967925 
0.2160713756752304 
0.5939391772139796 
0.1117094237472228 
-0.01291023119771397 
0.4172560721014545 
0.7346205018011861 
0.2050745009258663 
0.3000784760787025 
0.5061820456375676 
0.2318536253197089 
-0.2995581515101846 
0.1365304598133326 
-0.1087178345282744 
-1.910010373618602 
