solver_type L2R_L2LOSS_SVC_DUAL
nr_class 2
label 1 -1
nr_feature 576
bias 1
w
-0.2113946249310596 
-0.404293122903279 
-0.4403880676127163 
-0.2429408986014995 
-0.1057418835272582 
-0.1528885522721291 
0.2948618082686427 
-0.5886347197089971 
-0.9427421551762178 
-0.6735778476525167 
-0.08316440020240037 
-1.115941659499202 
-0.6868704901266282 
0.0703180887166462 
-0.9241701576807604 
-0.6112947341047008 
-0.9691904928717054 
-0.2803908466886292 
-0.0630675449536791 
0.07148045652441112 
0.6607371997934627 
0.687459472156595 
-0.1737108404101895 
-0.2412563055970084 
-0.6498093259142026 
-0.2888169048818987 
-0.4482845356022177 
-0.5728892554440501 
-0.1709472664624982 
0.7585455633828914 
-0.5442616586712942 
0.1295636688674314 
-0.2137015094160425 
-0.1756420349118691 
-0.1611436540261535 
0.3124396083005694 
-0.4865534025650622 
-0.5422520020802393 
0.3228292991569823 
0.54913784555214 
0.1042439486843247 
-0.2544763462918515 
-0.607905959671841 
0.1570219092054052 
-0.4320041803415077 
-0.08020511460980766 
0.1319072965224583 
-0.3588862874079735 
0.4148125722173905 
-0.005395872605071288 
0.107397766922633 
-0.861393445802719 
-0.4816896050327746 
0.04940971631396277 
-0.4226302151766376 
-0.3910749354222011 
0.4508826754273848 
0.7374788433897587 
0.3264520987188963 
-0.3389757134889953 
0.1767209687938679 
-0.6962593793336168 
-0.246110494468341 
0.06805378074814744 
1.121614216212387 
0.1965400397024612 
0.275365649826648 
0.1462068900702846 
0.02048292238504888 
-0.801047988914294 
0.2319796138779768 
-0.4205245660603703 
0.6786881207814417 
0.2677488694470823 
0.8264017763045827 
1.06732058625211 
0.7307046783469261 
-0.1528766052897395 
0.6935098971455725 
-0.1440682839381141 
0.6871807072788275 
0.03644964708902078 
1.407901024369734 
0.6436925079360151 
0.3710217230869362 
0.5624665160978023 
1.191515876181751 
-0.3116268412828813 
-0.3709166073602718 
0.06192005297233114 
0.4595695657355024 
0.4896134814393152 
-0.2907723174850947 
0.360990682883935 
0.6533194836321445 
0.1283160115448324 
0.1006335450684137 
-0.02933291066123667 
0.4180526615421485 
0.1368939414805915 
0.7246950504349817 
-0.1337535809323738 
0.2196102745311634 
-0.190441172873413 
-0.3817063922063792 
-0.7151668150608072 
-0.2476121931700834 
-0.02128074223621736 
-0.7270918189496394 
-0.08291942134406155 
0.04575129524294373 
0.199727171364357 
0.2985136599604272 
-0.2186338717611213 
0.3013585043883001 
-0.7189713371645538 
-0.9659721626269781 
0.1534799541770691 
-0.3685214980820852 
0.1013230596603818 
0.02025255333880068 
-0.1096108921664419 
-0.5812300850094118 
0.4335738048907768 
0.3047782407669144 
0.302807205655897 
0.1731130231354233 
-0.2586503595713301 
-0.6291900277768535 
-0.01416426869269647 
-1.113747888633703 
-0.06040703318688172 
-0.5313862699643573 
-0.5514954232099185 
-0.7760965409852986 
-0.1777517011348591 
0.01011358617001204 
-0.2705246886552468 
0.06034823263281076 
0.2887958701449642 
1.083930866402373 
-0.005975520254963473 
-0.2955395886163973 
-0.2716596229235009 
-1.038892733927309 
-0.5316808129252538 
-0.8045392558937817 
-0.3954560785990369 
-1.119577709890053 
-0.9781246268700855 
-0.4219004590111641 
-1.304308011160794 
-0.2124769947302491 
-0.1965946846011657 
-0.235843974616529 
-0.2210777257385616 
-0.4923982145793164 
0.04987154663130664 
-0.07230771278500829 
-0.6259746342380064 
0.3493693689940121 
-0.2041616289870816 
0.180829810927964 
-0.2310634236921555 
0.6440335399068642 
0.6754145017742268 
0.64247665242536 
-0.1227132847598334 
-0.2424197314393981 
-0.398687226005996 
0.1124474637514953 
0.03422047657712209 
-0.3142207556331429 
-0.65351284293309 
0.8882575388233133 
1.285090826008277 
0.5147756558269284 
0.2702447160134112 
0.03316316702044533 
-0.3669225906699324 
-0.1919180050753305 
0.003417888780537844 
-0.1859799332804462 
0.6264028752317916 
0.5214047854334296 
-0.7706199197692926 
-0.9353385566815973 
-0.2472715853166355 
0.04694745561147843 
0.1322103835834462 
-0.2438027833285854 
-0.3150909510895418 
-0.3582170672303657 
-0.7284289010448614 
-0.2354224909981215 
-1.151434699057372 
0.1939736195257083 
0.2675236004018732 
-0.2608315130301821 
0.03358310006212 
-0.4312072479176409 
-0.2037683789623495 
0.6651743531651594 
-0.6115903786612659 
0.1916843496559266 
-0.2126598490501309 
-0.0792165062410911 
0.5047706332347199 
-0.2474553534270043 
0.7060278871320084 
-0.3320896419163729 
0.1732432880714204 
-0.7510966019933967 
-0.2716750648711577 
0.04906411715323665 
-0.3289804592616368 
0.2692412441148084 
0.0684297784577924 
-1.039234232910034 
0.02731454057457843 
-0.08491427576286552 
-0.1147857271003412 
0.6807406623429329 
-0.1298373668867059 
0.4563851918069145 
0.8625235110439427 
0.2900868924015045 
-0.1224099118795009 
-0.3880196387706099 
-0.2645812326158177 
0.8167943231793782 
-0.5476048648419152 
-0.2278030021372272 
0.2936451783773159 
-0.01920685572227121 
0.7266240179009816 
0.2405290776882685 
-0.2355337491248281 
0.2600909376025839 
0.6687736987181062 
0.1628307735842293 
-0.1546430116960786 
-0.2044258238153551 
0.5051556190855348 
0.1227061792249798 
-0.1667804595482393 
-1.184709347405331 
-0.3050936715206626 
1.532684227006854 
0.1849258058821851 
-0.6710722169686715 
0.5883386000209203 
-0.5965281064189871 
0.1574860992352539 
0.6395273811030723 
0.0309182813150993 
-0.3414105138423684 
-0.2083446801290911 
-0.1062536665824992 
0.9381218103489462 
0.6574552774293893 
0.1100571142908562 
-0.362839384229062 
0.8837217048082061 
0.2937780356109922 
0.2280309313686009 
0.9140393096818786 
-0.3326590652083456 
-0.1204939754414691 
-0.2563652082546804 
-0.4762202252727235 
-0.475637106293261 
-0.7751743831567922 
-0.4450764781462105 
-0.08850622518533341 
0.1685478631313094 
0.01123585536152158 
-1.293758964445805 
-1.660400837063109 
0.1434209643197664 
0.6415604363339298 
0.0006301691115535784 
-0.3838241564360567 
-0.1199560077577927 
0.5362560887979261 
0.4373304579569646 
0.1611066542717372 
-1.994149941689001 
-0.006668155326388558 
-0.0026090528459284 
-0.4485273030618365 
-0.4133761228122034 
-0.6898017259499314 
0.9943595810178864 
1.009123247224221 
0.7857722173067773 
0.01373097060716217 
-0.226463605114771 
0.7130686467548799 
0.00207240788285822 
-0.8785924144256987 
-0.004144064744196622 
-0.5672909866712613 
-0.2116482111846745 
-0.1839985091242977 
-0.7224329051200253 
0.2550196818608028 
0.7382728742487524 
0.3211261797673418 
-0.09087134448500581 
-0.3365971589192853 
-0.5992249941698631 
0.3940039787973431 
0.235767547566983 
-0.5932504100869036 
-0.5192475248348295 
0.02657270234009228 
-0.3412542453136029 
0.4739753947777693 
0.3287053994536728 
-0.6479176210925878 
0.05547249997331705 
-0.5377718544123106 
-0.006306641656747904 
-0.01603339449311421 
-0.06869878792258972 
1.625013136176363 
0.2931386393773248 
-0.667664941682788 
0.03578702829398685 
0.6821761315219674 
-0.8684881690586833 
-0.2949777352808821 
0.09184187046280036 
-0.9305441885578397 
0.3018020869881565 
-0.1274786570542187 
0.5679970271708081 
0.234009234495609 
0.1299161759472433 
-0.1640599674940928 
0.007605543588682107 
-0.6417532663958582 
-0.746885405060413 
0.1904244788292178 
0.9894988224773829 
-0.1708685230108743 
-0.3566496185710477 
-0.5699128779634347 
-0.8268287920007535 
0.3789570760808853 
-0.4357811517387517 
0.07792188234082334 
0.8029578930693615 
0.2840381969084852 
0.670334635495326 
0.3836228987829356 
-0.5599538489129121 
-0.1998824479347328 
0.8955944881367677 
-0.09033370080878653 
0.166831034822727 
1.381106630933812 
0.4571294828031639 
0.05564539294365938 
1.188479763176384 
-0.8741361485560714 
0.207602002606366 
-0.5358077679247746 
-0.3507797431513169 
-0.02059549064119763 
-0.2305324710571081 
0.800006440528706 
1.329517356225769 
0.5157688243543684 
-1.629079965262752 
-0.7827484607425885 
-0.6809052777847372 
-0.6969644040109065 
0.5388211213729091 
0.3932122032123027 
-0.04830125010305843 
0.06409268269361815 
0.4287343220332123 
-0.02860243695085702 
-0.6330220865586193 
-0.3276548531832284 
-0.003014272667624481 
0.1026287594592646 
-0.1119648035789163 
-0.8837232823971605 
0.8451361908581666 
0.6889621315440041 
0.3416159231699246 
0.697149248886259 
-0.005438644192803039 
0.2888811232100684 
0.3406386333797052 
-0.002560935989149391 
-0.1043588309107291 
0.2535617506157468 
0.7431151700590296 
-0.3701067036735429 
0.9125367988456233 
-0.337958682306668 
-1.495728022933916 
0.3661165996414223 
-0.0630106884465768 
-0.8441199047572481 
-0.2061090059594505 
-0.1776791902376381 
-0.1506203921457116 
0.1419597124217042 
0.5940854829004193 
-0.04203832878372107 
1.404998630066098 
0.2927920240637622 
0.08853995381160189 
-0.01492983922136311 
0.02372292234360767 
0.6111929652779379 
0.6517296841732663 
-0.1825555150884653 
-0.5772221570320827 
-0.07256130770337003 
-0.8487244070220401 
-0.8190343017371452 
-0.4168154911537687 
-0.3324434530886907 
-0.4868976372189844 
-0.4274047026235333 
-0.4082840374632793 
0.6182913217629471 
0.08310533141513141 
0.7897042387879033 
-0.2609239369103795 
-0.7743017133193766 
0.6853312027050948 
0.368908041783438 
0.5221304782910878 
0.7389012745742848 
-0.2686678828638132 
0.5666252718076833 
0.2932906710546929 
0.1815555846526368 
-0.5747664772972264 
-0.6691211577504079 
0.07023409822893502 
0.2501428404490535 
-0.08562190284798618 
1.084524301816114 
-0.7332748450447001 
0.1939052586030935 
0.5402114893009593 
-0.7812490576600149 
-0.6148938678924848 
-0.6249883768084377 
0.1014816894340173 
0.4710445435042809 
0.2128088690718578 
1.541845485468516 
-0.5494607477886273 
0.596166727490519 
-0.8539929318190955 
-0.4958987085398624 
0.2204144069838418 
-0.01442465515452402 
0.5526727342345028 
-0.04216155778962209 
1.011563196108261 
0.2194416343142037 
-0.2450173700897845 
-0.5158627321110351 
0.7734629128733672 
-0.9135642805193244 
0.5408392871742846 
0.5448391661358406 
0.3044655745103941 
0.6597794696714547 
-0.1104834597259376 
-0.5188399449528374 
0.4086686501209986 
0.06419145666215338 
0.3690631704309159 
0.9432311142305556 
-0.6830019642179246 
0.01824690783717623 
-0.4967612478341156 
-0.7358855961775146 
0.3418072999009277 
-0.8282538762001336 
-0.5698703756997303 
-0.4455061987833768 
0.8774031882878446 
0.9549428692150092 
0.04733437687571436 
-0.1649913796152525 
0.006543644273425206 
0.4133911097124371 
-1.164265515014371 
-0.7225585624911641 
0.3215261036388821 
0.1127689260272642 
-1.01330840279499 
-0.5141059853812091 
-0.8252398662951918 
0.5988677729624921 
0.1862876176258067 
0.3299640700551203 
-0.04872752434942869 
0.202136440950043 
-0.1594858650014077 
0.486091871861793 
-0.1398550765978149 
-0.4115629970275973 
-1.040488885685744 
-0.1318745754351271 
0.1022699277366383 
0.2313089423401801 
0.03284953027037749 
0.3854034125305012 
-0.9671526062069737 
-0.4383674225972712 
-0.9361761551392224 
-0.2217373211221682 
-0.5444494379591873 
-0.2300984847320862 
-0.03238255190526192 
0.9931067684495004 
0.4777273937968191 
0.9263794605319666 
0.4203062203187473 
-0.1920060711204538 
-1.253570311101981 
-0.1642351932877905 
1.35503113207005 
0.01448182359525949 
0.471437435852168 
0.1338167445236089 
-1.03186188490851 
-0.5841020695887504 
0.1824198036200468 
0.1823936288228024 
0.05351934534944147 
0.2138082312755494 
0.1876584050443755 
-0.4108949614753915 
-0.004916858354564883 
0.3736813349804314 
-0.6913076215781234 
-0.16640387913768 
1.381477362742858 
0.9753862961931424 
0.7773577594858525 
-0.5386617114765256 
-0.4530855047534937 
0.0916154571164529 
-0.03590898841047183 
-0.2528703842659966 
0.3399803196536708 
-0.1517580819790282 
-0.103010938557764 
-0.4639457081848994 
-0.5102996348893606 
-0.1804726015770127 
-0.5607755368422394 
-1.141509727157376 
-0.5983043057562031 
-0.4265030428752936 
-0.4160240223760507 
0.1578338106084121 
0.06474820290248506 
0.1446912727858266 
-0.07068514920087761 
0.2001431317559853 
0.1820802097247441 
-1.436738783019805 
