solver_type L2R_L2LOSS_SVC_DUAL
nr_class 2
label 1 -1
nr_feature 576
bias 1
w
0.188524628210422 
0.160186334516358 
-0.09762817475407098 
-0.4055879535706281 
-0.6861641537532092 
-0.3504926273372037 
0.3065268837196021 
1.083319074043889 
0.2591634914538323 
-0.06710913402331567 
0.1603861016963292 
0.181001663876794 
0.5048228527630372 
0.2445159095760895 
0.5113451427932167 
0.1843199928529895 
0.4928540907906545 
-0.09855915092423681 
-0.2820216066119856 
0.4511849656627743 
-0.1424026794409645 
-0.09160471758933739 
-0.7340160410016888 
-0.7190130854922174 
-0.1068159360563586 
0.1720856904555103 
-0.2618887456010398 
0.1266170489815229 
-0.7596256455536894 
-0.08058682675527944 
0.8644037645390166 
0.1172418204768947 
-0.2108795477904641 
-0.1841799154759096 
-0.09216235413537478 
-0.222469651854121 
0.1306870349240228 
0.8607790603710832 
0.5595573229450378 
-1.190809385553299 
-1.058182182065752 
0.1045599915444303 
-0.04316641989979562 
-0.5966241875449939 
-1.016696770661065 
0.6673867433916034 
-0.5911948615501319 
0.9100175705393141 
0.4904336004406901 
0.228520887233497 
-0.032868598287033 
-0.267788850119353 
-0.5666329126443322 
-0.4700076793399781 
-0.8607370894097038 
0.1141494445673123 
0.9123720938735878 
-0.815701730983577 
0.3393693026364779 
0.1763015500077381 
-0.2091504072971978 
-0.03616070354203754 
0.3848442665423248 
0.8277132876212798 
-0.3960475428542959 
0.2717671798847298 
0.3314367396127897 
-0.9121329545834429 
-0.6250212453906355 
-0.3425515469373432 
0.09904812432709435 
0.3518788035121883 
0.337319369941568 
-0.05702014421703738 
0.5161674859497359 
-0.333808154131533 
0.4401962680746129 
-0.07730219344669584 
-0.956632641695308 
-0.2810887812176928 
-0.3779827307155208 
-0.3584193332582144 
-0.9217374632105914 
0.2181698679921568 
-0.4318751493858794 
-0.167205823383515 
-1.045994992673488 
0.3568302038974939 
-0.1213395872321416 
-0.259712552920394 
-0.8289635122562926 
0.07554573872664848 
-0.2944122474468148 
-0.0786434902384289 
0.1525787277954774 
-0.02439419423736055 
0.1560823820633359 
0.02775481484522649 
0.359385218797963 
0.9346080077478839 
1.188742419080766 
0.3453987219855725 
1.030970540191639 
0.6437038738067737 
-1.100934140503934 
-0.2107728113007376 
-0.6625456305308073 
-0.4993702061137254 
-0.313338962158787 
-0.1302114728761512 
-0.01411082307883588 
-0.3149760291767844 
-0.260274462680207 
-0.3272989296234709 
-0.8364851532099593 
-0.6263369698041503 
-0.5833908536616517 
-0.2122565745287728 
-0.3741853008377904 
-0.1188619357150234 
0.5269491832846257 
0.2421394154241012 
0.935242706142299 
-0.01011542653923303 
-0.1760439776781075 
-0.4046433305539718 
0.7420032616981704 
-0.04158928539098557 
0.2102567207842523 
-0.2532329624728215 
-0.2270076763424334 
0.01543947350621811 
0.1865080294576879 
0.3651218523436758 
1.364414552955209 
-0.1422867713690763 
-0.5260916007434183 
-0.16940851508653 
0.8790419010711262 
-0.05654242593021281 
1.193381710374802 
0.08539836609333117 
0.1352730246820058 
0.1036900272260307 
0.5560768262476703 
0.9232263327702183 
0.5937770780285359 
0.2194601440699271 
-0.05403769027995151 
0.5269531146987444 
-0.0980778110513273 
0.4945244969632644 
1.127536905086441 
0.04581107758307863 
-1.123905691223474 
-0.7349467351932693 
-0.2609804257862007 
-0.5569525820320683 
0.3055893925603904 
0.1268362915214306 
0.5358432221331292 
0.3732766092669835 
0.7421565383814129 
1.050645324172313 
0.5651357012737166 
1.118199666336971 
0.5575827271254562 
0.7308148607816388 
0.4116209173873627 
-0.1370474483353828 
-0.4786827172411622 
-0.4009669803400084 
0.2930291970395202 
0.3758690251402214 
-0.6392954493716331 
0.5614666250674381 
-0.2156189813254265 
-0.1421222527275965 
0.02449712454984311 
-0.4862638337942776 
-0.1829279336786227 
-0.1942030469226593 
-1.312435019442703 
-1.66809171317879 
0.6018210711869892 
-0.4743035174583488 
0.3437221730353132 
0.154989482344278 
-0.3905416561138297 
-0.6143586726591507 
-0.9487283991727386 
0.3467726822504278 
0.3503358802031652 
-0.07499093645212647 
-0.3427915692927235 
-0.03603236412066482 
-0.100521561484646 
-0.505841836324796 
-0.6242697861129131 
0.690360516946948 
1.093396357686542 
0.06447262540009267 
0.3010210082744215 
0.7361211605061031 
0.8398590536139259 
-0.3759739434744625 
0.4064290693402319 
-0.3328407071793007 
0.08302254597333214 
-0.6762170783371653 
-0.3531836872907584 
-0.04901845298202111 
-0.7097762705841936 
0.264684220040193 
-0.2812978486793621 
-0.2587381874588068 
0.2505649465390755 
0.6283174693517182 
0.5334526225810189 
0.1794554276453101 
-0.09457839491360434 
0.1315656004621123 
-0.315830128032095 
0.595943144764425 
0.1333953061229088 
-0.1167181868462033 
-0.1367018388096566 
-0.08397096291863415 
0.2681146370935152 
0.5679298716767065 
0.6104185229278301 
-0.7145079101346004 
-0.8378413349841484 
-0.1604047067127674 
-0.612341860789562 
-0.3378807766230391 
-0.2333016072480666 
-0.2364285442573537 
-0.1408775878222015 
-0.158186641354933 
0.4939998810462791 
-0.2349247132512279 
1.325211093316293 
-0.09064060713495173 
-0.2416781076953578 
-0.3359169898051451 
0.5370802293245955 
-0.1374910861805385 
-0.3616954979143485 
-0.5188815106579511 
0.004675506159656651 
0.9256336954606076 
-0.5039779207387806 
0.2733145114625818 
-0.3114995259287836 
0.5210733912775692 
-0.3030147271573848 
0.5772958145953434 
0.2178990518665334 
-0.4558606320009878 
0.1161008833242698 
-0.3721365795742863 
-0.1792036633175839 
-0.4673853957417393 
0.2540340436359823 
0.2919353228350356 
0.3942770071221983 
0.898063636986337 
0.934846539775451 
0.1253307416894516 
0.3408215181202938 
-0.9601807717958245 
-1.214711321208529 
0.4325958585540808 
1.472551298046514 
-0.6477792519064546 
0.4380558436488265 
0.1257270713624197 
0.3699281012561124 
-0.3662269684955922 
-0.5088117623432746 
-0.5137492118349467 
-0.4274959599991961 
1.057702729715117 
0.6523860744608094 
1.069014954345268 
0.5780509082501555 
0.07138007646078211 
-0.1951375332190392 
0.583404687997628 
-0.4137067607975971 
-0.08150874659890607 
0.0692992139305611 
-0.503866615781155 
-0.2105393251491585 
-0.06576333866781904 
0.03519294371374011 
0.7797409848840559 
-0.2604303707939385 
-0.4090364845060941 
0.5028642595371169 
0.2295662471904722 
0.1950085104916194 
-0.329709794482085 
-0.1330457945500359 
0.5056403055294653 
-0.565793970874398 
0.3526120795223767 
0.6921029136343709 
1.016118469883971 
0.3856227505860733 
-1.143577682383063 
-1.316534264901543 
0.3299135645647346 
1.259193292118416 
-0.2332604296969602 
-0.6079105051860928 
-1.263319402488062 
-0.09830136046251228 
0.326390681056708 
0.8726808613784625 
0.1230050550055553 
-0.8096783350528893 
0.2558305263635342 
0.00300386354500729 
-0.5262975300558311 
-0.7016785741384143 
0.03337647127476665 
-0.2919897066303989 
-0.2324275097982871 
-0.4580872955633244 
-0.9659283341727833 
-0.9000148320846396 
-0.6601812163187213 
-0.08557983317579737 
-0.09769223950475055 
0.1280178383909217 
-0.07340041149092884 
0.04044244380057625 
-0.2343287381624279 
-0.08923312217221573 
-0.2571462146991525 
0.8980746565970948 
1.102641837600859 
-1.572865625946475 
-0.08678079423120876 
-0.477150007572817 
-0.2983334628777734 
-0.2504934437567944 
0.1836702509286761 
0.4028464308251473 
-0.3335712680039732 
-0.1670576310662099 
-0.5662753261819471 
-0.6345429664643205 
-0.01437477946733635 
-0.2807790517125497 
-1.17194029699944 
-0.9855558091727056 
0.6216320555388961 
0.2752885445141574 
-0.4427744884463653 
-0.898085927543854 
-0.1737301010109814 
0.2992797835042436 
0.7256895797431583 
-0.06815703895553088 
0.1638949465569395 
-0.7906392857594715 
-1.21645418576437 
-0.697631811587341 
-0.2907362989707075 
0.1493880053779402 
0.01021501532076189 
-0.5305282254643641 
-0.02237628730354886 
-1.005648448279837 
0.4127604048479348 
-0.7426080765302368 
0.5967836210793336 
-0.1132313061913764 
-0.02276038162569312 
-0.3447410392269731 
0.01949069893023783 
-0.128718803745402 
-0.1026519155077434 
-0.05355661912924379 
-0.02563849855911392 
0.1671011594543916 
0.1521486712014152 
-0.4266705105875327 
-0.006196980227071546 
0.4143609018740492 
-0.2062453779505988 
0.06032777031478826 
-0.5302029484399483 
-0.3256575434737566 
-0.2534672282606267 
-0.4439330630287071 
-0.1951570339537681 
0.6046881794390189 
0.5315412160831585 
-0.2006644418706459 
0.5075074220878437 
0.410032478083978 
0.4701962522149177 
0.4945237461658669 
-0.7294124511957 
0.482754335618184 
-0.6569593303165795 
-0.2362111320449956 
-0.9654381356363162 
0.5286250240632638 
-0.3904660147863179 
0.7022274916601227 
0.7554437233768657 
0.207850176540159 
-0.1171708105370746 
-0.1942744666332351 
-0.1138574920561393 
-0.4668837451986061 
-0.727662370470878 
-0.1115265762786526 
-0.179135482992986 
0.002043248603261722 
0.1369398936472529 
0.08562554443721712 
0.1916650857481082 
0.1556691584307479 
-0.04946720781874121 
-0.3751121832289938 
-0.1495186012357189 
-0.1669370578835044 
-0.6643392076268946 
0.1500088200810361 
-0.5374483549470451 
0.1401881551541 
-0.2244287625333349 
-0.5093810180735138 
-0.09273951384189996 
0.4524816443272784 
0.09043581274517831 
0.3842369988131714 
0.308438907354598 
0.01371808135697193 
-0.07159003581610439 
-0.09489836226459007 
0.2857885118369279 
-0.3227722795513077 
-0.139724663584007 
0.08611187929810073 
0.1304671692590372 
0.08704360538679427 
0.3563309783352692 
-0.425180467858105 
0.9441599081267068 
-0.4661197464293458 
0.0571623712024688 
0.07084703863184992 
0.1859509305114526 
-1.142020159786785 
0.005723698909559799 
-0.2714837630658389 
-0.5384492743615506 
0.1568790072490259 
-0.2183200143425792 
-0.3135943100372547 
-0.7021874466558782 
-0.03024658955564928 
0.6231322854359163 
0.1878721264911297 
0.6492237402663107 
0.2747034256519203 
-0.03942246376672052 
-0.3845105447895185 
-0.01675703393066734 
0.5130189740062012 
0.8854069221373037 
-0.3250208865023874 
-0.7888489747255972 
0.3487121121767705 
0.9589449505366174 
-0.1680735248555523 
0.3797237377651601 
-0.2161964678099076 
0.5354957608358418 
0.7708929445961303 
0.160955863302039 
-0.7847061369599856 
-0.2733208458169369 
-0.2353787626961257 
-0.1504514537640004 
0.5036438157222468 
0.5788008200160362 
-0.0813770169121863 
-0.1276889820698618 
-0.3386983559475717 
-0.3907037124126789 
0.07782415401224536 
0.2693937281437168 
0.2707556896675691 
-0.2753253581236944 
-0.07125784805412921 
-0.873932285118278 
0.1177651896644416 
0.150632182593564 
0.3874269321109899 
0.5752620357637467 
-0.06603559546050672 
-0.4478632875122521 
0.9358831618764568 
0.3417149716809542 
0.4272262541174687 
0.4652682415906501 
0.8819162571834908 
0.06984620095781172 
-1.003072938059978 
-0.5855558870238915 
-0.4187963802358909 
-0.2777170544295783 
0.5199421094486246 
0.2934563398591917 
0.01120976662263116 
0.06076999135972916 
-0.4317604045249782 
-0.336958247367821 
0.4398691534261562 
0.7006588950669163 
-0.05354537002993699 
0.4128608172245779 
0.1208288101301825 
-0.4066632491776359 
-0.496265213010493 
-0.7607783456548053 
-0.4828902255471924 
-0.5282285691886433 
0.3265735103048058 
-0.3395489730674277 
0.642323709528292 
-0.112164039175047 
0.02376669704095083 
-0.08734493738271669 
0.02125165511266848 
-0.3099977219114623 
0.2954195845555231 
0.05441281923230538 
-0.1162032764841028 
-0.09570645650063117 
-0.04462237697912591 
0.1407038361039123 
-0.1051407828450671 
0.5099032536904488 
-0.1128240663788755 
0.249493698594827 
0.2596839370771263 
-0.1487489993977266 
0.2668685148288969 
0.7992618693440649 
-0.7114697049622882 
-0.4253923452600472 
-0.2306861154552728 
-0.4369659713279818 
0.5004237520107384 
0.4292908409288366 
0.3147318476540099 
0.04827211108465019 
-0.06669739339521209 
0.2394681993847555 
0.3034968699274897 
0.1683825491364541 
-0.317929421399257 
-0.1735836187044403 
-0.2704536991048642 
-0.1630573617602738 
-0.11936924016806 
0.1129197116239784 
-1.605523601080167 
