solver_type L2R_L2LOSS_SVC_DUAL
nr_class 2
label 1 -1
nr_feature 576
bias 1
w
0.0727744869594595 
-0.2690046018977059 
-0.4558654493279554 
-0.379228827739399 
-0.402292522635088 
-0.04672785576040845 
0.2432189785175653 
0.2437136743070101 
0.2910439839231153 
0.1662214221419725 
0.1918477785755073 
-0.06525858067170177 
0.3079903641321942 
0.1456541427302739 
-0.0611313691123289 
-0.5492744325054183 
0.2755449032082952 
0.1362655667512189 
0.006564851547395197 
-0.652680670972242 
-0.6696625057549734 
-0.6939696627168192 
0.02474831315163485 
-0.6741832963321908 
-0.5716435954562122 
-0.5755900597735673 
-0.7886959904784555 
-0.4376567770192361 
0.03263978793542581 
-0.3905471864741326 
0.1574813777811701 
0.2077626608497251 
-0.07976112771312173 
0.7523405913671697 
0.438609158135568 
0.9420612332010593 
0.4855684432569847 
0.4256235756344111 
-0.2492057107953676 
-0.02154002529920738 
-0.1682854308047052 
-0.2181907901253333 
0.3480443814287278 
-0.1377150916793438 
-0.2269103497844996 
-0.1653965379158228 
-0.7423286858675999 
0.22104102035029 
0.09507902013285773 
0.1275875593970881 
0.9522656165170227 
0.7312427419019938 
-0.4647980131651138 
0.3675741884159199 
-0.4255224836417915 
-0.4531279073782863 
0.7440214950830362 
0.4918030054801592 
0.2400083052102217 
1.106703110041682 
0.5325267233979012 
0.8450780407361048 
0.2704242529554535 
-0.2073298024474008 
-0.4846000117565398 
-0.8483082688051011 
-0.1578880485920855 
0.3341557544609076 
0.5855704862703076 
0.4333965094303855 
-0.1358734474487713 
0.165751164438292 
-0.2842332377500097 
-0.1474802142637923 
0.7789950458581171 
0.05874352080983091 
-0.4074515556639803 
0.5246379115858995 
-0.7057391884832419 
-0.9568946554020751 
-0.5807708100916031 
0.3387215073537855 
-0.1577288442249469 
-0.8431569825373798 
-0.4080237668744102 
0.6081266534890855 
0.07439731498612483 
0.1527693054931981 
-0.5508629871463191 
-0.09181259997963658 
-0.1752103209049914 
-1.078420341921825 
-0.2400665375581278 
-0.3141819733755596 
0.3120111189296809 
-0.5423068598513551 
0.3359742059309472 
-0.05882288928115724 
-0.9243544818674906 
-0.7044687757275729 
-0.3656673161222515 
-0.008848438395443262 
0.812516208551849 
0.635027077535401 
-0.4512356891556364 
-0.1847101726410286 
0.05060840223384072 
0.14723067968809 
-0.3716524335246735 
-0.8459269902771325 
-0.6791325085723219 
0.9381345103509123 
0.6067122446107518 
-0.2958066175909766 
0.05064898552526974 
0.6601533361364353 
-0.7571319652332667 
-0.1150203806695401 
-0.9960412027493459 
-0.5407906554085039 
-0.2588497365122073 
0.1922117162501765 
1.187858414888803 
0.1594887399758399 
-0.5370711570931891 
-0.8868542824031666 
0.3421648217021664 
-0.2835978566257666 
0.2455831046029328 
-0.1909268564143492 
-0.2057043252714118 
0.8854626525536394 
0.7321501140843062 
-0.4664761570360752 
-0.09387352106239696 
-0.2795366356718351 
0.9689506564917995 
0.5026865723806419 
0.6601345183819509 
1.361569729016672 
0.3955875367148229 
0.281958792412539 
-0.3143012627918277 
0.4620359026955163 
-0.1330022914915621 
-0.2790154089798965 
-0.2739612505878758 
0.1601389838550666 
-0.4219613322615812 
-0.1211703333295188 
-0.4390995201069584 
-0.1601650182766343 
-0.4556561332271534 
-0.7056315561820113 
0.263268163360921 
0.7528875918699949 
0.6006362232459966 
0.6704034027355796 
0.3112927163443692 
-0.4654518970517944 
-0.5775580683141276 
-0.2759024350070833 
0.1812384923182169 
-0.2870527804892293 
-0.589126417287872 
-0.1068176428279117 
-0.2138630795489345 
0.1613543849164754 
0.1676146966639366 
0.1269415880572781 
-1.183180697556394 
-0.7592863499092345 
0.4034956631794512 
0.2961128095007846 
-0.7558168800505604 
0.3295657088030769 
0.4257144852723822 
-0.6383581487170711 
-0.6317995913090426 
0.3096303101220918 
0.3684632890458668 
-0.119384484121361 
0.3993070776796249 
-0.06724981540504001 
-0.1540454669622784 
-0.562446565084457 
-0.2167672335848184 
0.09624488139347559 
0.5077850730797827 
-0.5953302279941493 
-0.1152411360932245 
0.6214318826192037 
0.5392124712189289 
-0.4527792139921006 
0.2614314206388455 
-0.3907397457969989 
0.04930392364136512 
-0.04774758878634244 
0.5251697938675403 
0.1925842628674673 
0.1814577080070053 
0.1665439896006515 
-0.4584507570125679 
0.05513714006740295 
-0.09142553804779098 
0.2632393809647755 
1.191161576753647 
0.5701235666555041 
0.03798386324606062 
0.01357013122451996 
0.6850024707627699 
0.3002001214737844 
0.4402179298467248 
-0.2539858326383594 
0.7213956344585581 
1.037462912820447 
0.03062532074401362 
-0.07475040024386739 
-0.04687762186990131 
-0.9587374918146284 
-0.03973951720996328 
-0.158508276130429 
0.7095363603374421 
0.51037102055249 
0.1393961422170875 
0.2669114741269099 
0.4376958616336544 
0.2735522360166548 
0.1146262238342314 
-0.44297143049798 
0.6834778727235615 
0.8120995230808182 
0.05486318861654559 
-0.1480990884622261 
-0.007403385640188675 
-0.18594561829669 
-0.2027523526888992 
-0.2237118730492826 
0.01286410687906794 
-1.186675881569005 
-0.3993160133469951 
0.1159629482758283 
-0.3996403240756829 
0.8766481694085313 
0.2102508419269256 
0.5734270899888398 
0.04621479181637548 
-0.3948108881065156 
-0.01354682785984508 
0.9071788616922236 
0.5547632219270755 
-0.3116288540033121 
-0.4793679166467098 
0.4583624286547738 
0.03000792565440288 
-0.1094497711348792 
-0.3386634155768476 
0.2711470330327931 
-0.007231355208042781 
-0.1875968642817149 
0.4223596939444223 
0.2838555322297119 
-0.545022845429284 
-0.2716192940328592 
-0.3897175509561131 
-0.6380680271336161 
-0.03546632823208586 
-0.7677341822723801 
0.04399774890296204 
0.2949584404342841 
0.2293552944266916 
-1.195826910201431 
-0.9558643177026568 
0.76691274068035 
-0.3570328089201873 
1.081548899989577 
1.158640016581666 
0.2442986951915377 
0.93018374778008 
-0.108360085853113 
0.4475960984042042 
-0.09813840220762772 
-0.712333874128596 
-0.3653171762459064 
-0.2073750964181158 
0.1449984517631905 
0.5045315348859708 
-0.5201497711151989 
0.1833062345285402 
-0.1621169906490663 
0.0632656483199736 
-0.3594497131363211 
0.1154879911960928 
0.4822583595758992 
0.1486464223863909 
0.09109181794978992 
-0.8539182057273405 
-0.8551104504159451 
-0.2071708312084462 
-0.04548887017423003 
0.650950059562649 
0.3385518711057523 
0.4354063001766358 
0.4707047805495999 
-0.2402437277922921 
0.237777956783564 
0.3886960075535241 
-0.003512879395525265 
-0.3787222147150066 
-0.09406356638633905 
-1.680209909932234 
-0.8671552177751308 
0.2006608739021681 
-0.08755437883683913 
-0.5524938549073019 
0.7874225058166839 
-0.5802008786304395 
0.4281196780866988 
-0.04842469471387521 
-0.2085693010803051 
0.4656762598241475 
0.109122870641432 
-0.001948829085617673 
-1.19052818269572 
0.1421830525586097 
-0.1133676426151176 
0.05072368357073784 
0.386942005400135 
-0.1391065785908943 
-0.09256160688917117 
0.5837536828918298 
0.4099085809030961 
-0.5434569504217568 
-0.4171997970939148 
-0.5465345389327255 
-0.2013266518428445 
-0.5994070674920187 
0.7562428084949048 
0.07989353279227625 
0.0545073721011879 
-0.3915915101564506 
0.4737848927351743 
0.1457620595592619 
0.396546562140605 
-0.02880137459556323 
0.1689049598129712 
-0.8471322011142181 
-0.5630466392066389 
-0.3710877154736447 
0.2141205907643681 
0.1655414012326559 
-0.8138085785046987 
0.5304560321427665 
-0.06211495311780771 
-0.03351678943673815 
0.1669699451187135 
0.2044676300870329 
0.5803351952930755 
2.073757318151144 
1.170608162801504 
-0.03225192856186739 
-0.3588846666276427 
0.08366647984993274 
-0.04013146422497323 
-0.7989555825726069 
-0.09526248340509366 
0.1046894443921663 
0.1019525243423516 
-0.1788111177626741 
-0.2052939011741292 
-0.214970036738614 
0.01354516295742017 
-0.3422926884829678 
-0.4773703486911103 
-0.5493139467733392 
-0.7686551855841877 
-0.455189889971121 
0.07044184105147165 
0.7279147843917186 
-0.5572604384848595 
0.4707280301529229 
-0.3326676481161719 
-0.7657944049634609 
0.4049798238279485 
0.3936716786949885 
-0.1562174073166376 
-0.6977217112735287 
-0.5863100823048216 
-0.1461280169163207 
-0.04466302346006938 
-0.8151289488593113 
-0.7577776755007805 
-0.364636000879931 
-0.02994672973313294 
0.1713619895524374 
0.4073452069015941 
0.8495373773106923 
0.8814406254601136 
0.3005287296847124 
1.048769037740759 
0.3301839971448282 
-0.7879730181880322 
-0.4764835715385543 
-0.581959610860177 
-0.5984939538852944 
-1.003719081336112 
-0.4924347510812661 
-0.2307658052527452 
0.5647238718561588 
-0.0813223512848047 
0.01893983708591476 
0.7822400309222507 
-0.1615074284730207 
-0.3380404055258475 
0.3737288071816513 
0.6816144133133517 
-0.3411545030926038 
-0.3143282588502748 
-0.1442928870684027 
-0.3368842696757151 
-0.006313699198811899 
-0.08943872584538748 
0.03337904145683551 
0.3048213376166739 
0.04926985536795931 
-0.1573922268447296 
-0.09819546013021875 
-0.430330092022904 
-0.4753963683576659 
-0.6188648565711719 
-0.7812208304837176 
-0.4055722991939763 
0.4207054095597455 
0.7690883714820666 
0.1760341321520759 
0.281546549831421 
-0.2402116800581529 
0.1597102357858308 
0.2511217532912809 
0.08111705220361094 
-0.6093859086024688 
-1.145934198437469 
-0.6798950361600704 
-0.7762538167597499 
-0.5028280270512291 
-0.5038649209118179 
-0.05688223723815222 
0.4593287520701709 
0.1556570731966293 
0.6775140752868121 
0.3517780303823711 
-0.1030695620945849 
-0.01778293334625811 
-0.2583307843049621 
-0.11514138249282 
-0.06645667292820658 
-0.235122335743396 
-0.2789416625551397 
0.036781246185947 
-0.07463165830141164 
0.2041555154754622 
0.1012540729990843 
-0.4807791735338987 
-0.3864530796148869 
0.03123993313241745 
-1.007711175867001 
-1.212014441554431 
-0.44588925266177 
-1.009763478899353 
-0.8010299837926346 
-0.1443784619825894 
-0.2620950306256226 
0.1331693829149795 
-0.08963839736978856 
0.9762486587261309 
-0.2245336376222068 
1.211513735073693 
0.1310596731521677 
-0.4180967883723673 
1.036958946299653 
-0.3554725525261278 
-0.8415720769642743 
-0.514470320006043 
-0.557247103853347 
0.6227194542308097 
-0.009559516111495725 
-0.4662425304780402 
-0.7506965255017398 
0.2124725666739309 
0.5716453166744164 
0.1190452809231608 
0.4085170957970826 
0.345167587676727 
0.3564425759473667 
-0.1087862753318489 
-0.8682271621825788 
0.5341021959862955 
0.8583751960197351 
0.2540165233336518 
0.3647721399482456 
-0.1550092082984584 
0.7942476673253149 
0.5353884292764947 
-0.5375964033777749 
-0.08665005013509218 
-0.9375911216077144 
0.50657088554559 
-0.2416814306192375 
0.04966570714380699 
-0.1991084083217443 
0.1378151723979163 
0.5247917095851968 
-0.2949965125216609 
0.6928447794968107 
0.6554966409914528 
-0.1351056602703251 
0.5158038128600779 
-0.1211655001853776 
-0.2849101273516496 
0.08817120801812171 
0.1761702331846659 
0.7713802550642683 
0.1914611439581557 
0.2506009200467101 
0.3339023007921218 
-0.3113194805662879 
0.5285913805792782 
-1.067152424578018 
0.05982510340456058 
0.3603281946142681 
0.2845737533146397 
-0.5271025351886237 
0.4224384964105126 
0.3788097514376203 
0.05559796222795772 
0.7703585613381948 
0.2036116238413609 
-0.3308633015909175 
-0.7261183626181139 
0.1244163298265702 
-0.2495758837328901 
0.3913502113447684 
1.157630354506182 
0.06681054162159775 
-0.2370128812154914 
-0.6114346342729614 
0.06506038045630543 
-0.1847376204162686 
0.2980070050002843 
-0.5204709101383905 
-0.1407226095233712 
0.6490734288881737 
0.06630145773257007 
0.673532240831478 
-0.846451959539652 
-0.1309620901333167 
-0.257033056960809 
-0.004993545741787024 
0.09475861370973814 
-0.2246116190017723 
0.09137496633879064 
-0.005281122658315087 
0.02566221914277329 
-0.6596159139151356 
-0.8186055910100799 
-0.541776556129525 
-0.9434654877280734 
-0.1108860551061897 
-0.346075317666998 
-0.1421865882887815 
-0.1908401779720768 
-0.396776066609181 
-0.2883669268528672 
0.2174669948381288 
0.1666225082517071 
0.400545453323946 
-1.1492272464164 
